0.03330099 1.243514 -0.3322636 -0.4075667 0.4336639 0.29183027 -1.0280545 -0.22759944 -0.352376 0.419315 -0.2687423 0.51012933 -0.46960226 -0.6317156 0.17399466 0.02154651 -0.27646413 0.05224617 0.6649099 -0.61200595 -0.8700337 0.272249 0.9024013 0.419788 -0.36916405 0.19062372 -0.097003855 -1.0620769 0.6275225 0.9429772 0.21070102 0.64781606 -0.45763242 -0.38656768 -0.36085427 -1.4123379 -0.07472314 -0.62534136 -0.26333565 0.89660597 -1.469918 -0.7813411 0.25726587 0.6702104 -1.2857904 -0.54508716 0.24882628 0.9522106 -1.0652033 -0.7683709 -0.050773196 0.616746 -0.2091823 0.41585723 -0.06173342 0.31241536 -0.3910073 -0.16025476 -0.5485146 0.90551126 0.1868318 0.83539456 1.081438 0.10186149 -0.9986923 0.8770669 -0.4022554 -0.9522549 -0.95436627 -0.9648873 -0.7832149 -0.35092664 0.7047183 0.4980968 -0.57896525 -0.7998586 -0.28457585 0.24641463 -0.8482722 0.21569495 -0.39890942 0.6300278 -0.8329611 0.39806724 0.76812756 0.096280076 -0.45705178 0.72794026 0.19796468 0.1515717 0.56356597 -0.6119533 0.70580435 0.1351864 -0.51201737 0.9837677 0.10371881 0.46174023 -0.2960865 0.9973948 0.13560456 -0.20438759 -1.1173036 -1.4477549 0.7151855 -0.52772254 0.09614377 0.1357383 -0.18151316 -1.1097691 -0.5282299 -0.28141347 0.108285815 -0.83718264 0.96701604 0.05451665 -0.44926268 -0.36011362 0.10978674 -1.0384072 1.1258079 0.20699948 -0.796991 -0.76675403 1.049381 0.045623288 0.6537151 -0.8362326
