0.42926064 -0.6768609 0.24728705 -0.4881524 0.06287115 1.3268613 -0.7438216 -0.7979114 -0.4440807 -0.66551816 -0.8578565 0.32820252 -0.5897354 0.7706047 -0.5363447 0.5426137 -0.12084165 -0.2597096 0.55530053 -0.25978363 0.5396023 1.0042956 0.32910714 -0.24953482 0.8603673 0.49496618 0.46919402 -0.5979413 0.48125926 -1.017861 0.7626155 -0.21745723 0.86474746 0.66166157 0.63328516 -0.5959287 -0.22393876 0.5356931 -1.2039078 0.6604253 -1.5519099 0.67332035 0.21242231 -0.2230589 0.30687284 0.691625 0.5640189 0.962093 0.6516561 -0.33685088 0.16919446 -0.54482096 -0.51872075 0.78677917 -0.68778867 -0.84039474 -0.14292496 1.300564 -0.68297464 -0.96019477 0.74780095 -0.33779374 0.13527057 0.75509197 -0.76631176 0.9794449 -0.20289768 -0.3193741 -0.76295763 -0.5260649 0.7073992 -0.6215781 -0.21630971 0.21128532 -0.8895483 0.04558958 -0.94230527 0.83863544 0.38401735 1.093261 0.6356864 1.3074651 0.3090504 0.024827927 -0.0074529215 0.9210329 1.1402011 0.12986974 -0.41076574 -0.61753064 -0.7550907 -0.17459685 0.6360584 -0.36959234 0.7134279 0.36432803 0.2238057 -0.71491164 -0.18772072 -0.17203997 -0.5646832 -0.51488394 -0.023184976 0.37085286 -0.7754918 -0.9643377 -0.7983632 0.81765836 0.40957516 -0.13247627 -0.28269798 -0.8633593 -0.59511864 -0.33512297 -0.672769 -0.28407994 0.6554859 -0.12746368 0.7754633 -0.9336776 0.8660449 -0.66631764 0.20333068 -0.971024 -0.35394037 -0.7190458 0.80439067 0.085418604 0.64275736 0.48532665 0.64006954 -0.5238523 -0.44617626 -1.0117172 -0.18012878 0.20185207 -0.44054615 -1.0250231 -1.2248347 -0.36569282 0.31963402 0.70446664 0.98415416 -0.7563343 -1.5668651 -0.56602687 0.607372 0.36315957 0.2387559 -1.019491 0.13257094 0.38073483 -0.28089038 -1.3019509 -0.9741836 -0.74559844 -0.12406201 -0.11612223 -0.68320113 -0.7889606 -0.9020247 0.3807333 -0.4774562 -0.017690012 -0.1371127 0.06980293 -0.3197495 -1.2894207 -0.3313766 0.027442599 -0.29959434 -0.24614125 -0.66178143 -0.44990617 -0.02559452 -0.7220826 -0.045347676 0.018503563 0.21099944 -0.96751577 0.9893275 0.46149737 -0.6280043 -0.27775937 -1.1079174 0.026726592 0.06059016 1.0805249 -0.020336902 0.09564439 0.9640262 -0.3123662 0.8457047 -0.35324633 -0.83215964 -0.7247519 -1.1581202 0.99810225 -0.22431687 0.116126336 -0.5627612 -0.28381267 0.46201506 0.61129296 -0.38447243 0.47493666 -0.4652437 -0.030607423 -0.7589615 -0.4111591 0.28156945 -0.41563916 0.16826274 0.8145955 -0.6533565 0.36905047 -0.3042047 0.20676883 0.3899819 0.99730873 0.22616644 0.20952402 -1.0290422 -0.9843359 0.55343413 0.4891446 -0.21505736 0.7607393 -1.1272836 -0.7832365 0.39215305 -1.1492685 0.38897243 -0.9762853 0.7272744 -0.096753314 0.52143645 0.57550097 -0.8999495 -0.017459897 0.18156278 -0.34827164 -0.45025685 -0.20249262 -0.38500765 0.45416814 0.35659572 -0.5528566 -0.25279957 -1.4079285 0.26260558 -0.89936966 -0.46138927 -0.3836662 -0.60466295 -0.4731278
