-0.082203165 -0.22236848 -0.4284679 -0.74862254 0.41799834 -0.32498643 0.047696043 0.16526672 0.92111164 0.58355427 -0.16509216 -0.67947775 0.60524535 1.0984919 0.60503703 -0.8454888 0.76784223 0.057291918 -0.5656923 -0.35895628 0.69993526 -0.70539856 -0.9975018 -0.9999105 -0.04975322 -0.08399462 0.654667 0.6677908 -0.42896894 0.049412146 -0.76104426 1.3304055 1.0059227 -0.93294185 -1.0433786 -1.1803504 -0.054555856 -1.015813 0.22675723 0.65007764 -0.30667645 0.66268975 -1.5728096 0.881147 -0.7212564 -0.03754463 -0.8071702 0.8081178 -0.58967245 -0.8637342 0.49510947 0.46852994 -0.032475345 -1.4135649 -1.4753269 1.3459089 0.93321425 -0.6735954 -0.2213634 0.5252574 -0.83769614 -0.2560962 -0.9333062 -1.1182747 0.4073296 0.37184036 -0.19771208 0.9313458 -1.0352111 1.0180782 -0.65699196 -0.21227747 -0.32577372 -0.29791966 0.041507788 0.40434662 -1.0186905 -0.86900294 0.84854937 0.18116824 0.29677004 0.46878296 -0.8023386 1.3207265 -0.9076745 -0.4086668 -0.41966027 -0.4450611 0.61652863 -0.8378352 -0.11362569 0.033596892 0.9792232 0.66855586 0.80305237 0.53402185 -0.2665926 -0.397765 1.6117074 0.2648116 1.1360517 0.30440938 -1.0901841 1.3109587 0.13729346 -0.7780589 -0.8381083 -0.90493804 0.26050514 0.065791704 -0.6171803 -0.19115047 -0.9903334 -0.14321059 0.44216496 -0.38092205 0.41196087 0.8765403 0.5953448 0.57364213 0.45071754 -1.2881942 -0.3323704 -0.47325385 0.9917646 0.26795086 0.2625382 0.0857661 -0.59123266 -0.46005648 -0.00928274 -0.9920528 -1.020593 -0.82798475 0.037307587 0.36101463 1.2897213 0.77654946 1.3632509 1.2717347 0.64467925 0.15843926 0.6508467 -0.2011022 -0.8101756 0.057597242 -0.5281384 -0.67073923 -1.5641013 -0.6827501 -0.14493129 -1.1536763 -0.3505617 -0.84028363 -0.953262 0.0032290288 0.5958599 1.0752944 -0.49241498 -1.2339809 0.17350343 0.012749113 -0.18553017 0.09195386 0.48410913 -1.3710523 -0.3957378 -0.14993116 -0.49697533 0.37507305 -0.52922565 -0.8200641 0.5329661 -1.2640054 -0.7833739 0.7626026 0.4857225 0.4218041 -0.2595727 -0.10342895 -1.0924765 -0.29273358 -0.664781 0.4278213 0.1318046 0.7595024 -1.2726568 0.75249964 -0.26580083 1.124767 0.8685967 -0.6249038 0.8097438 0.10973678 -0.037818063 -0.46240208 0.7031236 0.7380244 0.5890822 -0.5334422 0.27916473 0.97916126 -0.3453492 -0.6331937 -0.6308211 0.10437472 -1.0854274 0.56691206 1.0121708 -1.2949892 0.30300358 -1.1027554 0.32104093 0.9657651 0.7244137 -0.24947317 -0.5536393 0.4795704 0.96782106 -0.21815084 0.7535898 0.20160522 -0.32709584 -0.83399695 -0.6742068 0.55299705 -0.23251007 0.07818934 1.0977336 0.4144353 0.22278792 -0.53499323 -1.1043139 -1.4744592 -1.6833751 0.37015477 0.4301835 -0.3011919 0.53643453 -0.2833877 0.11214062 -0.7685919 0.43694037 -0.29135057 0.31973636 1.2535182 -1.2665269 -0.6436079 -1.7765893 0.3057651 0.023924978 -1.5114096 -0.8588888 -1.1116894 -1.1805073 -0.21538608 -0.08985188 -0.13040277 0.094687276 -0.6527512 0.30767566 -1.2606933 0.15921193 -0.5513876 -0.755771 -0.46837017 0.29630455 0.21958841 0.034254856 0.30365995 -0.19770439 0.612528 0.33991572 0.88660324 0.48028848 -0.98642844 -0.37848258 -1.2331741 0.9412755 0.11913361 0.59145284 -0.37474564 -1.1398634 -0.4688756 -0.13217008 0.2818035 -0.52825195 0.3597538 -0.69428253 0.83048654 -1.0164661 0.0118575515 0.3019898 0.042451534 -1.2479413 0.1869938 -1.3738036 1.6414763 0.52567047 0.6582086 -1.692906 -0.9979734 -0.28345335 0.14588553 0.12560248 0.7381789 -0.12632087 -0.20404887 0.3117823 -0.74736285 0.5617487 0.28072312 0.17003301 -0.5887111 0.30175397 1.0162939 -0.8742679 1.0561727 -0.2621034 1.369392 -0.034962725 1.0752299 0.3677208 0.6698943 0.016269408 -0.3712958 -0.024624275 0.72078156 0.28493375 -0.13589875 0.5807894 -1.2287265 0.13963793 -0.37672248 -1.8329494 -0.80406684 -0.21931079 1.5877217 -0.48341423 -1.0185746 0.24001159 0.31619918 0.31216037 0.47800335 -0.8532902 0.6765492 0.82828796 0.854337 -0.5111763 -0.402627 0.35874888 0.0036368815 -0.5571476 -0.26984933 0.8371168 -0.33988816 -1.2811859 -0.6037664 -0.37512335 -0.7252512 -0.051887877 -0.08047329 -0.5181181 0.9977735 0.40641394 0.2352733 0.9355324 -1.0538282 0.98564553 -1.0806047 0.16239917 -1.5048397 -0.6885931 -1.0408884 -0.6907567 -0.27566004 0.30905473 0.9217138 0.4244433 -0.53893393 0.8348097 -0.6864878 0.1348765 0.4504168 -1.220824 0.22384715 0.89935476 0.1687508 0.40046284 -1.5772021 1.5089144 -0.65585655 0.647542 0.21790151 0.4961576 0.36761457 -0.01714101 -0.04095943 0.31682467 0.08530007 0.9198897 -0.110236876 -0.37869623 -1.2921368 -1.1171442 0.039175954 -0.97915965 0.27617842 0.41356838 -0.29370394 -0.14233562 -1.1012079 0.5608765 0.7822738 0.41449052 0.40402317 -0.4190044 0.08324905 -0.17943162 -1.3950256 -0.72218156 0.80524474 0.3666429 0.77169067 -0.7936419 0.319674 -1.173504 0.4000432 0.47513852 1.4482801 -0.18724175 -0.8716472 -0.6018369 -1.1433856 0.93317264 -0.9992107 -0.5563583 -0.6411381 -0.46933958 -0.1707709 0.22910215 -0.96059203 -0.8495946 -0.094237834 -0.78581125 -0.82918596 0.082881846 -0.27972957 -0.70228946 -1.1287768 0.6638548 -0.8766564 0.017981922 0.12645434 -1.0717174 0.3703658 -0.67994416 0.3687038 -0.57839155 0.79389656 -1.2894417 0.45944571 -0.028282458 0.57353926 -1.0851758 -0.6676264 -1.093355 1.2584726 1.0524749 -1.3712502 -0.8548145 -0.29462412 0.75427014 0.90915006 -0.83621514 -0.56240773 0.19946547 -0.5613138 -0.062090836 0.7882441 -0.293199 -0.32532954 -0.13874096 0.4883707 0.5112686 -0.76050013 -1.4547462 0.5453074 -0.6087861 -1.0635535 -0.59094465 0.52612454 0.20839696 -1.4322078 -1.2998006 0.91129535 0.7579433 -0.5582441 0.57604927 -0.45979387 -1.2454721 0.22670272 -0.26304638 -0.85130066 -0.5030816 -1.1630514 0.3608642 -0.5211935 -0.14507833 0.38772917 -1.0368786 0.77536917
