0.30516344 -0.049803086 -0.8961971 -0.9811756 0.13154534 -0.5325901 0.85320103 0.53660685 1.0133908 0.7128236 0.732597 1.009961 0.059696283 -0.438484 0.30412778 0.37168258 -0.4353989 0.8449332 -0.8342425 0.27132678 -0.14110869 0.61886364 -0.25291744 0.4994286 -0.8044055 0.8914392 1.0069308 -0.0274432 -0.6371622 -0.50123256 0.068963096 0.839865 0.18914841 -0.14846149 0.3990995 -0.6514487 -0.7749518 0.69502014 0.858953 0.046839833 -1.0131274 -0.641719 -0.8189296 -0.6138094 -0.44577143 -0.79650843 0.888377 0.5185151 -0.20852187 -0.3537365 0.036654808 -0.84461707 0.94729584 -0.22021407 0.13900295 0.974647 -0.9536034 0.75254554 -0.28378597 -0.64640874 0.26838344 -0.046414968 -0.8383102 -0.6416203 -0.08918389 -0.7617222 -0.22103882 0.7903636 0.7499821 0.90493166 0.29669404 -0.71016467 0.43002924 -0.26167226 0.2780283 0.43622485 0.5399464 -0.0062114024 0.44721672 0.7171538 -0.6080878 0.5566688 0.17127979 0.24730779 0.19243634 -0.09012996 0.5457654 0.29769695 -0.27701196 0.41408357 -0.41139713 0.118983045 0.05361082 0.442104 -0.11946636 0.5839532 0.8351199 -0.78110695 0.2015476 -0.41224644 0.07817312 -0.59280413 0.15542597 0.6094971 0.9314266 -0.04577363 0.51717794 -0.05734843 0.28619075 0.13876954 -0.3911391 0.24493025 -0.18463588 -0.8736185 0.5225347 0.40563488 0.07788301 0.53499764 -0.7986816 -0.6037069 0.66982454 0.16245648 -0.3870191 0.8873125 -0.9690082 0.31166828 0.7308515 0.64937073
-0.55333835 -0.26013723 -0.22241032 -0.24141115 0.19096322 0.69891137 -0.7262686 0.4682413 0.5010786 0.83234155 -0.10248436 -0.4186404 -0.5371598 1.1665046 0.76796186 -0.509209 0.13240902 0.44708273 0.30749774 0.73629576 0.67828614 -0.8242904 -0.53424954 0.46131626 -0.8850061 1.0277635 0.3545279 -0.62557197 -0.45062685 -0.24794039 0.719729 -0.012980615 0.1781666 -0.35000175 0.63529015 -0.6553677 -0.26131895 0.7338092 0.4384425 -1.0012186 0.68653095 -0.4132126 -0.45141262 -0.5301054 -0.86189294 -1.1611657 0.59705937 -0.30829757 0.058434818 0.20371109 -0.78511816 -0.28342983 0.2324307 -0.012885687 -0.3215275 -0.8602888 -0.24389835 0.4585626 0.4413197 -0.40905377 0.0713574 0.9878452 1.3235347 0.098674044 0.3651471 0.95150644 -0.9248668 0.60601985 -0.74784416 0.34802735 0.32107237 -0.79731894 0.16718514 -1.0293682 -0.05630873 0.5672203 0.26233828 0.836513 0.43554047 1.0905607 0.44496137 0.095993124 -1.2017084 0.09952679 0.13608922 0.5605578 -0.70472765 0.8457992 -0.37841073 -0.49861842 0.7032716 -1.0599122 0.5379122 0.5343845 0.42106542 -0.7747412 -0.4509187 -0.5835506 -0.013844127 -0.10756536 0.35481745 0.53033733 1.0297062 0.61214906 0.66113615 0.5730707 -0.85351145 -0.097839646 -0.96416545 -0.26777044 0.66006297 -0.007919633 0.1315795 -0.72201276 -0.4806847 0.5766075 0.59337056 -0.736572 0.447715 -0.21801236 -0.9679589 -0.97382367 -0.4255612 0.1022926 -0.55911803 0.3707214 -0.6341297 -0.70275486
0.018206507 -0.40232942 -0.7378591 -0.7562891 0.7186618 -0.3916435 0.28062382 0.8666407 0.53070354 -0.4306842 -0.50330323 0.1159322 0.022957487 0.7292846 -0.21067038 -0.75074255 0.06298669 -0.71696997 -0.97208256 -0.2005815 0.29389262 -0.39363596 1.0042382 0.0830071 -0.6012733 -0.24601422 0.43303713 0.9612686 0.12502094 0.22695796 0.8018178 -0.8031395 -0.6548984 0.8666879 -0.10705714 0.29866114 -0.4134315 0.6765226 0.065755405 -1.0049846 0.39156455 0.27633372 0.3965085 -0.45297596 0.69089 0.02851664 0.33527303 -0.11709244 0.6208105 0.3065038 -0.5270312 0.50709754 0.5683141 0.96259105 -0.8049414 0.37402147 0.17730963 0.78496933 0.68666303 0.71698236 0.39203534 -0.79013616 0.22212677 -0.68650293 -0.19684587 0.027421499 -0.48167133 -0.62092716 0.521223 -0.43650308 -0.21002176 -0.3775797 0.893762 -0.059713244 0.12860933 0.6865963 0.87189656 -0.992033 0.7753936 0.5311322 1.0247556 -0.14423883 0.80097413 0.6910858 0.5714434 0.49128386 -0.06688749 0.46399683 0.14257641 0.7072542 0.87629974 0.7479169 -0.9449771 0.11275201 -0.43896106 -0.8940283 1.2939496 0.9047222 -0.9517872 -0.27736723 -0.6071771 0.7409172 -0.2057858 0.45452395 -0.3465217 0.026335755 0.81865627 1.2005805 0.07012187 0.957505 -0.46259505 -0.5862088 -0.8142228 -0.30130213 0.9488847 -0.26444095 0.49867696 0.013304843 -0.1606036 -0.946852 0.46534008 -0.23277561 -0.14948745 0.8684538 -0.9556837 0.2589921 0.9822935 -0.9350505
-0.087040015 0.69666183 0.3501274 0.7144557 -0.63028437 0.28778815 -0.69458294 -0.77481174 -0.41969338 0.09849947 0.057316843 0.395273 0.9181688 -0.31369027 -0.63245684 -0.27362043 -0.40632036 -0.40874803 0.5118725 0.02120835 0.46020162 0.4781357 0.8252759 0.5623155 0.48410073 0.75156766 -0.47577763 0.027143298 0.18690681 -0.067815594 -0.742847 0.47540504 0.06543875 0.20463899 0.018525513 0.006952901 0.22743075 -0.024520291 -0.6290168 -0.5944477 -0.31544176 -0.734448 -0.91602546 0.58337235 -0.13697381 0.77422726 0.516329 -0.80838186 -0.48439887 0.9231948 -0.077902265 0.75264615 0.85810024 0.6758254 0.26426122 0.96195275 -0.2681173 -0.6939834 0.14401229 -0.95476496 0.2832502 -0.33563638 -0.86577094 -0.20513466 0.3398545 0.7350337 -0.9475934 -0.7436047 0.3059219 0.36070237 0.68741703 0.61941856 -0.60620946 -0.7446343 -0.35257444 -0.46645695 -0.030224698 -0.027823638 0.16019022 0.18033107 -0.6642263 -0.82535887 0.21001852 0.284762 0.9056765 -0.8428394 0.7180158 -0.6232443 -0.040601503 -0.15318364 0.52139604 0.94033116 -0.12967755 -0.13210422 0.5162481 -0.6098035 0.5304787 0.2005004 0.38247535 0.86162895 0.45320714 0.1998452 -0.40655375 0.76832736 0.1265489 -0.1841842 0.033685703 0.4991772 -0.5792112 0.21872906 -0.7980083 -1.0460571 0.15853637 0.74236494 -0.610834 0.6180326 0.7001398 -0.30742693 -0.445564 -0.21038373 -0.2112498 -0.22712524 -0.16762257 0.24518137 0.13885757 0.78219503 -0.46871674 -0.61302185
-0.29134884 0.2905617 0.26807725 -0.07503602 -0.14532527 0.16665308 0.25322503 -0.03707645 -0.8638408 0.4807234 0.25899523 -0.43381563 -0.2816737 -0.3831457 -0.5896322 0.9878506 1.0828493 0.67314565 0.9237607 -0.26905668 -0.60855573 0.7619058 -0.47228858 0.79340816 -1.0128115 -0.86190915 -0.71789473 -0.40488768 -0.89103097 -0.5114148 0.808563 0.111896336 0.10586481 -0.121099606 0.28922218 0.48867664 -0.71905047 -0.6811048 0.4426767 -0.7567985 0.84872097 0.8596829 0.35290903 0.3641369 -0.89115316 0.7069917 0.7526742 -0.9517946 -0.8009888 -0.40731356 0.3485655 -0.9319604 0.7395601 -0.033609096 0.391377 0.55012864 0.2138495 -0.07730599 0.20414922 0.11966271 -0.8815423 -0.2688811 -0.39873767 -0.29667532 0.5865031 -0.89374924 0.7097712 0.5508232 0.72340405 0.4434646 -0.7556937 0.3467515 -0.14682056 -0.004331527 0.3291838 0.4554253 0.402262 -0.7180156 0.7102001 -0.893522 0.5102248 0.74069935 -0.3321076 0.6996399 0.811134 -0.091828436 0.7106347 0.7226507 -0.42349485 -0.8758516 -0.586028 0.38489142 0.9614864 0.09121542 -0.41317138 -0.38337135 -1.2321976 -0.8177501 -0.7600611 -0.39605257 -0.8639237 0.16096878 0.70019275 -0.8722418 0.56067526 -0.035112295 -0.28221887 -1.0663182 -0.12181477 0.13451384 0.2994023 -0.5745493 0.9970697 0.5419857 -0.22896996 0.33389 -0.97489595 -0.6385677 0.62828654 -0.08551078 0.7560176 -0.106155984 -0.46469834 -0.31072193 0.7480136 -0.84168804 0.26813424 0.6140539
-0.022141973 0.769253 0.054763023 0.17017955 0.0016202236 -0.06599534 -0.73773867 -0.12238212 0.9104842 -0.318231 -0.8186883 -0.037046164 -0.18279763 0.83732677 -0.61787 0.36285755 0.9145608 0.94766957 0.7488503 0.71438545 -0.99882126 0.29920825 -0.64633906 0.052493054 -0.32215416 0.1090808 -0.6505626 -0.16067575 -0.25984234 0.38825387 -0.2523485 -0.3535962 0.19575933 0.79196215 0.08187559 -0.2999963 -0.9068064 0.36068577 0.18912265 0.2574156 0.34562454 0.44326413 0.6518449 -0.7232256 0.678992 -0.29068425 -0.07269774 0.70047235 -0.8259787 0.19894561 -0.27994648 -0.710476 -0.9913646 0.7403373 -0.68236756 -0.18115291 0.6892316 0.74317485 -0.29993397 0.7409871 0.8175711 0.56999356 -0.6962397 -0.11784189 -0.81751746 0.40259254 -0.49009693 0.2669982 0.9348365 -0.20013322 0.8749972 0.219323 0.17881282 0.37657452 -0.7772275 -0.9558577 -0.25057974 -0.42046028 -0.7514016 0.52727556 -0.23611069 0.011386182 0.4229248 -0.23303781 0.7483352 -0.6211319 -0.97119015 0.8586409 -0.3731428 0.06577254 -0.22754177 0.61268055 -0.310469 0.87758636 0.85824853 -0.85434914 0.216455 0.62005657 0.514759 0.0081308475 0.78373486 0.6977123 -0.047655422 0.3433306 -0.7172956 0.8055555 -0.33066353 -0.14807305 0.20270728 0.5212283 0.30447075 0.95354015 0.38718793 -0.6864634 0.7699952 0.44722858 -0.24414709 -0.19682305 0.88516545 -0.21380778 -0.88896596 -0.659934 0.24860789 0.08739175 0.81757104 -0.5548414 0.045839973 0.45925388
0.8169347 -0.2916452 -0.5861946 -0.064789355 0.85810065 0.86809117 -0.096237645 0.92365015 -0.8187099 0.44430053 0.78396165 -0.52146286 0.497282 -0.794214 -0.7980916 -0.42249325 -0.43436623 -0.3138872 -0.9354967 0.32099628 -0.5644473 -0.2185431 -0.35280865 -1.0025691 -0.41632771 -0.6560169 -0.06133066 -0.52278227 0.2778687 0.5067414 0.48248532 -0.09806815 0.66064525 0.41683567 -0.8408827 0.7467014 -0.58526057 0.28589603 -0.06286353 0.6579058 0.82503355 -0.101712264 -0.04540625 -0.66526556 0.2203124 0.035695422 -0.10188666 0.6360922 0.40733624 -0.15509959 -0.4622263 0.21794583 -0.725252 0.98849326 0.28547004 0.54682326 0.24735776 0.020548278 0.69936997 -0.9565946 -0.9294633 -0.841867 -0.59140474 -0.3776437 -0.6563446 0.2362322 0.32437667 -0.30773932 -0.50478673 -0.8562835 -0.59803236 -0.53222793 -0.15483029 0.009487718 0.98399985 -0.7965963 0.07883254 0.7232341 0.031175701 0.2225164 0.38717812 -0.12294974 -0.8670738 -0.16146097 0.24744342 -0.8545944 -0.7705784 -0.7549962 -0.9104938 0.14112331 0.047898926 -0.5164816 0.22971827 -0.39299676 -0.1797141 -0.36601815 0.4396857 -0.8601092 -0.25901988 0.36232004 0.52036756 -0.5801538 -0.94494784 0.88839895 -0.3846477 -0.39520377 -0.5616639 0.7822605 0.9278553 0.12853348 0.1321657 0.09354238 0.2123779 0.13796791 -0.34860602 -0.23622586 0.8415475 0.6143823 0.8995024 0.7073099 0.058393195 0.49907368 -0.4109776 0.6821866 0.8920298 -0.95579827 -0.28964952 -0.11205764
-0.057003148 -0.6276316 0.06961308 -0.30922416 -0.57778424 -0.13337918 -0.7319602 0.83672655 0.12245403 -0.73859906 0.61585283 -0.6007568 -0.7574397 0.78827584 -0.60356385 -0.8300538 0.23487183 -0.5313722 0.8228667 0.06245573 0.46696666 1.0384327 -0.6678676 -0.99887323 -0.2772962 0.1335618 -0.55526245 -0.92766935 -0.7448772 0.87422353 0.08329785 -0.09469829 -0.17819619 -0.4920771 0.28862283 0.7451067 3.0567532E-4 -0.28966144 -0.06884666 0.93455577 -0.025467135 -0.34926614 0.902159 0.6164987 -0.7124545 -0.7828008 -0.3375358 -0.104854055 -0.39554617 -0.5174529 -0.6834256 0.9556335 -0.7326658 0.6416363 -0.73075897 -0.09679828 -0.07542437 -0.17441006 -0.124810144 0.497269 -0.5653192 -0.29921898 -0.70952535 0.5528601 0.729597 0.45096788 -0.59259635 0.7618834 0.81892884 0.10691104 0.054197032 -0.94094586 -0.4169819 0.4608211 0.74800926 -0.9535985 -0.73343056 -0.51463455 0.58723396 0.07728368 -0.70177233 0.46585798 0.921376 -0.7957441 0.7770033 -0.35917452 0.89049983 -0.20040335 -0.785245 -0.0075897756 -0.8355749 0.9387029 -0.029291462 0.5038836 0.3006878 0.9542651 -0.7884522 -0.90133625 0.3657805 0.740269 1.0196259 0.8272375 0.3786424 0.22261254 -0.47382882 -0.08228242 -0.7544097 -0.7431638 -0.7838464 -0.54042673 -0.19727153 -0.90081245 0.53720486 -0.40924639 0.8281281 -0.0772899 0.16778617 -0.7129457 0.9987852 -0.45111868 -0.36169145 -0.67341644 -0.6395563 -0.5307062 0.8408136 -1.0876755 -0.22526559 0.28539732
0.07757819 0.29915792 0.048211236 0.06787387 -0.4606566 0.4325283 -0.37695852 -0.23550323 -0.10732694 0.18289971 0.07528168 -0.8213829 -0.50213915 -0.5431091 -0.81048816 0.7921858 -0.283672 -0.67114484 0.91060686 -0.15163162 0.11457334 0.84489167 0.9307065 1.0958531 -0.58617514 -0.3862142 1.0323104 -0.8608806 -0.24569564 0.5396897 -0.6805581 -0.50413716 -0.19031097 0.87871975 0.7225343 0.26874456 -0.41468546 -0.5048206 -0.6568696 -0.20651491 -0.6919973 0.78235656 0.06777403 1.3218716 -0.41654676 0.13533276 0.93520844 -0.91377306 0.3715177 -0.5209451 -0.11950009 0.284308 -0.8548456 0.7850609 -0.28835025 0.25780186 0.4676731 -0.95508254 -0.8101745 -0.62979156 -0.05770772 0.9414456 -0.39145586 0.4144131 0.18949811 -0.17995548 0.9919448 0.88088095 -0.019194346 -0.5889715 0.56478614 0.07697177 -0.08855994 0.19845891 -0.5055888 0.4134612 -0.19718382 0.6666358 0.8083585 0.4836459 0.9009668 0.39083007 0.23538646 0.3836282 0.38441896 -0.7653684 -0.26011202 -0.08773058 -0.63177806 0.12683277 0.8161713 -0.68542945 -1.110692 -0.7128934 1.0971304 0.116910934 -0.79454553 -0.37125966 -0.42947197 0.9838872 0.7440428 -0.54671705 -0.37552014 0.87437755 -0.59314317 0.25202987 0.65626615 0.8660213 -0.52984124 0.6592867 -0.68678606 0.33436087 0.5320575 -0.4235261 -0.48528197 0.7247501 0.08543727 0.5387689 -0.8731723 -0.7610312 0.0099013625 0.06824876 0.24563298 -0.6338143 0.34896138 0.8529672 -0.12292885 -0.12913728
-0.3953252 0.89104897 -0.38024327 -0.10300839 0.27441248 0.67343605 -0.93010235 0.36734793 -0.76463944 -0.82097876 0.16019274 0.19483595 -0.14922091 -0.09261298 0.22121935 -0.013567334 -0.4574386 -0.6674528 0.17178017 0.62584645 -0.3928795 -0.90638274 -0.4841654 0.48427618 -0.8379382 0.67170197 -0.7943458 -0.16071731 0.13070668 -0.5265509 0.9763105 0.5858228 0.6607889 -0.72185653 0.2760032 0.7902462 0.16367525 -0.043003976 0.7574134 0.3457604 -0.3293758 -0.6569163 -0.82027143 -0.5880512 0.25327477 0.38605896 -0.116607524 -0.5276696 0.8199089 -0.44426036 0.32410106 -0.9408632 -0.07575889 0.76853824 -0.564239 0.9552398 -0.3097415 0.33956623 0.47333097 0.25518906 0.5022752 -0.7589396 0.29940233 0.699261 0.39167473 -0.63166034 -0.5548814 -0.64375633 0.64897597 -0.9084054 -0.7910248 -0.44245473 -0.1649888 -0.68310916 0.5392179 -0.30333424 -0.23103032 -0.64775205 -0.35763913 -0.7966018 0.976317 -0.043657042 -0.22648107 0.6638083 1.0519828 -0.82998824 -0.27533284 -0.57976 -0.89987993 -0.41218546 -0.558087 0.087024 0.16803615 -0.6739121 -0.31214845 0.15251519 -0.6026087 -0.1449892 0.5935269 0.51473194 -0.449616 0.99403346 0.7087081 -0.16953994 -0.08110127 0.13522823 1.0214578 0.7702671 -0.52022225 0.38051122 0.42224652 0.4889233 -0.18939212 -0.045245085 -0.83626014 -0.2484753 -0.70458174 -1.0829065 -0.1253626 -0.5401579 -0.89492285 -0.64399016 0.971626 0.8978877 0.08883079 0.20388325 0.62070507 -0.47113362
-0.91279 -0.22309712 0.26113215 0.7175404 -0.6170654 0.362161 -0.8034797 0.9738649 1.0554177 0.7894844 0.37776557 0.33032647 0.78850436 0.1427006 0.36082944 0.9299845 -0.6368904 0.58410484 0.84539354 0.9524057 -0.417096 0.7289759 0.6863429 0.51394475 0.41858345 -0.08845924 0.8793959 -0.5455808 0.72194415 0.12537998 -0.47838762 0.37699735 -0.98216796 0.7771038 -0.19889307 -0.8349411 0.6139884 -0.27710983 -0.48877853 -0.8592681 -0.31653687 0.42732307 -0.4923476 -0.47313434 0.21987756 -0.5367413 -0.6961669 -0.8945242 0.96863747 0.8889256 -1.058959 -0.48068827 -0.06778056 0.7119929 0.35193193 0.123477094 -0.49122056 -0.032949116 -0.39374647 -0.77902925 -0.9324545 0.19777629 0.7108153 0.20102721 0.30141625 0.09613668 0.6342756 0.8384041 0.36802298 0.87534934 -0.76033634 -0.39756912 0.43415055 0.8219496 0.6260176 0.7277653 0.38444656 -0.66356647 0.29961553 0.24279113 -0.33706376 0.42685848 0.8164438 -0.8621019 0.52329445 0.34337822 -0.64166874 -0.8450049 -0.8769069 -0.06713344 -0.8834738 0.7528128 -0.038071465 0.9944126 -0.4379997 0.6598781 0.7445905 -0.5608874 -0.426046 0.33658305 0.21349865 -0.5955287 -0.86233383 0.5517696 -0.22446762 0.23124023 -0.06639855 0.99192804 0.10077649 0.81570786 -0.19970113 0.020441722 -0.6281429 0.033576485 -0.34093073 -0.43823776 -0.290443 -0.7029235 0.85222787 -0.35212204 0.67255825 -0.48786494 0.6589019 0.1907501 0.20566191 0.28109846 -0.5469981 -0.6449683
-0.30459622 0.24388479 -0.21151316 -0.7911234 -0.03418708 -0.3720037 -0.73052365 0.55853915 0.48281395 -0.2892226 0.3824399 -0.28388742 -0.21440957 0.70130146 0.86194384 0.43230045 0.5554038 -0.0685447 0.3076051 0.33718294 0.4585367 -0.057598334 -0.9185324 -0.83573043 -0.5942437 0.5498312 -0.011821149 0.080042444 -0.12789 -0.490522 0.77656305 -1.0043507 -0.7947852 0.3028485 0.0020747366 0.81796336 0.74482477 -0.51613283 -0.55213994 -0.423689 -0.8028366 0.31756842 -1.0146188 0.3704622 -1.0216117 0.7465645 0.76481855 0.6656993 -0.9227948 0.16881087 -0.3299121 -0.7477372 -0.9101714 0.018025553 -0.65343237 0.118533835 0.6959237 -0.71792877 -0.8838563 -0.24523672 -0.06997464 -0.30976573 -0.7483023 0.70874894 0.5957296 0.9444403 -0.92069733 0.41764632 -0.9001307 -0.46085516 0.85502666 0.127031 0.5106491 -0.38282424 -0.5469922 0.8576703 1.0309412 -0.33121404 -0.968903 0.003194769 -0.3052234 0.9328959 -0.12441739 -0.86671627 -0.4058449 0.025929077 0.2649768 0.93465716 0.6588795 0.90961623 0.9877344 -0.33176947 0.7094295 0.58648306 0.59162986 0.03542756 0.6140919 0.6976861 0.47853637 -0.020181317 0.31992793 -0.5675298 0.15618151 -0.5346505 -0.2858232 1.0021058 -1.0276085 -0.38602832 0.31309927 -0.8149478 -0.010765514 0.33455634 0.2761825 -0.7404082 -0.39571425 -0.59249395 0.8976807 0.959567 -0.15766199 0.21832895 0.9091097 0.56186813 -0.69304043 -0.71660525 0.9263586 0.2340946 -0.31892914 -0.58022773
-0.74075395 0.6005834 -0.08342662 -0.8099553 0.289311 -0.7158472 -0.6117862 0.69019306 0.6080204 0.6221444 -0.28139597 0.1422474 -0.45134243 -0.0059152464 -0.9436183 0.030604105 -0.47799322 0.12011438 0.55911136 -0.13606988 -0.6189758 0.96957266 0.8859922 0.72403663 -0.25441107 0.72882026 0.45070037 -0.7411832 0.08108966 0.040640518 0.9077037 0.9130619 0.78182673 -0.593595 0.55062693 0.277408 -0.61098975 0.018691916 -0.6529074 0.21820137 0.58415496 0.38160375 -0.41499615 -0.49362788 -0.96810085 1.0644808 0.47703192 -0.89479584 -0.6085413 0.87852436 1.0614606 0.54956573 -1.0337801 0.1314228 0.2615862 0.6692488 -0.38929343 0.6618497 -0.6110445 -0.25758296 -0.5012422 0.73911434 -0.487247 0.48507184 -0.036405228 -0.615856 0.41847602 -0.32064158 -0.94618446 -0.42927366 -0.5946751 0.8630458 0.84731984 -0.799508 0.09732167 0.30687016 0.31384528 1.1093829 -0.077668525 0.40391272 0.39890206 -0.5812587 -0.08330885 0.35034177 0.2636783 1.0018044 -0.59415865 0.34450105 -0.13292143 0.29949507 0.37626958 -0.5789113 0.7095696 0.38382322 0.5796848 -0.124504626 0.37348214 -0.2602078 0.021963816 -0.7330797 0.8568602 0.27186078 -0.5051327 -0.7012405 -0.8891236 0.09534464 0.84023833 0.13187067 -0.16076408 -0.5793769 -0.6472692 -0.5887009 0.85864085 0.8781855 -0.2212627 0.5810701 0.15822814 -0.650497 -0.095357925 0.88955367 0.09704688 0.38782203 -0.44639617 -0.60942686 0.56788087 -0.24037033 -0.26356632 -0.8372464
0.41207013 -0.38906792 -0.047070034 -0.82437235 -1.2655476 0.22242142 -0.7913713 -0.16502057 0.46835676 0.13632943 -0.3738083 0.8850511 -0.075721554 0.5005539 -0.6471258 0.88392276 -1.0186553 0.6574412 -0.81196636 -0.078240894 -1.123833 -0.27701992 0.63030946 0.32949382 0.2489053 0.5999021 -0.19043055 -0.3852786 -0.52492845 0.33288893 -0.77732134 -0.759291 -0.71881175 -0.6062881 0.43010262 -0.34112355 -0.116347544 -0.603356 0.7062502 0.3364409 -0.928093 -0.748912 -0.17319782 0.12831089 -0.49386573 0.38997295 0.6289828 0.41194242 -0.7186362 -0.74778086 0.25044602 -0.66986465 -0.3319092 0.51769245 -0.5443779 -0.28215078 -0.96310526 0.84804523 0.9848348 0.0056806225 -0.7201001 0.6475137 0.36089173 -0.34048346 -0.13389859 0.637895 -0.47736287 1.0646435 0.7240976 0.78151506 0.15542783 -1.1869859 -0.73313797 -0.6130117 0.6998493 0.6017595 0.3257211 0.037411194 -0.57042074 -0.2263375 1.0317954 -0.32952005 -0.31484023 0.07407514 0.630405 -0.14134753 -0.1733563 -0.032084417 -0.15965502 -0.390291 -0.84177 0.3292934 0.13018864 0.24572763 -1.1465192 0.110324055 -0.63865465 0.3039835 -0.8243992 0.2161817 -0.5068067 0.49715436 1.0138158 -0.6172068 -0.9920658 0.14785802 0.68714905 -0.64994085 0.13541786 0.4217102 0.5628776 0.30500588 -0.21246104 1.014277 -0.84984696 -0.50366694 -0.7062957 0.042364344 -0.008224729 0.62630427 0.12055913 -0.25101212 0.89067876 0.8185424 -0.49219158 0.711327 0.46034953 0.48292452
-0.9240718 0.73747915 0.6147152 0.48775974 -0.13374457 -0.77567196 -0.9718259 -0.8399038 0.062270425 0.2796669 -0.4809321 0.59883547 0.5516534 0.63653904 -0.78640205 -0.5191752 -0.8996876 0.09218644 -0.92299384 -0.5997477 0.7718787 0.9794706 0.16508695 -0.28112367 -0.36203668 0.2843435 0.4676634 -0.027416524 0.8851458 -0.578579 0.28935727 0.50489247 -0.65312654 -0.7898605 0.87349916 0.4662799 3.692604E-4 0.47794732 -0.39157513 0.6430422 0.11434505 0.5346829 0.16540338 0.43944168 -0.79707944 0.13122532 0.22977935 -0.48420748 -0.9283726 0.15263952 0.9450202 0.07097221 -0.89589405 0.77250576 0.034276146 -0.89001745 -0.115643986 0.58752847 0.75826615 0.21678603 -0.96864635 -0.69026995 -0.7265067 -0.514799 -0.21527702 0.6098849 -0.76265717 -0.88636273 0.84707415 0.75537586 -0.7301169 0.9771965 -0.2957949 0.06805824 -0.24428958 -0.16569382 0.9642038 0.8571529 -0.8903224 0.019837365 -0.73158 -0.10413031 0.72024167 -0.74080193 -0.028051533 -0.6045174 -0.14479366 -0.98327386 -0.2435899 0.9515759 0.65057385 -0.66116744 -0.067697994 0.90556335 -0.22656901 0.44498828 -0.6163708 0.9308424 0.7654066 -0.7675248 -0.58407557 0.8870329 0.1060631 -0.2679759 0.909945 -0.94624823 -0.2554333 0.38007867 0.27725995 -0.59010434 0.47416094 0.30893677 -0.16630653 -0.96210164 0.3010176 -0.618745 -0.50703216 -0.007663679 -0.9736204 -0.16823216 -0.60173297 -0.2833744 -0.47310737 -0.07179736 -0.7124393 -0.077421404 0.4564749 -0.21053194
0.60455626 0.7836883 0.61819977 -0.98016596 0.55698043 0.9344972 0.113981746 -0.55414873 0.32202008 -0.5693095 -0.5632612 -0.7393874 0.052833837 -0.24991992 0.35477448 0.3476659 0.6028799 0.15526575 0.38309684 -0.2299145 0.89401746 -0.29993042 -1.1495924 0.38282478 -0.059226554 -0.08913891 -0.9958205 -0.17039321 0.5747182 -0.5399799 -0.34201166 0.028319143 -0.86876833 0.56537795 -0.10474465 0.4497073 0.536472 -0.53675145 0.71248424 -0.8561327 0.68916583 0.06709544 -0.50426793 -0.6787907 -0.88367176 0.9024074 0.647913 0.030067785 -0.60795444 0.22405662 -0.25754908 0.028499112 -0.51312613 -0.5431422 -0.040969037 -0.57348096 0.094414376 -0.57732 0.19978169 -0.24325757 0.33566594 0.43223104 -0.26084283 -0.10272523 0.38144466 0.2141452 0.27360076 -0.23892392 -0.22488013 0.39390638 0.025220562 -0.82964104 -0.44921303 -0.78821313 1.3108854 -1.2374905 -0.92753613 0.46855426 -0.6582084 -0.64889383 -0.47119656 0.57774514 -0.24610603 -0.5640284 -0.88983 -0.7384072 0.6969469 -0.19682908 0.84673136 -0.7877782 0.33872327 -0.3472887 -0.50583655 0.07822926 -1.0381881 0.44471058 0.33610377 -0.59459615 0.6726516 0.29052246 -0.5725096 0.78002155 0.61098826 0.24265292 0.19004951 -0.3002966 0.6843159 -0.49872607 0.47354004 0.39252794 -0.39177716 0.0975167 0.5389972 0.33968475 -0.7385773 -0.5413429 0.3742502 0.42113504 0.87812597 -0.9622938 -0.95104176 0.018411245 0.57051116 0.34205106 0.62010497 -0.90308774 -0.4393141 -0.2328656
0.14838557 -0.63184005 0.21843061 -0.097066954 0.3138401 -0.43578592 0.5280465 -0.4839361 0.8004934 0.614538 -0.058488585 0.4468176 -0.8642889 0.9010401 -0.77039236 0.053944852 0.22558028 0.9113728 -0.3801432 -0.9996484 -0.4409927 0.7535732 -0.14548938 -0.17733668 -0.60666054 -0.114668064 -0.6134064 -0.6913454 -0.8598395 -0.8647845 -0.97476155 -0.17812295 0.496684 -0.56452334 -0.06882842 0.39308208 0.3308296 -0.3733568 -0.5684068 0.70583886 0.1642668 0.7391036 0.5661653 -0.22872645 0.48018754 0.48237684 -0.44640088 0.46035632 -0.99405617 -0.854399 0.45230404 -0.3314207 0.4977121 0.5172095 0.6879546 -0.7711994 -0.05631702 -0.98507285 0.50859714 -0.0055884295 0.7984884 -0.5900486 0.9940155 -0.54588383 -0.4668224 0.2036265 0.33608028 0.21250764 0.7260051 -0.056301873 0.9724569 -0.645187 0.97887945 -0.56976956 -0.3810979 -0.92622995 -0.73090535 0.3119007 0.812977 -0.09353064 -0.37594604 -0.79551905 -0.73289484 0.38201192 0.5358653 0.34563005 0.4533291 -0.5639052 -0.17581882 0.87110806 0.45769024 -0.34084955 -0.8519456 0.7274794 -0.019624695 0.51878905 -0.99623644 -0.44954503 -0.60093796 -0.24372914 0.24836963 -0.3194863 0.77904886 -0.75425124 0.24574861 -0.13804103 0.8866963 -0.5060847 -0.4402961 -0.52112967 -0.36452857 -0.9375995 -0.7107172 0.59146404 0.90719503 0.41173202 -0.26247123 -0.9928345 -0.55186164 0.98744327 0.101938106 0.342937 0.26109567 0.49090204 -0.7722222 -0.113406464 -0.19167271 0.43468553
-0.74175 0.6958087 -0.90606934 0.2029978 0.22604871 0.88971305 -0.86442965 -0.5451525 0.3096398 -0.08070752 0.5695074 0.28877407 0.81153494 0.6956643 -0.59009546 0.13640118 -0.0013016857 -0.7647512 0.595402 0.4358512 -0.81632745 -0.24935655 0.18693623 0.12759519 -0.25000402 0.7930009 -0.4087821 0.25817296 -0.73543257 -0.25041994 -0.87015694 -0.29996544 -0.24182372 -0.16310872 0.6627923 -0.24500187 0.8703475 0.85918254 0.5866118 0.9249055 -0.45730865 -0.99264514 0.18165848 0.4636588 0.3003461 0.620387 0.709045 0.8843559 0.140864 -0.8478015 -0.27610272 0.5481661 -0.513155 0.56998926 -0.7747051 -0.90332276 0.12987432 -0.51423293 0.9754507 0.9885159 0.045876447 0.9219606 -0.11687575 0.054608434 0.4147878 0.4178652 0.60340357 -0.34068865 0.1376152 -0.966328 -0.90856785 0.86945903 -0.46699613 0.8756917 0.30180615 0.52655894 -0.7405936 -0.86978775 0.75795895 -0.28545833 -0.39589658 -0.94811016 -0.084306814 -0.41910583 0.8126108 0.19915932 -0.4640471 -0.53006995 0.33812094 -0.7114115 -0.44046912 1.0027623 -0.26719773 -0.16563952 -0.72841173 -0.2528206 0.08367118 0.6658546 -0.56785744 -0.6858948 -0.94327533 -0.091018446 -0.20781998 -0.47023305 0.8510228 -0.43427023 0.5223868 -0.13857888 -0.88133085 0.24073613 0.37874982 0.6133223 0.5471058 0.0620075 -0.8040513 -0.8069294 -0.7804182 0.67516315 0.4506756 -0.8123382 0.4436179 0.4929035 -0.64965963 -0.6153124 -0.07610714 -0.2809197 0.63499147 -0.18135487
-0.122274145 -0.2712 -0.49888524 -0.25164723 0.04902484 -0.6844531 -0.10371509 -0.6260975 0.074765876 -0.7227152 0.27193046 0.5980912 -0.56080884 0.3623258 -0.89509666 -0.54619277 -1.1651318 0.6231043 -0.8643045 0.6123802 -0.82016176 0.47163364 0.77211803 -0.72700185 0.8599888 0.32630417 -0.77669406 0.3344154 0.03974563 -0.5419568 -0.14679278 -0.23313479 -0.7963373 -3.5588176E-4 0.23798925 0.7927806 0.66348433 -0.92279875 0.40583435 0.542149 0.5593601 0.23147245 0.44173226 -0.92555565 0.7887164 0.70881736 0.75114346 -0.87772083 0.95632184 -0.16696964 0.1557161 0.6789366 0.6649306 -0.63140833 1.0141227 -0.9202879 0.7650546 -0.59291667 0.7139903 -0.25212023 -0.7160107 0.23930858 0.0948396 -0.35264185 -0.7667649 0.77261055 -0.059521038 -0.25103772 -0.12973833 0.5077157 0.50610733 0.006259872 -0.33227408 1.0060613 0.001916552 -0.5783668 0.14973107 -0.0737856 0.1339586 0.7162308 0.3564462 -0.37813917 -0.518809 0.7327237 0.47216436 0.52935547 -0.09774164 0.13220292 0.24820277 -0.3651402 0.6582273 -0.42296907 0.22678365 -0.31658053 0.7419748 -0.0020686751 0.2383747 0.6898067 0.09055364 0.24120763 0.24638106 -0.17597696 -0.07050735 0.6455924 -0.0033036207 0.27894554 0.14770132 0.9083541 0.72379726 0.28497854 -0.1348365 0.17517322 0.034925748 -0.4454428 -0.30637622 0.622183 0.4763459 -1.0086387 0.98467606 0.52127016 0.82120764 0.18956925 0.23216023 0.6894497 0.7724424 -0.38731286 -0.5485336 0.5040063
0.44491947 -0.816995 0.14190003 0.7186144 -0.1094957 -0.9150741 0.44160342 -0.35892636 0.84690696 -0.38200444 -0.36013865 1.0372635 -0.015488486 -0.64295 -0.8834283 -0.81052226 -0.6874423 0.110519916 0.47196576 0.4030779 0.40921187 0.34603772 0.69108206 0.07180237 0.3903905 0.38300768 0.10304442 0.019442495 -0.642249 -0.58521175 -0.86455864 0.33083 -0.619366 -0.06143806 -0.9240449 -0.9635333 -0.70872855 -0.3950634 -0.47896916 -0.81650466 -0.48976025 0.28591466 -0.93332237 0.7850175 -0.4382842 0.38292897 -0.08926197 0.7441924 0.15235911 -0.20516697 -0.3528109 0.28150102 0.755858 0.47125396 0.75022227 0.08264715 0.54262084 -0.022885386 -0.09134862 -0.47088295 0.09277968 -0.2888257 -0.65885866 0.44860947 -0.21684507 -0.25508797 -0.011541169 -0.09201437 -0.9968216 -0.34420398 0.64541876 0.7496623 0.8615242 -0.8847053 0.9293372 0.937094 -0.81371784 0.60327435 0.88692605 0.45634922 -0.0033385833 0.39788336 0.78210086 0.8042002 -0.059937734 0.8231974 0.6859281 -0.8975416 -0.5524831 -0.8400099 1.0037107 -0.98812145 0.73419976 -0.5403477 0.3749866 -0.78931975 -0.84427845 0.018930512 0.2453564 -0.1053904 0.76979154 0.1754474 0.3447934 0.30394995 -0.40777773 0.70380527 -0.06043356 0.85162187 0.9151147 0.33763942 0.48735425 -0.9002004 -0.54280245 -0.3059735 -0.12260946 0.808748 0.5374233 -0.022179956 -0.31733623 0.91429144 0.24139267 0.43158418 0.10163797 -0.12603663 -0.2834001 0.36622542 -0.40641046 -0.876119
0.57484734 0.04318544 0.3092381 0.7706594 0.025132313 -0.48142147 -0.68569046 -0.6929431 0.3982705 0.97148055 0.63510406 1.0588052 -0.33807102 -0.9682556 0.15669723 -0.13935538 0.9474961 -0.27767417 -0.75916266 -1.0497859 -0.36097023 -0.8060851 -0.07924582 -0.48832634 -0.48262218 0.20569962 0.5233429 0.46648026 0.8356256 0.48705736 -0.6912822 0.08765168 0.077862084 -0.76692283 0.26885405 0.17455167 1.0304661 -0.28989303 0.83019114 -0.327877 -0.49838266 -0.81843126 -0.13204296 -0.49960884 0.02897205 0.55931234 -0.9203062 0.1322368 -0.3331409 -0.69757897 -0.58175534 -0.49865726 0.03776357 -0.4463695 0.34264156 0.50049317 0.528071 -0.7834787 -0.6216994 0.87790877 -0.597252 0.44006628 -0.6826698 0.63199544 0.7633261 -0.94125986 -0.09679953 1.0239638 0.831092 -0.7897157 -0.6001358 0.8219164 0.081053436 -0.5638332 -1.0554615 -0.77499276 0.8846237 0.08724829 0.36586085 0.56167084 0.90855396 -0.3087329 0.03843186 -0.52549565 0.19774713 0.66995496 0.5122818 1.0039749 0.9225002 0.3922617 -0.4869911 -0.15896559 -0.6055788 -0.60271835 -0.37868372 -0.14132105 0.05055031 -0.48593807 -0.3870656 -0.07193726 0.5371378 0.8511682 -0.3187498 -0.9710065 -0.5534078 0.020155588 -0.49253714 -0.28634027 -0.87507933 0.2037873 0.5501179 0.27811 0.6289187 0.4427953 -0.5676863 -0.82574683 0.27353927 -1.0455403 -0.4567317 -0.27190375 -0.6591432 0.0236056 0.44897294 -0.90895355 0.60253406 0.14590062 0.48118946 0.56056654
0.16146553 0.34192201 -0.80962723 -0.046295207 0.44844604 -0.7711306 -0.6542238 -0.36879012 -0.90005124 0.47143745 0.97294044 -0.5084879 1.0165721 -0.48830056 0.84853816 0.22076157 0.9342728 0.37865087 -0.47479782 0.16394475 -0.89583975 0.5834325 0.268305 -0.23681693 0.44282192 -0.927143 -0.47503227 0.7629973 -0.1659938 -0.024811152 -1.0561337 -0.44285658 0.20774814 -0.34859163 -0.008108221 0.023359498 -0.66462916 -0.96533203 0.48454818 0.86533535 0.21724035 0.29234472 -0.36221156 0.2706315 -0.8082929 -0.72028 0.505751 0.49840817 0.7531187 0.6245731 -0.81346846 -0.2351964 0.14597039 0.3795217 -0.5726941 0.58692473 -0.29333556 0.51480466 -0.5154814 0.23760617 0.11551664 -0.35215637 0.9709383 -0.03406863 -0.4831704 0.97372663 -0.28672224 0.16646731 0.8761345 -0.60655755 -0.07335328 0.74997884 0.9389569 -0.038742553 -0.5260855 0.49147028 -0.7043611 -0.7806962 0.18480568 0.2933337 0.26741415 0.13807485 0.28601465 0.87043166 -0.58852965 -0.75838065 0.6137424 0.046311058 0.6745652 -0.71160656 0.65706724 0.9504099 0.19335979 0.118524656 -0.4415694 0.79833835 -0.45156994 1.0276506 0.53941166 0.5086487 0.04333388 0.65654886 -0.64881235 -0.5551423 -0.8428687 -0.5123059 0.29539248 -0.6945143 0.91193354 -0.78432465 0.51179355 -0.47132236 0.0025261417 0.41033888 -0.2440777 0.92463356 0.17528774 0.51471126 0.3441833 -0.46304768 0.09881869 -0.83564574 0.61940634 -0.63395435 0.3335352 0.12280274 -0.58689076 0.21930958
-0.8618321 -0.3346475 0.7619288 -0.8018814 0.75470585 0.708566 -0.6416015 -0.29103646 0.32880452 -0.9393032 -0.8315472 -0.2080081 -0.7970077 -0.14432213 0.26038095 -0.25412723 -0.13684441 0.0095857885 0.26135364 -0.5247722 -0.544868 -1.0836372 -0.6188946 -1.0228512 0.7440347 -0.58417714 -0.17090376 0.16258341 -0.7147609 0.5879529 -0.60569596 -0.13801034 0.258743 -0.47394687 -0.64995134 0.22115034 0.8998395 -0.37412447 0.5934042 -0.5243557 -0.20629935 0.85167104 0.8493902 0.03840404 0.36234158 -0.010870305 0.31150535 -0.6956014 -0.75367445 -0.68463194 0.92332107 -0.79783624 -0.16966933 -0.7862367 -0.07016403 0.8049899 0.6465177 -0.16093382 -0.6466085 -0.931003 0.6828505 0.5708625 -0.5512607 -0.8240922 0.6997202 -0.58212215 -0.8717486 -0.75812775 0.15603293 -0.50225765 0.00590031 -1.03878 -0.14476474 -0.46129742 -0.19085208 0.5669965 0.06666382 0.019397354 0.32616165 -0.22936247 -0.043642562 -1.222631 0.58879936 0.8148588 -0.11914885 -0.9001394 -0.9531887 0.5847682 0.03539086 0.6921665 -0.208115 -0.41727507 -0.77418 -0.9284472 0.31970105 0.79440016 0.1817082 0.13841775 -0.3296479 0.32132143 0.21578121 -0.5779604 0.21372761 0.54274845 0.20394896 -0.58411336 0.46380588 -0.38522023 -0.6408314 0.71417934 0.4614162 0.06650738 -0.32972026 0.43107882 0.04481156 -0.5301549 -0.9063772 0.6636644 -0.6338983 -0.87215596 -0.61022055 0.5986709 -0.81968457 0.5130215 -0.44033685 0.023265578 0.35054183 0.15032072
-0.84276295 0.10250756 0.63361675 0.8452716 0.7297356 0.45059404 -0.2988696 0.5127744 -0.04122912 -0.5433644 0.8517168 -0.03036384 -0.75084025 -0.6576349 -0.005178163 0.24671806 0.6668012 0.97298646 0.1384018 0.035449523 0.47014946 -0.61613905 0.39164326 0.64562935 0.42847615 0.6072421 -0.18715446 -0.34707114 0.47720057 0.27702382 -0.7785711 0.48634234 -0.95105684 0.25125724 -0.35590446 0.9092437 -0.8430243 0.7819268 0.2843175 0.37200305 0.0060924455 -0.40802896 0.5263199 -0.98103994 0.51726544 0.7265332 -0.32054183 -0.33265916 -0.25475368 0.35484278 0.15594193 -0.13653715 -0.16150168 -0.6178748 0.81141424 0.6547409 -0.82282853 -0.37811723 -0.8034425 0.98676 -0.9889415 -0.873045 0.94458306 -0.3963474 -0.5187775 0.07281837 -0.4747461 -0.93389595 -1.0957805 0.14224696 0.6498109 -0.12554805 0.29030168 -0.20263566 -0.104481384 0.67885786 0.11591082 -0.044913743 -0.07278145 -0.41383225 0.7064681 0.9834912 0.15508237 -0.2733934 0.08212888 -0.5471563 0.8680844 -0.21158993 0.041321892 -0.9716322 0.48647422 0.89025223 1.2799902 -0.6785693 -0.8997581 0.3677083 0.052419536 0.09869502 -0.21649207 -0.063410245 0.102980696 -0.1110507 -0.0644383 0.5121681 -0.39886284 -0.61664057 0.71536857 -0.58983785 0.013209815 -0.32557252 -0.020658944 -0.049041398 0.74921876 -0.44736323 0.86991644 0.96121305 -0.6988212 -0.88661265 0.014429657 -0.57524294 1.0914452 -1.0066156 0.7701654 -0.3856726 -0.52911437 -1.2503736 -0.8169047 0.21764837
0.4027606 0.30088058 0.20826307 -0.6616035 0.79817027 -0.4254311 0.4888066 0.40380615 0.732871 -0.49437913 0.011943071 0.9682849 -0.8082903 0.17374615 -1.0346332 0.603868 -0.8473523 0.6144666 -0.01059763 -0.3483895 0.39716715 -0.36071974 0.40679276 -0.9280807 -0.5777185 -0.5119354 -0.32452986 0.671673 0.39675438 0.34929484 0.7206032 0.7484447 0.5160358 -1.0145729 -0.4249277 0.623592 0.16831008 -0.82780635 0.8237589 0.46711335 -0.04733943 0.59386647 -0.5031124 -0.5705786 -0.64982426 0.00471241 0.02064042 -0.44502422 -0.20188528 -0.3171592 -0.72833055 0.7850131 -0.8715364 -0.49640805 0.083898336 -0.78480685 0.33132693 -0.5655566 -0.24453777 0.8780643 0.45324874 -0.90515745 0.7458854 -0.12167201 0.055091422 0.8251449 -0.050854616 -0.73279196 -0.11479754 -0.6852292 0.5911584 -0.5207535 0.74911976 -0.959748 0.54012084 0.8943781 0.98422635 -0.22873989 0.03556172 -0.58144593 -0.94439685 0.21673828 0.21165247 -0.71074945 -0.008827042 0.880272 -0.27371037 -0.56001043 -0.5715839 -0.17678143 0.6782061 0.0827652 0.14241837 -0.2663174 0.89879864 -0.019659203 -0.4346303 0.4438548 0.86558986 -0.8090133 0.9731086 0.07948726 -0.6079826 -0.089049526 -0.5975409 -0.2448087 0.22587815 -0.61488175 0.91324735 0.3769015 0.6438551 0.498339 -0.52666336 -0.14353412 0.92356676 -0.78773624 -0.31450102 0.26101902 -0.53492594 -0.21162757 0.5313271 -0.67342174 0.42878547 -0.4043013 -0.027634686 -0.1746952 -0.057983715 0.9127297
-0.69025826 0.71902376 0.6016599 -0.16345417 0.34678432 0.39151272 -0.61435306 -0.64279234 -0.5323912 0.104019664 0.66373545 -0.87317175 -0.34461385 0.86313725 -0.4637678 -0.2967026 0.17011844 0.8698404 0.28520954 0.68861914 0.4312033 -0.12937512 0.5004937 -0.27194393 -0.73427236 0.35560524 -0.32289994 0.8391436 0.12509912 0.1944854 -0.3473345 0.45902327 -0.91445535 0.6089815 0.57516843 -0.38434026 -0.5871099 0.5778381 -0.005377888 0.41192526 -0.80400646 -0.96932626 0.9270802 0.42852214 -0.8694025 -0.5986977 0.9077046 0.75125545 -0.21718664 0.15524997 -0.5616843 -0.58870286 0.3519332 -0.64027923 -0.8867768 0.5594272 -0.06621384 -0.35508782 0.17156492 -0.7343453 0.64486057 0.01726703 0.20427477 0.4862039 -0.6526203 -0.3006404 -0.8727674 0.8513876 -0.8702543 -0.767134 -0.7145306 -0.24089722 -0.73205096 -0.7024432 -0.2523069 0.285183 -0.63966495 0.0703722 0.1824662 -0.218133 -0.1789944 -0.090466425 -0.59135973 0.112893485 0.17919603 0.7915589 0.44668987 -0.6798736 0.34714127 -0.0773987 -0.6599743 -0.794122 1.0338414 -0.8248815 -0.29436138 0.32093915 0.7460951 -0.56583637 0.67797774 0.242236 0.9158747 0.07364304 0.8481785 -0.43792024 -0.59750766 -0.015773738 -0.7909034 -0.26582268 0.8655603 0.3717074 -0.10014261 0.30486637 -0.11473007 -0.94394 -0.107504554 -0.81018525 -0.39541295 -0.9500907 -0.6452747 -0.881609 -0.36014715 0.024995605 0.6000719 0.54852426 0.655697 0.7831194 -0.3321387 -0.2305958
-0.11773101 0.5662465 0.25581735 0.9636256 -0.95528495 0.15423144 0.14410703 -0.91294605 0.7036214 0.738673 -0.42138642 -0.8784209 0.7577867 -0.7334544 0.09011801 1.0004995 -0.7746138 -0.045912087 0.24011838 -0.7466991 0.013938992 -0.18259747 0.85823655 0.04414916 0.6829154 -0.021953257 0.23520015 -0.5592592 -0.09154099 -0.27306467 -0.091554835 0.46911705 -0.25032526 0.55663145 -0.8582425 0.26818046 0.8381565 0.7506911 0.36405566 -0.771262 0.987639 0.34869048 -0.74858063 0.15372889 0.4575208 0.73844355 -0.9088865 -0.45706823 -0.86077076 -0.4174281 0.477679 0.46702647 0.57463276 -0.73877573 0.21805008 0.8207236 -0.7874385 -0.69237846 0.68079585 0.26673326 0.63437164 -0.50356305 0.3079059 0.10853861 -0.40671194 0.04035571 0.55040455 -0.28156403 -0.50453055 -0.5975012 0.3637538 -0.47539622 -0.30448502 -0.27657378 0.045564573 0.2564795 0.013833297 -0.30940124 0.80030817 -0.11040265 0.22043678 -0.5944125 0.7946041 -0.90781844 -0.6804696 0.32852903 -0.24920529 -0.12967509 0.8635629 0.007904445 -0.60859895 -0.81711316 0.38657227 -0.7898466 0.2159597 -0.4470514 0.7648646 -0.6755345 -0.38778275 0.6064297 -0.5542515 0.408429 -0.24152297 0.7307792 0.03547571 -0.6023414 -0.170157 0.06578362 0.2075186 -0.47305906 -0.2182998 0.04290601 0.24679701 -0.94036 0.44944718 0.61492056 -0.31345427 0.57852286 -0.09512985 -0.42495856 0.48399717 0.46882805 -0.3051415 0.30126688 -0.21315877 -0.0010655937 -0.28471163 -0.8234902
0.738979 0.8455379 0.94374 0.18530865 -0.45126948 0.08094552 0.032507364 0.27981147 0.114807315 0.86325115 -0.24768212 -0.3472595 0.25815487 -0.7962542 -0.8173764 -0.8746859 -0.1515609 -0.44725925 -0.72996753 0.8172502 -0.8070131 -0.702118 -0.24202442 -0.2435636 -0.8489166 -0.6931215 -0.011328737 0.9029366 -0.6579791 0.10073841 0.080255285 0.11254276 0.6147545 0.14866048 -0.5600041 -0.8007664 0.6499016 0.8915792 0.49370992 0.5984023 -0.9903436 -0.07362886 -0.9591754 -0.81821066 -0.30165505 0.39807126 -0.33223864 -0.4033191 0.46667516 -0.971989 0.06855631 -0.50465 1.0370042 0.31111383 0.5501448 -0.65741545 0.5321977 0.41879064 0.0049564918 -0.74637944 0.49446577 0.04297152 -0.2008138 0.7177803 0.48748797 -0.6592778 0.01990176 -0.13601094 0.042576417 -0.23283394 -0.09225739 -0.60006946 -0.3369634 0.89712834 -0.105368815 0.05407413 -0.67782766 0.926462 0.4842828 -0.7494445 -0.73823243 0.21358316 -0.9349092 0.3057149 -0.16762508 0.52173406 0.0648344 -0.13094534 -0.4814598 0.66347516 0.89131993 0.1500592 -0.26127994 -0.7880204 -0.1582381 0.46408132 -0.26535988 -0.33716398 0.53386825 -0.72905654 0.076727405 -0.8008354 -0.12626047 0.4161389 -0.19706668 -0.7755411 0.657631 0.6607953 0.2169828 -0.7781952 -0.78473306 0.09918491 -0.5478917 0.40075287 -0.5670563 0.9837153 -0.26789233 -0.850776 0.92003405 0.16155012 0.6927591 -0.40873864 0.13803774 0.7417852 0.39186257 0.6556374 0.5522919 0.8615205
0.77414703 0.7331692 0.760773 0.56667614 -0.9677285 0.081820354 -0.5879253 -0.29622066 -0.6511728 0.013238466 0.5352346 0.2968864 0.9554413 -0.65942454 0.8998889 0.6828897 0.5018951 -0.7256547 0.9065974 0.9389176 0.81791276 -0.69888276 0.3650631 0.24323468 -0.46942392 0.3916026 0.72847193 0.31643817 0.9702787 0.20950426 0.26284525 1.0062371 1.021948 0.7878894 0.38280654 0.23149659 0.8505611 0.64294636 0.52941316 0.88322026 0.05710745 -0.44228038 -0.9617008 0.8312438 -0.14425808 0.2393794 -0.76295483 -0.0068844617 -0.22877643 0.49738538 -0.9818957 0.6839908 -0.2230149 0.04892369 0.5909364 -0.38631973 -1.0460969 0.42706224 -0.7683342 0.0207987 0.10338155 0.12948298 -0.34421006 0.838325 -0.77946043 -0.85472435 -0.5435308 0.87672055 0.2754355 -0.84413517 -0.80710137 0.4181034 0.53928715 0.27797619 -0.71686196 -0.37907162 0.12899095 -0.59168893 0.15816659 -0.009496373 -0.5656425 -0.68863857 0.002953402 -0.99956733 -0.52607906 -0.62610847 -0.4772698 0.5099815 -0.37588254 -0.71893746 -0.26670757 -0.72066087 0.7497792 0.46205407 -0.08303214 -0.7987803 -0.17965928 0.83825195 0.1103484 -0.02868924 0.514082 -0.89024234 -0.2643135 0.62675196 -0.21330501 -0.44490433 0.63840896 -0.30593815 0.19997595 -0.8563307 0.29229254 0.77282435 0.0060311463 -0.73724365 -0.07810372 0.6497547 0.9707978 0.31787446 0.69141436 0.012393855 0.67511827 -0.2749997 0.9429462 -0.41591546 -0.17953527 0.1739138 -0.25476927 0.122894555
0.815494 -0.43311012 -0.13942347 0.40257323 -0.001760345 -0.37235445 0.29924366 -0.4178696 -0.88604945 -0.8018255 0.849337 -0.30567607 -0.68499815 -0.58533305 -0.9805382 -0.7527064 -1.0293465 -0.43775675 -0.23683286 0.5406327 0.45507455 0.44484952 -0.661351 0.389274 0.6617311 0.65776277 0.8729745 -0.8178103 0.031462558 -0.34706205 0.44636488 -0.7641868 -0.14841065 0.9575146 -0.42413676 0.84325385 0.839236 0.7609878 -0.08614326 -0.9481484 -0.28222948 -0.84791523 0.45152622 -0.786223 -0.5522785 -0.49058312 0.15627164 0.24007976 -0.13443312 0.88362473 0.35828272 0.19681087 -0.74755186 -0.7285047 -0.4621221 0.4892906 0.6118134 -0.8044352 0.18048914 -0.5118419 -0.13010725 -0.54221624 0.6039831 0.57506996 -0.015189846 -0.39850768 0.7128423 -0.6127063 -0.9351443 -0.7218381 0.764926 0.67104554 -0.43365428 -0.8140308 0.8184309 -0.5463886 -0.5996615 0.488289 0.08687238 -0.8102655 -0.41702792 -0.784342 0.9935437 0.27323303 0.19910538 0.94355327 0.27985516 -0.53232014 0.5866516 -0.8759508 -0.8984914 0.6107127 0.7059682 0.5412833 -0.035388883 -0.2648233 0.36336562 -0.9498768 -0.22452694 0.48105928 -0.55790854 -0.45665845 -0.80638605 -0.0050431998 -0.0893771 -0.43658903 -0.12223002 0.82312953 0.21628188 -0.10831288 0.18168592 -0.7056989 -0.54532415 -0.37085077 0.39422482 -0.8280714 -0.32843846 0.7774305 -0.052033067 0.48045042 -0.8763816 0.68511343 -0.921219 -0.6951559 -0.7809612 0.51458466 -0.22487047 0.9354249
0.58602417 0.3371474 0.8295339 -0.5944617 -0.6133838 0.37368384 0.09112932 0.34255743 0.40592334 0.9288366 -0.12436879 -0.4988603 0.23253895 -0.00246906 0.8688264 0.054051932 -0.28431162 0.28018433 -0.4704817 -0.66782343 -0.4629934 -0.32338104 -0.76441354 0.82411337 -0.3866326 -0.3788463 -0.922504 0.060019687 0.6047628 0.24432543 -0.11731207 -0.3391018 0.63374615 -0.3641046 0.9596103 0.48838517 -0.9072871 0.027477363 0.54057115 -0.6663412 0.461435 -0.79029775 -0.5522693 0.7183372 0.94601923 0.76364017 -0.6861841 0.701709 -0.99300086 0.25926763 -0.28007644 0.21613427 -0.46180934 -0.18023339 -0.5094067 0.45905837 0.81896824 -0.56565684 0.3196373 0.26249498 -0.11784881 0.017351804 -0.24613735 0.3952505 -0.8156237 0.14447932 -0.4500473 0.8615729 -0.56252277 -0.20206778 -0.48594669 0.20969813 -0.38348967 -0.71278673 -0.6432446 -0.7529777 0.32542878 0.1874191 -0.884709 0.29702255 -0.9296675 -0.6121235 0.61014163 0.0471902 0.78314525 -0.7626996 0.87810206 0.21580617 0.94522065 -0.08601752 -0.067532964 -0.93818283 0.14039099 0.8516812 -0.5597137 1.0267057 0.85479075 0.8716015 0.19957916 -0.6498714 -0.6545442 0.34972197 0.8925254 0.7191888 0.63651526 -0.80201644 0.3003108 0.42413536 -0.9758901 -0.22175437 -0.36909506 0.46699038 -0.82521063 0.691014 0.025302807 -0.2039007 -0.8382289 0.30643183 0.0382643 0.5985456 -0.50641537 -0.17369825 -0.59839976 0.29037142 -0.06732795 -0.18607661 -1.0146915 -0.21516357
-0.7276392 0.7010579 -0.91981286 0.537141 0.69123495 -0.35398418 -0.32696947 0.42586383 -0.08261012 -0.1432257 -0.74194247 0.8577088 1.0343441 0.53513014 -0.12550928 0.9992426 -0.4113937 0.1880775 -0.83592373 0.13324985 0.52600837 0.7445537 0.28531095 -0.05912269 0.22172734 -0.5428703 -0.5039381 -0.20479353 -0.458431 -0.67601985 -0.7224011 -0.22709002 -0.05066328 0.33656794 -0.7561305 -0.6060978 -0.109648176 -0.49634746 -0.45293793 -0.60577595 -0.61843836 0.5257944 -0.52017325 0.42867205 0.6121293 -0.5574802 -0.07194303 -0.4407212 0.47371918 0.5646201 0.85756344 0.103703745 -0.48325184 -0.22707435 -0.40664867 0.054572742 -0.26398364 0.6540606 -0.2768774 0.8139513 0.29726356 -0.40626818 0.8425906 -0.9033535 0.33026993 0.018109081 -0.99736595 -0.20637126 0.18022525 0.5726165 1.0093623 0.019019892 0.6038543 0.2663918 -0.6322632 0.37935808 0.12276647 -0.36946076 0.44972578 -0.8498683 -0.9974808 -0.6757345 -0.34118062 -0.5556574 0.09912265 0.50685406 -0.71550566 -1.056276 0.09954618 0.22602907 0.6977852 1.0206532 -0.12285378 1.1295332 -0.5021896 0.87615466 -0.49215674 1.0205364 -0.44276205 0.68931854 -0.5305256 0.7046081 -0.5317884 0.77421033 0.5387089 0.6624998 0.6599173 0.02770273 -0.051034622 -0.6427076 0.2280947 -0.58711714 -0.468208 0.37840748 0.94496995 0.06756887 0.085848354 -0.72458357 -0.05092592 0.0814627 1.1754512 0.24127656 -0.6944317 -0.5839304 0.040232003 -0.42673275 0.8496947 -0.50416833
0.3258297 0.025724867 -0.81827754 0.35733485 0.031328835 -0.8844848 -0.35852885 0.59302086 0.4399141 0.3224605 -0.34155223 -0.31653672 -0.4239263 -0.40878743 0.88731116 -0.6792139 0.2065664 0.6748292 -0.71564674 -0.97878224 -0.81978685 -0.14174232 0.30081567 0.10903583 -0.031103253 -0.05354915 -0.09747124 -0.9628354 -0.85160834 -0.6001576 0.38706106 -0.6412718 -0.44087294 0.0033020882 -0.57012343 0.624971 -0.70709157 0.82925195 0.7406731 -0.23930067 0.9590079 0.13423806 0.051676076 -0.1593177 0.6290096 0.35615942 -0.1768894 0.3069644 0.10185474 1.0168544 -1.1307099 -0.013420709 0.96683574 0.812489 -0.7136488 0.0164855 0.0018028908 0.24505676 0.017994307 -0.334394 -0.030437276 -0.74609387 0.9381765 -0.38158527 -0.20715615 0.029848829 0.92903274 -0.6574286 -0.4398914 0.5260048 0.3801273 0.515102 -0.06297804 -0.73725283 -0.5532214 -0.7435514 0.7293297 -1.0623798 0.023140883 -0.74042225 1.2839658 -0.7039602 0.54486644 0.2193021 0.4385256 -0.6769823 0.9268774 0.89406353 0.54297954 0.29225582 0.7130151 0.14993066 0.3809772 -0.21545687 -0.24060257 -0.23475817 0.14306036 -0.18013059 -0.39420405 0.31014726 0.77372897 -0.42654365 1.0007037 0.533832 0.1366793 0.0825386 0.25565058 -0.18589483 0.085311994 -0.3178262 -0.17722419 0.56276524 -0.15109938 -0.10610858 0.16982625 -0.668259 -0.21791352 0.9185347 -1.0073884 0.16464199 -1.109372 -0.4368305 0.31323785 0.5994962 -0.088464804 0.52721614 0.4503063 -0.8803267
0.3433501 -0.949191 0.26764545 -0.5974511 0.030844629 0.42070752 0.20085074 -0.6273926 0.281008 0.37543243 0.6761815 0.03675602 0.7457031 -0.13933197 -0.37304258 -0.8490184 0.80989105 -0.07796797 0.9077109 -0.10809444 -0.79012847 -0.8334276 -0.27184403 -0.012252152 -0.99464506 0.120846905 0.8807873 -0.75977653 0.2436547 -0.073452234 -0.601175 -0.47921547 -0.96990633 -0.050632432 0.8124163 -0.75242126 -0.8278831 -0.37842745 -0.15540653 -0.66553426 -0.05378929 0.05332824 -0.29834366 0.39629295 -0.85560614 0.5359048 -0.26519522 -0.50056106 -0.16590235 -0.46164647 0.7786563 -0.7812011 -0.43236944 -0.22281212 0.9827419 -0.86264026 -0.92914855 -0.4448553 0.4224287 -0.60210645 0.21034418 -0.87339294 0.9358121 -0.45286238 -0.050255645 0.26586455 0.15949917 -0.84193975 -0.05806718 -0.5625033 -0.24067676 0.6299089 -0.6379986 -0.9067534 0.91665137 0.93877834 -0.87934977 -0.08399572 0.20435265 -0.81416565 0.50783646 -0.5316888 -0.47639456 0.24134776 -0.3847611 0.9588158 -0.10522565 -0.75108415 0.6128709 -0.8855387 0.54295754 -0.6228427 0.10624735 -0.30514896 -0.66321915 -0.88759655 0.17761791 -0.10440175 0.85294336 0.7958042 -0.8667465 0.33611506 -0.7312865 0.93318766 -0.08264884 -0.36836725 0.015013674 0.23848715 -0.42875224 0.61524737 0.19492231 -0.82954526 0.84986204 0.55517775 -0.45950398 -1.0139604 -0.847023 0.15121487 0.60087866 -0.6131549 0.19078821 0.7044555 0.18100154 0.6503814 0.56056297 0.64693946 0.31526315 -0.98046046
0.12594919 0.11675964 -0.33513558 0.4678982 -0.39103332 -0.5536423 -0.095941804 -0.5240702 0.28781676 -0.3059378 -0.1876954 -0.38539106 -0.8650524 -0.60843575 0.64262986 0.6714116 0.20469175 -0.14245036 0.5720619 -0.8504625 0.5047524 -0.6514904 -0.2244678 -0.91668975 -0.5017621 0.81198627 0.5092706 0.5529203 -0.7292459 -0.055202886 -1.0427587 -0.7355383 0.57187784 0.24113306 0.2504563 -0.75734556 -0.88033867 0.1046772 -0.0046323305 0.6609814 0.026632626 -0.124908194 0.49839166 0.5749977 0.9368998 0.3209934 -0.7697752 0.9513349 0.7663014 -0.50351346 -0.16662736 0.6977745 -0.33391896 0.3649722 0.52921605 -0.8353214 0.08082296 0.27686593 0.9431833 -0.89949965 -0.7022213 -0.87802476 -0.23875183 -0.010117674 -0.9399813 -0.8891693 -0.91420865 0.8950016 0.8052553 0.25294492 0.51630074 -0.69426864 0.9965694 -0.95542043 0.9142334 -0.7995671 -0.93633866 -0.26967403 0.88519114 -0.368086 0.7177078 0.085450344 -0.14456326 0.050824776 0.90531164 0.912976 0.3779472 0.73950344 0.47520438 -0.5791497 1.0041202 0.003899828 0.49915007 -0.5343196 -0.13875885 0.04451713 -1.0887069 0.09001093 0.529416 0.048898038 0.5419902 -1.0144303 0.31132314 -0.6087401 -0.112485684 0.82573795 -0.6737388 -0.47330478 -0.025392426 0.6655431 -0.45095998 0.50212884 0.5480425 0.6028677 -0.363241 0.45838776 0.31132504 0.5780034 -0.45955548 0.7911711 -0.43415067 -0.59963804 -1.0325344 0.13542277 0.9153126 -0.8990804 0.6643528 -0.018459028
-0.47996032 0.049787253 -0.41654313 -0.77088577 0.11635369 -0.005999664 0.5123107 -0.88726866 0.19278197 -0.21178569 0.37284365 0.64427817 0.7424838 -0.19778919 0.44779572 0.93387896 0.39562303 0.11019616 -0.78607696 -0.2556344 -1.0229954 -0.23175323 -0.7650006 0.0072674872 0.4076532 -0.9686343 -0.20848224 0.6772674 -0.18695448 0.6902699 -0.24134944 -0.47922143 -0.03911057 -0.8882992 -0.7346968 -0.28403196 -0.842609 -0.3781444 0.7605247 -0.52157915 -0.2525546 -0.021852454 -0.51609385 -0.8670583 -0.6330485 0.83743733 0.8393103 0.07495002 0.95599353 0.5209513 -0.43770424 -0.37848148 -0.71020275 -0.7339554 0.20445974 -0.551921 -0.3369207 -0.23271316 0.031909917 -0.15522808 -0.07576374 0.13601662 0.9804561 -0.8134157 0.52969706 0.14550944 0.74890244 -0.24502864 0.4834353 0.44451085 -0.28571165 0.38078684 0.6340601 0.64281714 0.13331647 0.17173968 0.3640918 -0.15171035 -0.28774425 0.18898097 0.8949799 -0.75412923 -0.28960684 -0.19202282 -0.10738627 0.26797768 -0.4840445 0.77444845 -0.06948178 0.7538409 0.02199266 -0.7828203 -0.72287494 0.28039807 0.55417025 -0.41291824 -0.763535 -0.7568142 0.83708864 0.512939 -1.0208423 0.09610918 -0.46980765 -0.5381685 -0.4269893 -0.8075549 0.92761886 0.0066317627 0.96352535 -0.7890392 0.6716813 0.489142 -0.06661722 0.22011685 -0.40388474 0.687633 0.1987212 -0.61849654 -0.30930635 -0.76067626 -0.2807536 -1.0339243 -0.8103495 -0.48946795 0.19463256 -0.9824596 0.17745388 0.8506996
0.5779036 -0.62515974 0.2314832 -0.8190102 -0.3563743 -0.6190089 0.34820297 0.2842806 -0.15747152 0.23879093 -0.40176266 -0.1049092 -0.059363205 -0.8699646 0.66598743 0.9982259 0.48232564 0.92740804 -0.025981935 -0.9278147 0.71352744 -0.6481058 0.024326684 -0.033441074 0.8683736 -0.5121389 -0.26062506 0.49509856 -0.4399448 0.2207806 -0.94858354 0.97025263 0.86528754 -0.5169604 -0.679576 0.40428674 0.7991953 0.31618676 0.6849543 -0.4102015 -0.027269263 -0.8863756 -0.16230245 0.5138993 0.14091894 0.06757159 0.4546577 -0.89623094 -0.48675102 -0.7860633 0.14642128 0.5386251 -0.9802127 0.30155697 0.35247064 -0.78672004 -0.77799237 0.9913427 -0.7922955 0.83876276 0.92233616 0.62619275 0.39929616 -0.6009939 -0.44317803 -0.34799525 0.56121427 0.9358762 0.55774903 -0.9056855 0.24630448 0.297697 -0.89085996 0.81443137 -0.6332522 0.19048822 0.92071694 -0.50986296 0.98013556 0.031834513 0.04590154 -0.6117986 -0.78950435 -0.26034716 -0.9458188 0.94166213 0.6369098 -0.87109923 -0.24000818 0.9019174 0.121899426 0.6753202 0.45390046 0.2619721 -0.8101973 -0.93757945 0.9219343 -0.6092529 0.1888814 0.20815839 -0.13306132 -0.8730939 0.929471 -0.5437436 -0.56727403 0.7887701 -0.04505639 0.38479942 -0.08581249 0.12181937 -0.67052865 0.76873744 -0.4198752 -0.07477579 0.6428681 -0.7368839 -0.3418985 0.21372542 0.012180876 0.9931636 -0.4739913 -0.7289332 0.19276196 -0.26051137 0.92982984 -0.015639827 -0.4521244 0.878411
0.32090685 -0.74684167 0.8398198 -0.5476067 1.0140865 -0.18308671 -0.8551248 0.3146559 0.7098207 -0.63091385 -0.28807256 0.19998433 0.17149569 -0.89761364 0.36414894 -0.9300782 -0.025967686 -0.046369016 0.6600178 0.8177176 0.7762789 0.14128049 0.47658166 0.4035733 -0.44856542 -0.31925133 0.28261033 0.5341391 -0.11350196 0.9740788 -0.43190834 -0.4521479 0.5766413 0.658971 0.7700716 0.2066806 -0.3199475 0.36484736 0.0464402 -0.796398 0.47993314 -0.6596168 -0.8798374 0.110674046 0.7168162 -0.9017732 -0.29592675 -0.06983135 0.9648102 -0.94636446 -0.6883417 -0.06370929 -0.68456006 0.64887774 -0.957919 0.06053679 0.86529744 -0.96457773 0.9533271 0.98830533 0.54606205 0.79030925 0.51314783 -0.2895817 -0.86868674 0.90083915 -0.5618413 -0.85337085 -0.15578127 0.4555217 0.17088519 -0.52052194 -0.9158071 0.08890993 -0.88366175 0.061971236 0.7307311 -0.6940631 0.8479449 -0.21276344 0.78492504 0.14684469 1.0802939 0.9938561 -0.033040557 0.7550183 -0.3260214 -0.35274592 -0.60276586 0.44865164 -0.9324683 0.2727461 0.28409877 -0.26396665 0.30912173 0.7140521 1.0104611 -0.26301613 -0.13400105 0.7648179 0.24197513 0.12506515 0.84451145 -0.9820116 0.35942623 -0.36757916 -0.5976878 0.60727394 0.9956869 0.4509281 -0.5633988 0.6111959 -0.97481596 0.48928994 0.39577654 0.5358433 -0.7118235 -0.05242158 -0.14589162 0.61994535 -0.63415635 -0.20191823 -0.9236502 -0.0059316107 0.16998284 -0.34577718 -0.74727964 -0.02616203
-0.7657137 0.4209229 -0.61797667 0.46481416 0.71727 0.5954371 0.49896854 -0.47113663 0.74348974 0.7108183 -0.6981115 0.6657567 -0.66051805 -0.05296555 0.17494503 -0.1533229 0.66944706 0.5452348 -0.60665005 0.83894384 -0.5956844 -0.3787462 0.51129526 -0.7782928 0.6995721 0.05405604 0.5728182 -0.83225 0.626486 0.27343568 0.33959687 -0.5943327 -0.1635821 -0.4699525 -0.5376025 -0.09877013 -0.17784536 -0.98149353 0.43468007 0.56570035 -0.025188094 -0.44203615 -0.33491027 0.5314913 0.45387194 0.785236 -0.1860702 -0.7428447 0.90395445 0.39992112 0.9180804 0.6240503 0.41468138 -0.19046086 -0.38627604 -0.2885629 -0.2581335 -0.81932586 0.56861544 0.25802022 -0.01305653 -0.009978223 0.8791079 -0.10343036 0.136725 -0.27955875 0.2952427 -0.4409929 0.6171969 -0.19621159 0.28264388 -0.06790352 0.6983273 -0.29352155 0.4141386 0.40590596 -0.47253224 -0.75190276 -0.11688195 -0.11029453 -0.15851898 0.3142839 0.20842484 0.9447608 -0.5998641 -0.62722 0.4002781 -0.86012536 0.63639563 0.59876156 -0.47892946 -0.3359311 0.3174846 0.615095 -0.03194803 -0.099209994 0.06788678 -0.8792671 -1.0688847 -0.36028096 0.7169681 -0.36092827 0.56011164 -0.71900356 0.23734613 -0.13736156 -0.29151502 -0.036798783 -0.08896503 -0.76661295 0.088664345 -0.17854534 0.23541349 0.5117408 0.41357702 0.5769723 0.48360276 0.6492899 0.100115776 -0.37500492 0.2925513 -0.006994082 -0.15820101 0.2488731 0.58458924 -0.3168065 -0.51211935 0.8844053
1.0051713 -0.37036812 -0.27620992 -0.6841241 0.4297971 0.77452403 -0.20208594 1.0267256 0.2662138 0.868268 -0.59950495 -0.79553914 0.4056021 -1.1746578 -0.088694826 0.89582986 1.1139901 -0.22485399 0.49354225 -0.9353194 0.62467784 1.0183171 -0.7474295 -0.89214075 -0.110335566 -0.35764912 0.01431334 0.470675 -0.2808853 -0.6038811 -0.11687011 -0.2658034 -0.7127243 -0.058119677 -0.92097104 0.82498807 -0.98874056 0.56142044 -0.24991867 0.6853728 -0.024203064 -0.43203145 0.4363351 -0.47409844 0.15769204 0.99178064 0.52569413 0.73427856 0.48734534 0.10480966 -1.0376098 0.27618542 0.71986747 -0.42462116 -0.8393014 -0.38878348 -0.12135145 0.6731983 -0.831358 -0.8365167 -0.3842641 -0.7809614 0.57767296 -0.79628366 -0.20146708 0.037569407 0.63355535 0.5944776 -0.92855203 -0.978792 0.09852747 -0.7834508 -0.047319084 0.4910224 0.5868538 0.8189691 -0.72053874 -0.79799104 -0.33508918 -0.018676596 -0.6777478 -0.6677977 0.99368477 0.16858633 -0.28496525 -0.7645756 -0.040074836 0.28890443 0.6463528 -1.156483 -0.27850616 -0.788906 0.34656867 -0.6193605 0.5595237 -0.017740978 0.46276477 -0.191149 -0.1507966 0.76792175 -1.3079789 -1.0022196 -0.40758693 -0.14359486 -0.42604136 0.79753804 0.24390312 -0.22886486 0.41826394 0.1831466 0.8915775 0.017467871 -1.0656909 -0.51069313 -0.4432332 -0.5793641 1.1984633 0.64079946 0.25885943 -0.48722905 -0.6049271 -0.095816605 -0.28444803 0.18325183 -0.2598636 -0.3788483 -0.4896404 -0.5319516
0.6817599 -0.012205841 0.85016894 0.79582536 -0.41096616 0.903836 0.045204528 -0.20280463 -0.70347273 -0.57314503 -0.06700158 0.7941768 -0.55825704 -0.49236858 -0.11559739 -0.78529495 0.6273471 0.29463693 0.23496915 0.28494692 0.23769045 -0.9754664 -0.8883298 -0.72033644 -0.751566 -0.5619683 0.14620827 0.70128334 0.08167477 0.52869475 0.88053375 -0.68600345 -0.32433677 0.86795557 -0.068280235 0.29795724 -0.543679 -0.92128545 0.7116008 -0.83688253 0.6174076 0.6475432 0.65903103 0.79953414 -0.627285 -0.97506905 -0.5304968 0.34271884 0.9462334 -0.6443755 -0.6353643 -0.8221071 0.85550517 -0.99653906 -0.4527602 -0.32449952 -0.930658 0.09179011 -0.15977702 0.52720165 -0.36319637 0.64890045 -0.19932888 0.7983626 -0.8967741 0.8089401 0.78456265 0.4149844 -0.43085462 -0.05201388 0.45188016 -0.018171774 -0.6211204 -0.67653465 0.6779674 0.9649926 0.028017689 0.02395744 -0.33282274 -0.26535514 -0.6358874 -0.23633781 0.668285 -0.18683514 -0.8810862 0.06297509 0.8872137 -0.4204782 0.726013 0.6134642 0.88121307 -0.5850976 -0.2824647 0.9736331 -0.26282537 -0.80996484 0.7676526 -0.560424 -0.38502696 -0.32829386 -0.46629244 0.85795784 -0.2745301 -0.3456418 0.9607668 0.05816931 -0.03448529 0.5828259 0.5864076 -0.42202073 -0.4400297 -0.5865963 -0.7487541 0.46224278 -0.66400677 0.35384235 0.60516804 -0.06522524 0.7870399 0.818372 0.77425337 0.90822846 -0.09161453 -0.14191797 -0.99812293 0.41463354 -0.6206479 0.76597726
-0.049889762 -0.37591562 0.7046692 0.10771551 0.10003944 -0.21149021 -0.7177576 -0.33445928 0.12081162 0.38708702 0.90407336 -0.9302946 0.9231559 -0.32754758 0.8269163 0.19132362 -0.52997565 -0.40425748 -0.42177615 0.14696816 -0.41530594 0.3907389 0.94579345 0.35056797 0.7050151 -0.29553068 0.47524396 0.5168161 0.015042879 0.65884686 0.43423006 0.76800007 0.5603081 -0.4774467 0.13974038 0.2075347 -0.8286467 -0.5507646 -0.91803694 -0.67897236 0.8569576 0.7361359 -0.605181 0.54843366 0.18937257 0.00941492 0.3360609 -0.4748786 -0.19646397 0.75478727 -0.723766 0.74455786 0.83099794 -0.54712313 0.09079056 0.72642803 -0.2955754 -0.03567046 -0.91151226 -0.7054768 -0.6833198 -0.18402895 -1.1149638 0.23180945 0.8953891 0.30252984 0.2669991 0.9952984 -0.27918723 0.5631493 -0.5418097 -1.0943273 -0.85355383 -0.763852 0.6397044 -0.6654009 0.40167385 0.7787541 0.3569768 0.5809857 0.5593036 -0.2920409 -0.5046616 0.4490205 0.85138935 -0.9626949 0.6145004 -0.60939837 0.80206096 0.8893398 -0.3470319 0.5678507 -1.0395085 -0.48779345 0.53621036 0.32774463 0.20753488 0.8294077 -0.8316309 -0.95921606 0.104078494 0.94839275 -0.8650311 -0.86171293 -0.9534286 0.99093217 -0.5269301 0.26216072 -0.40949243 0.5212381 0.0723502 0.27946204 -0.15035264 -0.009787905 0.3064755 0.8144491 -0.62987196 0.5158993 -0.57132715 -0.8815457 0.66699857 0.907501 -0.6813983 0.21679643 -0.89917034 -0.2117256 -0.7338935 -0.7751555
-0.38295016 -0.67620116 0.5330561 -0.41595018 -1.0663292 1.1391547 -0.92293364 0.34295467 0.73018914 0.93404984 -0.82328045 -0.3732238 0.10692444 -0.5955988 -0.2849078 -0.78531784 -0.24764195 -1.1350173 -0.4604939 0.72260845 -0.88405716 -1.1079031 0.7191254 0.17158312 -0.8848652 0.043673754 0.079588786 0.29212105 -0.84393126 -0.54339916 0.22674474 -0.74258095 0.039681748 -0.3020584 -0.32269472 0.76498795 0.6102191 0.2708523 0.560019 0.6474641 -0.611703 -0.94369376 -0.22906406 0.70134085 0.35275385 -0.64400834 -0.002333453 0.70879006 -0.9711488 0.4581058 -0.86228144 -0.711053 0.51637226 -0.90899336 -0.73737824 -0.38983372 0.20113118 0.8136674 0.45838064 0.31503505 0.70902646 -0.14362329 0.51852715 -0.6127499 -0.7773987 -0.30959523 -0.94742763 0.22923851 0.65526766 0.84803534 0.902486 -0.8442923 0.085757956 0.10714806 -0.97169477 0.4315118 -0.95280087 -0.6071921 0.9275467 0.8478279 -0.09492017 -0.98114747 -0.18772957 0.6754903 0.5184672 -0.64358354 0.5409677 -0.73300153 0.70994353 -0.77275217 -0.065491624 -0.15126555 -0.85579884 -0.52594626 0.8212339 0.67376703 0.9096827 0.7074402 0.80034643 0.1714244 -0.37532893 0.6884626 -0.014830815 0.9088224 0.7916236 -0.32816163 0.79967475 0.38717222 0.14200494 0.064038895 -0.72628564 0.43358046 -0.5436601 -0.55812114 -1.0423094 -0.8411786 0.04301794 0.28634003 -0.12689932 -0.61617965 -0.0897066 -0.7693398 -0.62713134 0.3392055 -0.7953078 -0.70628995 -0.17653692 -0.47057727
0.6805584 -0.32258782 -0.35621738 -0.095981166 0.7906442 -0.028100858 0.8146919 -0.45797953 0.47386438 0.92243236 0.20804457 -0.8090209 -0.4831005 -0.020253927 -0.48450065 -0.28973123 -0.7091696 1.0376748 1.0000257 -0.47438797 -0.3381109 -0.70517737 1.0485693 1.0732218 -0.9473612 -0.8725139 1.0747559 0.99235094 0.034073193 -0.13310255 0.8171144 -0.7678281 -0.08878453 -0.94099385 0.1919005 -0.6831914 -0.9580411 -0.040671878 -0.2008203 0.94045746 0.49548966 0.5993329 0.7537794 0.81076837 -0.37306172 0.119831644 0.17949803 -0.029363727 0.7894157 0.7839977 0.59203184 0.42870906 1.1202458 0.8032286 0.5753059 -0.3261479 0.51319873 0.36311343 0.48685333 0.85284865 -0.7474759 0.38662156 -1.250539 0.93265545 0.61944777 0.69587547 -0.004630504 -0.7215949 -0.91893065 -0.26346156 0.3335206 1.0699999 -0.41518387 1.0920345 -0.052840866 0.7378106 0.72929937 0.44794834 -0.81988513 -0.7196262 0.5631073 0.84359604 0.9607493 -0.10512543 -0.68196726 -0.3076823 0.018780937 0.23257278 0.0017522518 -0.82860315 -0.70614374 0.38003254 -0.80246323 0.018130397 0.44596264 0.030279713 0.52792084 0.39592338 -0.45067802 0.044703323 0.14936078 0.07206927 0.9359457 -0.48126683 0.48269427 0.18907245 -0.25239745 -0.25841412 0.17160855 -0.6310461 0.7282983 0.37116525 0.51599544 0.20299694 -0.34522945 0.64526474 -0.62917024 -0.5502712 -0.18202409 0.57327867 -0.07819859 -0.14857896 0.39327937 0.8461925 -0.28912604 0.69493914 1.1665621 -0.2675771
0.29311877 -0.6577115 0.5239283 -0.13742204 0.7633336 -0.36552092 -0.046339575 0.32679394 0.6908161 -0.13478644 -0.54116064 -0.5209735 -0.6343968 0.31591853 0.9423018 0.49239954 -0.74947435 0.03775558 0.81748784 -0.35771394 0.2687446 -1.0555805 0.15736358 0.45207173 -0.36952335 0.28541467 -0.46653575 -0.09819576 -0.14955163 0.18700095 0.9598611 0.17155111 0.8306358 0.9675643 0.93032295 0.34106842 -0.4299912 0.5021716 0.14994426 -0.6375285 0.07400681 -0.6462519 0.004265468 -0.013625522 0.93428415 -0.42863685 -0.5204085 0.17341606 -0.2796046 -0.77801543 -0.7544743 -0.7165467 -1.0097138 0.34524232 -0.9352616 -0.55073875 0.6093036 0.82053626 -0.5359621 0.43541545 -1.0038173 -0.6172495 0.31504026 -0.20702966 -0.87188184 0.40777692 -0.95149946 0.47512192 0.11991935 -0.16968217 0.9996303 -0.5890347 0.81069666 0.42654243 0.7201764 -0.24949099 -0.21269336 -0.7345643 -0.40671134 0.95060295 0.24264619 -0.019925503 0.26853362 -0.89519817 0.61968076 0.8801991 0.11884366 1.0471824 0.15685631 -0.27490738 -0.23789006 -0.021874627 0.6157693 0.46648082 -0.3720455 0.5263491 -0.28941584 -0.012570224 -0.37784263 0.23269251 0.18004611 -0.015032021 -1.1279539 0.49189082 -0.24168055 -0.5976004 -0.1811334 0.6650874 0.47408462 0.8232574 -0.027668834 0.41185853 -0.28878075 -0.39858377 -0.1836784 0.4742146 -0.91863936 -0.760387 0.28143746 -0.08192667 -0.9845984 0.94182765 -0.50210243 0.45359147 -1.0064118 0.3750753 -0.57620287 0.19880258
0.5551278 0.32421538 -0.710462 0.078645855 0.55101454 -0.026140874 -0.31248635 -0.86921835 0.8382608 0.44513002 0.71045804 -0.34897497 0.42066956 1.131713 0.57935613 -0.9683166 -0.6183137 0.35549185 0.060451884 0.6227179 0.5631384 -0.57380295 1.2293457 -1.2129167 -0.52235234 -0.13759139 -0.46968502 0.7542048 -0.3226605 -0.5642444 -0.9810841 -0.016513014 -0.40947416 -0.32444704 0.6180698 1.2232125 0.32365152 -0.9026164 -0.05586862 0.37382054 0.5961151 0.3131596 -0.89174193 1.1451002 0.2400677 -0.90712416 0.44202873 -0.31133872 0.5053655 -0.38935506 0.8093047 0.5222759 0.15808469 0.40575507 -0.7062479 0.6437277 0.15154552 -0.5751868 0.2809917 0.7599752 0.2896263 -0.88997597 -0.14650595 -0.54213446 -0.30951783 0.46917877 0.6288074 0.6148471 0.12685952 -0.11106844 0.39374164 0.14395125 -0.048387837 -0.53800666 -0.40425295 1.0156745 -0.094769396 0.38087335 0.0062986095 -0.6011841 -0.38832983 0.3543519 -0.8535288 0.5982045 -0.073208176 -0.47456583 -0.7117824 -0.488231 -0.4069674 0.5531134 0.09699499 -0.1946311 -0.7853997 -0.83545977 -0.31646615 -0.5930745 -0.24028753 0.24704756 0.31015226 -0.9660399 -0.52581054 -0.5376919 0.08621968 0.25025943 -0.40834138 -0.773871 0.73972714 -0.24922855 -0.46427676 0.5758041 -0.051179588 -1.1762965 -0.4702284 1.0019205 -1.0538281 -1.0255316 0.16909853 -0.7062787 -0.49229404 -0.72518414 -0.86311144 0.6653693 -1.0054376 0.7345265 0.246135 -0.6125851 1.1312399 0.87949693
-0.79842275 0.6190251 0.92760164 -0.091581814 -0.533411 0.19379298 0.80327684 -0.9777832 0.17040914 -0.78761506 0.8069433 0.6890176 0.02712389 0.44603965 0.6725783 0.043043435 -0.14366047 0.22014028 0.5697207 -0.28145698 -0.80417913 -0.46740618 0.21434055 0.72975814 0.6081552 0.08933613 -0.702415 -0.46110108 -0.61791253 0.47197595 0.56934756 0.9668591 -0.58552766 0.716213 0.4364415 -0.4321372 0.1969575 0.18937777 0.38352212 -0.5928949 0.25421706 -0.54280186 -0.63115525 0.10130172 -0.7530772 -0.95347816 0.2718602 0.30226037 0.6119114 0.93685925 -0.26665884 -0.78925145 -0.4422309 -0.113126524 -0.7726121 -0.6987099 0.39852068 0.77151763 -0.6581516 -0.0647784 -0.41446698 0.21306726 -0.58481956 0.8169165 -0.8924763 0.97917956 -0.21516241 0.4576783 -0.9106187 -0.6319068 -0.3462028 -0.41976672 -0.7436728 0.7294051 0.94845873 -0.28496337 0.7199227 0.95856446 -0.58056384 0.994342 -0.98866373 0.73446214 -0.45848224 -0.14787138 0.8814291 0.6802154 0.35812116 0.45245728 -0.8341306 0.9292595 -0.8585048 0.6904898 0.742006 -0.8296492 -1.0074079 0.59740746 0.62664247 -0.6953686 -0.93933296 -0.061629027 0.017231937 -0.85873646 -0.47433397 -0.1238154 0.8660333 0.9663734 0.3946246 -0.61241555 -0.5541156 0.25257033 0.9843629 0.59967273 -0.0075974395 0.14041348 0.3551552 0.19735965 0.90994376 -0.7783616 0.10959153 0.9040719 -0.6596735 -0.06935372 -0.82065994 0.81584555 0.5628952 -0.2588183 -0.12868592 -0.45114937
0.44538158 0.43898398 0.5032641 -0.8496414 -0.17861015 -0.79335755 -9.170958E-4 0.22120027 0.9850048 0.19031307 0.55078125 -0.471802 0.110446885 0.8496704 -0.595232 -0.33313397 1.0582604 0.27294528 -0.74699533 -0.22009982 0.26621678 -1.0343636 0.26848844 -0.37681347 0.5850334 0.2550499 -0.21879086 -0.8831932 0.9144285 -0.73640114 -0.46262655 -0.122889906 -0.09204329 -0.14985064 0.9430544 0.66898215 -1.14502 0.5021239 -0.7204047 -0.41492775 -0.070260406 -0.010306809 0.8514844 0.16536753 -0.051806085 0.68618536 -0.8808932 0.53485405 0.4857289 -0.9528036 -0.09227801 0.5380492 -0.13439968 0.5180625 -0.33774048 0.63476104 -0.29616758 -0.24451084 -0.8545488 0.20406261 -0.99617904 0.7364304 -0.7236201 -0.67104274 0.25621337 -0.11912236 0.19712077 0.9133384 0.8268914 0.44275737 0.03992582 0.38176298 0.33657697 0.2968213 0.1866146 0.311869 0.33080655 0.32035667 -0.23051246 0.8985059 0.87496066 -0.029923227 0.5331728 -0.3068803 0.14311665 -0.29013765 -0.011077112 0.31299734 -0.36842322 0.15790135 -0.539536 0.34648395 -0.69804066 -0.31702724 1.0146588 0.7276706 0.18404 0.10521808 -0.44054988 0.91614443 -0.65205437 0.082560524 -0.4834222 -0.23810804 0.5468076 0.5285077 -0.4642235 -0.18072756 -0.5137788 0.05980395 -0.040023737 0.35338637 0.7730574 -0.629049 -0.52149296 -0.3124362 0.70733076 -0.7483827 0.6324856 0.48352352 -0.7888494 -0.40422016 -0.0602792 0.17227542 0.65930057 -0.9516472 -0.9201073 0.68828183
-0.86994356 -0.22002645 0.102226906 -0.6421639 0.36597386 -0.93131584 0.718015 0.78056854 0.5423822 0.7390556 0.7625626 -0.44353575 -0.11690857 -0.1028838 0.094767675 0.25782833 -0.0516306 0.2544055 0.4021019 0.10657135 -1.0242751 0.28075746 0.07945884 0.6312234 -0.39776465 -0.08908341 0.7534632 -0.641692 -7.1516377E-4 0.75913 0.63840216 0.26381466 -0.42936525 0.44076452 0.07007535 0.61057085 0.37519515 0.13190608 0.117619045 0.44624716 -0.69157296 0.6987798 0.6184638 -0.9482192 0.28477186 -0.8523826 0.5632699 -0.91404605 -0.96785164 0.3796418 0.7062023 -0.89372146 -0.6176121 -0.05921525 -0.2669145 0.8577232 0.57055795 0.82685816 -0.17121935 -0.5577812 -0.39367422 -0.44132861 0.21441601 0.8394436 -0.49519974 -0.14776842 -0.40947974 -0.90852314 -0.43600208 0.3362038 0.8522268 -0.31221023 -0.069427885 -0.73585045 -0.4336817 0.07551602 -0.75956976 -0.34119803 -0.49712473 -0.12710391 -0.9662436 -0.80896556 0.2915189 -0.43952742 -0.055573426 0.21064126 -0.75066715 -0.12920482 0.7801922 0.40472516 -0.56668216 0.6656043 0.7773751 0.76596797 0.6300303 -0.02058071 0.1348668 0.72656584 -0.90503263 0.49799785 0.296308 0.37722865 -0.42257032 0.02328635 -0.378495 0.8135138 0.90346754 0.50164807 0.8110245 0.120029695 0.08651272 0.9214945 0.3719118 -0.37315392 -0.7282597 0.9725628 -0.84479487 0.3680572 -0.32722345 0.02733863 -0.27068537 0.9118101 0.9262012 -0.09665542 -0.1839537 0.021090854 -0.81014454 -0.90488267
0.7826146 -0.98912567 -0.71180344 0.3247612 0.56180155 0.020069305 -0.15148647 -0.75931376 -0.84394103 0.62059987 -0.6688011 0.62171066 -0.809506 -0.22546497 -0.5381298 -0.62703586 0.9617081 -0.69551426 -0.39766487 0.660575 0.27077502 0.30838838 0.88644797 0.72378206 0.5573674 1.028677 0.094343334 0.9732263 0.37676576 -0.56377095 -0.27666336 -0.4848123 -0.87195975 -0.8916307 -0.43139195 -0.16269645 0.45087767 0.3156189 0.48722535 0.03777109 0.9529306 0.5038932 0.14287049 0.7112088 0.837649 0.7424104 0.6553771 -0.08544264 -0.49123618 -0.029061094 0.3180124 0.039847177 0.29937476 0.8393322 -0.52067715 -0.8021499 -0.7894867 0.8173735 0.9488188 0.16462934 -0.95833415 -0.7630706 0.8229387 -0.24238794 -0.44283804 0.39847863 -0.9997566 -0.7952835 0.8553326 -0.07487339 0.68832415 0.95770556 0.0749853 -1.002096 0.30518764 -0.075252675 -0.101690814 0.3622616 -0.18548217 0.5465063 0.34245872 0.046411335 -0.36322254 0.35098234 -0.96878296 0.9432172 -0.9757968 0.35726514 -0.59823275 0.13831063 0.42764783 -0.8197279 -0.9231057 -0.7293835 -0.04546919 -0.82611495 -0.8542733 -0.39240342 0.35887232 0.34885287 0.096806884 0.26867434 -0.010255533 0.0058252937 -0.78749275 -0.321123 0.5117005 -0.07772396 -0.8121986 -1.003851 -0.36381 0.57081836 0.06597221 -0.2826113 -0.13689472 -0.02264952 -0.06806226 0.3030213 -0.28541172 -0.5291374 0.35527015 -0.28186297 0.41654044 0.2708881 0.4771596 -0.8824518 -0.787309 5.1243947E-4
-0.28042838 -0.5691481 -0.6529669 -0.3591834 -0.9277779 -0.2180989 -0.6869278 0.32592016 -0.36998203 -0.08854851 0.72197735 -0.7668339 0.21699426 -0.035310663 0.27457133 -0.99023175 0.021554405 -0.5241445 0.17484698 -0.8444871 -0.9609814 -0.2677921 -0.7725575 0.849315 0.6281677 -0.38641766 0.21003196 0.5065315 -0.3906287 0.5929071 -0.4997288 0.475499 -0.6951547 -0.4598648 -0.007770522 -0.6381953 -0.17527196 0.46623775 -0.33200455 -0.2515486 -0.28468627 -0.42191687 -0.020211075 -0.19806422 0.5463475 -0.08561325 -0.04695914 0.11222606 -0.5206473 0.22732107 -0.47968116 -0.401215 -0.544522 -0.3769013 0.9541457 0.9347338 -0.35326797 -0.55577856 0.2957717 0.56011397 -0.71530104 -0.94873554 -0.066240765 -0.94892144 0.8728096 -0.28653038 -0.45201612 0.31906015 -0.2810444 -0.5791655 0.6475601 -0.5799614 -0.2530677 -0.39137948 0.4626757 0.24570033 0.921156 0.27888823 0.43909636 -0.16994028 0.032809295 -0.22778752 -0.47885355 0.41533077 0.5524455 0.57104003 0.57384175 0.13317296 -0.25561884 0.505906 -0.19376048 0.2318462 -0.12464684 0.4781325 -0.06891767 0.89331573 -0.5197162 -0.7166114 0.77019536 -0.6022502 0.0040753926 0.03930595 -0.40326697 0.87646544 0.045130607 -0.63686407 -0.8761569 -0.44151166 -0.13693452 -0.08150739 -0.4583671 0.41381997 -0.70774907 -0.5041701 -0.5064901 0.13638158 -0.7368595 1.0609977 -0.07179763 0.60618937 0.8999425 0.9206249 0.41075516 0.14116742 1.0207304 0.98147327 0.3874637 0.5093235
0.335669 -0.8005162 -0.5698769 0.75681794 -0.03587651 -0.49405754 -0.17237626 0.511926 0.6029704 0.47713643 -0.8212624 -0.15496774 0.5267388 0.9321355 0.14045693 -0.40726542 0.8431524 0.33928943 0.3640319 0.8212309 -0.05393998 -0.9140483 0.394263 0.63007736 -0.92611253 -0.75354606 0.2801519 -0.017638324 -0.28928247 0.20107277 -0.19054447 0.8228697 -0.69559973 -0.4587658 -0.8847224 0.86013377 0.7696819 -0.047503907 0.62319034 0.9219368 -0.8298856 -0.5677317 -0.17588834 0.9581923 -0.27199984 0.45465636 0.88625365 0.7206824 0.20274305 -0.6712443 -0.038302585 -0.124339245 0.5728491 -0.0850196 -1.0415866 -0.35908398 0.86198676 0.61503446 -0.3928595 -0.9094896 0.53943706 -0.47404128 -0.5085964 -0.7873524 0.9372007 -0.3046026 0.57585347 -0.07494619 0.4913089 -0.8314041 0.17777754 0.38741195 0.36947283 -0.17851172 -0.3465646 -0.008558006 -0.71664554 -0.07138397 0.7893725 0.4021548 -0.42726043 -0.1314057 0.3801664 -0.6786043 -0.8827614 -0.18242247 -0.6703472 -0.5451832 0.97115356 0.19725062 0.19603834 -0.415691 0.93790114 -1.0632125 0.14139453 -0.8238699 0.85770345 -0.19927765 0.6027248 -0.9589881 -0.75140226 -0.11407107 -0.74866956 0.034150347 0.4755379 0.3916004 -0.22429504 0.602736 0.8801405 -0.5959329 -0.856729 -0.027942743 -0.991269 -0.009462728 -0.17458929 -0.9585845 0.8738572 -0.7514192 -0.70532495 0.5429771 -0.28717566 0.048024375 0.39804748 0.6743423 -0.102683805 0.42066392 -0.34255102 -0.42889926
0.6526774 -0.9844525 -0.43646747 -0.1319495 -0.47971365 0.7777034 -0.70860404 0.64751035 0.4266074 0.19517961 -0.1076321 0.73884016 -0.68914676 0.885456 0.38534513 0.47375318 0.07002754 -0.15985096 -0.025814153 0.3110206 0.03904936 -0.86536556 0.5886041 0.59884244 -0.5719346 -0.58565784 0.111916564 -0.2549337 0.024313562 0.8492773 0.76039684 -0.6334832 -0.21037735 0.11552853 0.73076284 -0.28981182 -0.5335457 -0.59102666 -0.3133056 -0.8283205 0.8280741 0.072904296 0.8710658 0.342692 0.56060874 -0.59890777 0.6315813 -0.17671463 0.7269707 -0.03342973 0.6911076 -0.96343035 0.9777117 -0.54503274 -1.0275098 0.13815436 -0.8636763 0.49532226 -0.40662137 -0.91915816 0.2497492 0.8529319 -0.66103256 -1.011082 -0.23271008 0.023108771 -0.5125836 -0.38092428 0.33695278 0.82639587 -0.052754685 -0.2169677 0.9804929 -0.74512047 -0.24697338 0.07888655 0.95714897 -0.5294429 0.96617275 -0.48835286 -0.56291497 -0.30157864 0.72796017 0.7076578 0.12806593 0.6185449 -0.693283 0.45131838 -0.8036773 -0.7526967 0.008766017 0.1384667 0.15884146 -0.5138042 -0.76017123 0.21137573 0.65983266 -0.36052042 0.39289826 -0.705412 1.0872233 0.3443261 -0.28807285 -0.5296746 -0.14729775 -0.29351813 0.9667275 -0.9875372 0.009909759 0.6482137 0.17220908 0.46299753 -0.63368887 -0.53862625 0.3863444 0.13682325 0.045910068 -0.50625086 0.6912155 -0.11995705 0.19570817 -0.1150575 0.017183658 -0.25729814 0.87297523 -1.1026843 1.0280454 0.48260224
0.251922 -0.95565414 0.5569664 0.6336835 0.835043 0.042375047 0.7277446 0.0390313 -0.28775355 0.72875595 -0.1846352 -0.9007735 -0.3562251 0.49297658 -0.3253212 0.416612 -0.34124038 -1.0072514 -0.85502154 0.6990605 -0.83375496 -0.87070805 0.79626876 0.38944402 -0.5684561 -0.1544504 -0.023164108 -1.0103488 0.55367786 0.060137704 -0.053206895 1.0223317 -0.08745284 -0.92832583 -0.51524436 0.2153362 0.5790093 0.6115452 0.6091286 0.14316659 -0.33337703 -0.40295395 -0.8122664 -0.40520462 0.94751984 0.6724426 -0.0742844 -0.34393576 0.83156735 -0.13274054 -0.24673256 -0.0027209162 0.25368482 -0.35777128 -0.15582542 1.2125888 0.9529385 0.9924887 0.041176613 -0.9363313 0.3173785 -0.55169374 -0.97678834 -0.65100175 -0.40238917 0.09001416 -0.7259949 0.102360815 0.31613308 0.7448312 -0.4405442 -0.5193107 -0.5100638 0.12717554 -0.577711 0.2362476 -0.6006263 0.40790936 -0.16148905 -0.8104701 -0.04148206 -0.36726287 -0.9006719 0.7169146 -0.30826753 0.30924717 0.3517157 -1.0581743 0.635631 -0.6029688 -0.6251388 -0.31532863 -0.33441764 0.11133986 -0.3619565 0.5786625 0.8329933 -0.65623623 -0.5837628 -0.69056404 1.0620093 0.42043424 0.8911702 -0.81776744 -0.8434497 -0.12883914 -0.5061437 0.063443586 0.8082601 0.79817843 -0.5273933 -1.1364516 0.4698766 0.788475 0.22088742 0.26336986 -0.11747843 0.74918014 0.39822927 -0.6811556 0.14647685 0.4878065 -0.5023939 0.1139637 -0.71006066 0.54990786 -0.91093343 0.82969314
0.5603164 -0.03197468 -0.55869377 -0.04505357 -0.51282084 -0.61173993 0.09306807 0.52246344 0.3168778 -0.6453816 -0.75016975 -0.714871 -0.3129118 -0.58386457 0.8480672 -0.01744878 0.13534574 0.8460387 0.88746685 0.89356476 -0.25069425 -0.7856987 0.7560684 0.4161353 -0.676921 0.826533 -0.4213985 0.31903565 0.4956116 0.5275403 -0.678713 0.04960202 -0.38086143 0.25159395 0.14236964 0.18611829 -0.3729378 -0.052209124 -0.33296752 0.8770043 0.87941146 0.5173864 -0.7543631 0.42336008 -0.78374225 -0.81511056 0.42789254 0.68118 -0.32298556 -0.8649142 -0.42587072 0.35789832 -0.12471815 0.19051908 0.56438667 -0.009660265 0.020148717 -0.731939 -0.050766 -0.79759526 0.21956341 0.34443888 -0.005773702 -0.1586311 0.044958055 -0.23047835 0.00527508 -0.3531543 0.73394483 -0.8819328 0.7804471 -0.62537116 0.20729761 -0.47624487 0.57261664 -0.20755118 -0.8004673 -0.1802531 -0.8177515 -0.48971018 -0.6152582 0.014239307 0.9826171 0.34968737 0.1475826 0.08974478 -0.8922611 -0.76785505 0.17614174 0.16657542 0.36651522 -0.15565363 -0.43890348 -0.5684095 0.034038488 0.7861036 0.95832026 -0.9133581 0.030537747 0.3632827 -0.77193254 -0.7816261 -0.18752359 -1.0050058 -0.30174002 0.838534 -0.2853344 0.25282264 -0.5975918 -0.2857736 0.65492225 -0.46975854 -0.9296787 -0.4423944 0.43611127 0.6530029 -0.52207 1.0680931 0.83908015 0.12002488 0.06706363 -0.6805164 0.9207766 -0.8305838 0.6866663 0.855997 -0.45844185 0.30094063
-0.6119553 0.5434951 -0.40421554 -0.6784992 -0.3601302 0.91664153 -0.8877575 -0.9317839 0.9543133 0.60404575 -0.08778053 -0.76052964 -0.76793474 -0.35895315 -0.18975902 -0.66355246 0.24228483 -0.9516287 0.4662306 0.62997967 -0.85473675 0.5453475 -0.26235208 0.20993742 0.48650244 -0.799431 -0.44827306 -0.69118583 0.37971264 -0.9274118 -0.6766282 0.70969796 -0.28631032 0.59016424 -0.4853702 -0.41107434 -0.34043995 -0.5230599 -0.05108381 -0.26520002 0.25116885 0.15229633 -0.01949412 -0.648622 0.0055883965 0.14167365 -0.01887486 -0.16488877 -0.66510165 -0.830932 0.2722729 -0.15902837 -0.45799664 -0.95559007 -0.17341097 0.8802196 0.62762237 0.8316142 0.93014413 0.9994782 0.12782744 0.82444054 -0.78346115 0.5772457 -0.18585671 0.2523922 -0.48647076 -0.5761311 0.8271487 -0.423177 0.8270839 0.4928674 -0.10697017 0.43858323 0.6298901 -0.30255607 0.44580802 -0.4172777 -0.78746283 0.84835905 -0.690851 -0.1571322 0.5999958 0.080568485 -0.7175062 -0.66626406 -0.5885447 0.4133725 0.98955256 -0.55713105 -0.78916186 0.5998434 -0.9393804 0.89370906 -0.71971315 -0.075533494 0.92026365 -0.5332279 0.66593957 0.75388986 0.46300095 0.16417393 1.0175673 0.7948508 -0.98285306 0.3544995 0.56273305 0.10361034 0.74279356 -0.79820216 -0.98723644 0.8272601 0.18351255 -0.8689705 -0.2784855 -0.2133594 0.3263263 0.23800047 0.29368502 0.06284381 -0.9715282 -0.14057596 -0.2990621 -0.7539776 -0.29689202 0.5119695 0.7683137 -0.22977908
-0.41785312 0.6180277 0.37676758 -0.44795978 0.67760897 -0.74750113 0.41541642 -0.7027068 -0.9862491 -0.30432522 0.6582359 -0.36802235 -0.05583128 0.6707964 -0.52579784 0.37639108 0.71531814 0.7175192 0.9660698 0.7899121 -0.11262074 -0.19623686 -0.41879204 -0.1872345 0.5967642 -0.4322937 0.39708355 -0.6162145 -0.60868615 0.009534072 -0.5561726 0.93128276 -1.0058475 0.7030594 -0.12049977 0.6892677 -0.42892158 -0.8067662 -0.305927 0.5185513 0.82691604 0.7045745 0.20074981 -0.3815487 0.7754025 0.2042455 -0.77515304 0.45490372 -0.21584725 0.37215817 -0.91198504 0.6885462 0.65087724 -0.3444663 -0.3294842 0.0609581 -0.5054296 -0.24136555 0.35530835 0.5510364 -0.13455689 -0.7486013 -0.12593548 -0.83357996 -0.27028295 0.03544244 0.6044092 0.65274554 -0.81625044 0.6594118 0.6564652 0.5848103 0.12418395 -0.12821811 -0.19758722 -0.35198653 0.97333217 -0.9503964 0.07991678 0.28854132 -0.9972378 -0.58347726 -0.7915767 -0.5405768 0.49115565 -0.25212154 -0.38009572 -0.9898139 0.41046384 0.8831972 -0.91946495 -0.1093262 0.39782247 -0.6287141 0.23560816 0.89547455 -0.7038393 -0.42465523 -0.87359536 0.4279382 -0.41725907 -0.8491204 1.0007333 0.6508071 0.20084459 -0.6010793 0.3855086 -0.050988037 -0.16124211 -0.66377616 0.6758891 0.43693712 0.21179123 -0.3869683 0.73656005 0.39927292 0.79816794 -0.65337247 -0.34649143 0.6229368 -0.74992216 -0.8891101 0.31651086 -0.6556984 -0.19031413 -0.56846654 0.78598785 -0.6393554
0.8005031 -0.72145534 -0.0938647 0.8358592 -0.036356144 0.07914274 -0.6122977 -0.6275071 0.105704404 0.57675874 0.28130496 -0.19546436 0.30113786 -0.43592608 -0.9512283 0.5824949 0.6395715 -0.95798004 0.860718 0.10390245 -0.3125576 -0.8181162 0.78850406 0.28302428 0.16048734 -0.070036575 -0.2669576 0.1317854 0.20493573 -0.6823522 -0.7608289 -0.18636775 0.07136816 -0.28053248 0.5195548 -0.39894846 -0.6996558 -0.9511879 -0.7464673 -0.79997206 -1.0385877 -0.9173012 0.1932331 -0.5347827 -0.72093433 0.5477728 -0.740078 -0.63357574 0.1925914 0.24800639 0.52239746 -0.27953604 0.26693922 -0.42505646 -0.9503349 0.016766727 -0.2970684 0.20816216 0.85841024 0.09084549 -0.021295998 0.30334198 0.015222477 -0.91429895 -0.7140221 0.5430627 -0.15551388 0.0551013 -0.33171618 -0.33223137 -0.68318015 -0.6285782 -0.9547853 -0.8714373 -0.5043712 0.64415354 0.9783339 -0.25509405 -0.2516553 0.35518137 0.16158153 -0.05159036 -0.070365205 -0.49231595 0.18678506 0.14694487 -0.30225423 0.4876327 0.6906698 -0.2988707 0.016445475 0.3807026 0.3697036 0.26504627 0.15321767 -0.94550914 0.59725136 0.22219263 -0.46681276 -0.5709875 -0.5982479 0.34820285 -0.6095947 0.25309083 -0.3939785 -0.8733453 0.44889492 0.31227967 0.49368834 0.61858284 0.7702882 0.46834973 0.08517105 0.2653975 0.23350553 -0.1387689 0.76936466 -0.6532939 -0.024311822 0.41374058 0.27775067 0.13067241 0.5963878 0.85472697 0.20957285 0.053829793 -0.47289035 0.037873082
0.49461326 0.59640867 0.49642983 0.94977534 -0.87077117 0.10448171 -0.5080379 -0.25556672 -0.20878744 -0.27284855 -0.1047154 -0.717756 -0.1735614 -0.302175 0.30719987 0.41189626 0.055893462 0.6432091 -0.20319723 0.93413997 0.71460915 0.87732893 -0.075109825 -0.87833154 0.39931887 -0.38456237 -0.13392991 -0.4740918 0.32920793 -0.8806344 0.36512256 0.79488784 0.75558776 0.8302208 0.010087456 -0.38659155 0.6907721 -0.84989774 -0.06049878 -0.80926275 0.6143365 -0.051942308 -0.27459958 0.82316107 -0.4482336 0.75839096 -0.45326555 -0.5441057 0.64459866 0.8508467 -0.7284511 0.29643354 0.6545409 0.102386266 -0.24255757 0.9235808 -0.60704637 0.10317786 0.88500524 -0.7944274 0.5695722 0.09785276 0.1313876 0.5715175 0.60994124 0.81101984 -0.2301843 0.50479 0.10122825 0.644118 -0.758469 0.84664184 -0.17878823 -0.20595442 -0.3379523 0.3342377 0.7090548 -0.813269 -0.03654473 -0.56848675 0.32587314 -0.758239 0.06078058 0.93795824 0.060856223 -0.15717445 -0.74601513 -0.617673 -0.8015379 -0.6993285 0.65477467 0.5141381 0.4942195 0.020689547 0.015636412 0.8416763 0.26313215 -0.70439607 -0.22898687 -0.9430571 0.39351958 0.25542185 -0.40050027 -0.16471002 0.25696746 0.23544472 0.3324857 0.103598796 0.15701891 -0.6128208 -0.1878813 0.037691835 -0.93468165 -0.6389186 -0.36482048 0.107351 1.0124487 -0.71116346 -0.40370122 0.75812596 0.66204023 -0.28913435 0.84194857 -0.48398978 0.22840314 0.5451601 -0.7725249 -0.48667356
-0.5887857 0.6234027 -0.8560062 0.39399254 -0.08997437 0.49534994 0.49508306 0.95605606 -0.5382803 0.3715072 0.61197144 -0.7045215 0.5742015 -0.9567979 0.1811017 0.59379894 -0.07997436 -0.6926912 0.18614435 -0.070324935 -0.24260038 -1.013935 0.3601908 0.1260511 0.14910732 -0.86601853 -0.7773486 -0.82528716 -0.7278655 0.5663675 0.73555726 -0.3370292 -0.35760313 -0.4381453 0.46707743 -0.4473779 0.7770447 -0.67906946 0.6269586 0.7715299 -0.7423317 -0.1270695 0.8911588 0.6224768 -0.43236387 -0.7170021 0.56118274 0.45727608 -0.38535812 0.35007608 -0.37985322 -0.26249117 -0.10172912 0.5642946 -0.30456853 -0.30922577 0.7965382 -0.013689609 0.16565482 -0.45823005 0.2984292 0.33929402 -0.48079273 0.4227468 0.43992314 0.9609093 0.27313912 -0.5934842 0.74659455 0.39368403 0.9334474 -0.29944196 -0.14802647 -0.6707821 0.61453027 -0.23971878 0.41320086 -0.7917616 -0.548829 1.2156091 0.5597047 -0.12111523 0.2763243 -0.3580451 0.4486009 0.6345009 -0.48534173 0.85652643 0.6372708 0.3307632 -0.76673585 0.22825931 -0.7140099 0.6261185 0.9040969 -0.5741311 0.64149314 0.6038467 -0.3758126 0.8638965 -0.94835764 0.3506369 0.34320265 0.30266568 0.78483164 -0.9445657 -0.7891179 0.8027611 -0.81088847 -0.2902309 -0.557657 0.76057804 -0.4663714 -0.3344643 -0.30369765 0.6337848 0.27511477 0.92312646 0.19465025 0.4635469 0.42533544 -0.9370098 -0.97257036 -0.019272989 -0.31618604 0.1016122 -0.17824446 -0.7323377
-0.40887475 -0.44880766 0.7732003 0.39525366 -0.8063865 0.6996172 0.36974508 0.80105096 -0.630974 -0.89095 0.5739243 0.80034596 -0.019242007 0.20015748 0.36966267 0.32175925 -0.018594945 -0.15654974 -0.78495437 -0.8351025 -0.7041561 0.7289233 -0.19327956 -0.07998416 0.19112882 -0.14336826 -0.9139084 0.17018385 -0.05781514 0.9268382 1.0104563 0.21666083 0.70449704 -0.049619287 -0.30976275 -0.5425556 -0.84867555 0.604161 -0.073877044 0.52546984 -0.18416335 -0.89395165 -0.015357874 -1.1215342 -0.92319894 0.49287993 0.25507194 0.3067212 0.063495696 -0.18952103 -0.77340084 0.7719995 -0.5311672 0.9401877 0.08709452 0.92204374 -0.59713876 -0.82687944 0.12220933 -0.4108768 0.5614681 -0.07030101 1.10336 0.35087034 -0.8511424 -0.18178289 0.043479666 -0.09328846 -0.79998326 -0.2078277 0.5840659 -0.30813533 0.07909283 -0.48372364 -0.055601142 -0.1788537 1.0337052 0.75947434 -0.20734236 0.075737745 -1.0323108 0.941402 0.4913223 0.16807927 0.2226743 0.54158425 0.5841902 -0.45367032 0.8396654 -0.16142845 0.6689345 -0.58305204 -0.5216153 -0.442739 -0.06447285 1.0768862 -0.15231772 -0.33335093 -0.42113757 -0.23958486 0.050439406 -0.79542065 -0.64231175 0.22673284 0.592258 -0.41703072 0.64845717 0.7638514 -0.0015233494 0.47353518 -0.30382332 -0.89755917 0.25407287 0.42207417 -0.5944024 -0.35588416 0.5685376 0.44876686 -0.2492029 -0.9982747 -0.40762362 -0.173499 0.2425859 -0.6609603 0.26068863 0.6675179 0.9676453 -0.030253123
-0.50222075 -0.81237656 -0.17630929 -0.8047733 -0.74360794 0.7571051 -0.25720352 0.6203862 -0.51463884 0.9671669 -0.17546566 -0.8456638 -0.93458414 0.3080189 -0.06001445 0.4565926 0.24740684 0.22248416 0.9649917 0.48602632 0.59899193 1.0956959 -1.0319237 -0.48893675 0.19140087 -0.258796 -0.6895278 -0.7790225 -0.8137806 -0.06988247 0.7796076 0.3144225 0.6363253 0.39618134 0.78904235 0.47922957 -0.47079727 -0.93553305 -0.115576036 0.6771409 0.17620449 -0.21486944 0.81888616 -0.16543697 0.8843345 -0.86471695 0.8703409 0.5555423 0.21607697 0.5410638 0.4605183 0.49202332 0.8379986 0.5213758 -0.21157908 -1.0310259 -0.24291524 0.78383994 0.23425817 0.63155717 -0.6319503 -0.57228106 0.8298371 -0.07270465 -0.28163528 -0.7523476 -0.6381812 -0.5574541 -1.017025 0.7504109 -0.41189864 0.3377909 1.0054079 -0.71534675 -0.5660742 0.8121297 0.2454944 0.65908355 -0.79145145 -1.0475986 -0.6975135 -0.74564505 -0.3289735 0.90572345 -0.9188283 0.5028588 0.3866515 -0.21642052 0.9857963 0.7278895 0.9082336 0.86440593 -0.38727656 0.2573018 -0.45613873 0.8812303 -0.94976115 -0.34817538 0.3287639 -0.5665388 -0.5133643 -1.022884 0.8833451 -0.37461993 -0.2944065 0.11347099 0.5974472 -0.91448313 0.44029737 -0.3142885 1.1292837 0.09155227 -0.6010201 0.69672024 -0.7103783 0.7929533 -0.5553307 -0.46528116 -0.84368277 0.22711939 0.3566517 0.73449147 0.49463743 -0.18591788 0.3928363 0.54409444 -0.18064992 -0.24666484
1.075594 0.6843301 -0.31365028 -0.9289214 -0.27694285 0.22008134 0.40304762 0.82126343 0.115080744 -0.77283615 -0.9046405 -0.85603774 -0.3776754 -0.5108065 -0.4220123 -0.43979836 -1.2866409 0.6068132 -0.57624704 0.22747111 -0.45403883 -0.4721604 0.10626937 0.95144814 -0.5781348 0.8559457 0.31278357 0.27515084 0.22705516 0.23552138 -0.0023917002 0.34824914 0.9135636 -0.9590164 0.5279909 -0.03596676 0.5499166 0.72789335 -0.3537429 0.14074512 0.65693814 -0.98935795 0.9395672 0.33016992 0.44550827 0.52165806 -0.20075312 -0.2471703 -0.21589707 -1.0006324 -0.12939878 0.9104445 0.31270042 -0.65799826 -0.18000521 -0.3340173 -0.9603496 0.263916 -0.046913505 -0.56660867 -0.40052718 0.12983459 -1.0304526 0.39810792 -0.83730745 0.025435874 0.4690992 -0.70174366 0.47436225 -0.07573342 0.62738764 -0.34220895 0.7639176 -1.1081136 0.47618687 -0.8142349 0.8074289 -0.9781821 0.41848204 -0.25738245 0.43073088 -0.10097699 0.68319976 -0.06075485 -0.67805946 -0.36633235 0.9400318 -0.75363964 0.35004938 -0.3202392 0.34601626 0.7053987 -0.02185714 -0.20978373 0.71671164 -0.27405605 0.57264805 0.50902814 -0.05317328 -0.8983837 0.119471766 0.115747325 -0.053618032 0.102632165 0.9876322 -0.28294685 -0.009981537 -0.616804 0.6208486 0.71847117 -0.57804686 0.5773347 -0.8142869 -0.21677053 -0.5580761 -0.7019408 1.0338802 -0.13663192 0.5850821 0.878735 0.012100239 0.24001826 0.73339975 0.57356 0.19178881 0.1995558 -0.32133517 -0.74868864
-0.22347575 -0.6930966 -0.77733815 0.7544739 -0.14540195 -0.07407996 0.69743913 -0.27279055 -0.87709624 -0.5921125 -0.42704967 -0.85531664 0.6998119 -0.6242447 -0.384471 0.30239567 0.43674293 -0.08058734 -0.49982083 -0.59301966 0.6617889 0.6108008 1.2171735 0.5323026 -0.50285584 -0.56287956 -0.19795075 -0.93378943 0.54032075 -0.747787 0.13909183 -0.28892624 -0.4557733 0.62153596 -0.13815609 1.0940421 -0.49036384 0.6321888 -1.1580931 1.1231529 0.49505806 0.2580253 -0.20371744 1.3147001 -0.28423738 -0.15401533 -0.38806564 0.09355761 -0.09600422 0.8036402 -0.09284563 -0.10846368 -1.1002427 -0.6606971 0.49222627 0.026793674 -0.46885195 -0.4550341 0.82597065 0.335004 -0.7592941 -0.8969706 -0.47340038 0.2319483 0.93637943 0.42433518 0.29301137 0.6255544 -0.25370455 -0.9503466 -0.51036865 0.0058303904 -0.06004473 0.68876874 -0.81676924 0.75901663 0.06651362 0.61532927 -0.41354847 -0.41267464 -0.43746153 0.066782035 -0.09305842 -0.6943194 0.20774531 -0.92689866 0.7901997 0.96573985 0.13420461 0.3298524 0.35182038 -0.84048104 0.51423144 -0.14659357 0.6494809 0.49120384 -0.5980272 0.01382364 0.17474003 -0.8802543 0.43719283 0.75735223 -0.57184434 -0.12604268 0.97863483 0.80773294 0.07102989 0.41601902 0.35975936 1.0105913 0.23139828 -0.87662625 0.24161191 1.0292373 -0.8255839 -0.44248152 -1.0720516 0.38147092 0.3692014 -0.07715923 0.8391708 0.74147266 -0.19700111 -0.02600207 -0.6918087 0.9258605 -0.5188358 -0.6125739
0.65353 -0.025893057 0.47507507 -0.86259234 0.33673987 -0.11477586 -0.16699544 -0.108913496 0.030712051 -0.7635401 0.02506963 0.8598558 0.4035653 0.7366597 0.81041193 0.56707877 0.8717508 -0.46721467 0.698193 -0.03932895 -1.0211124 0.34778455 -0.9174161 -0.6341069 0.07277496 0.8350835 -0.96901995 -0.97019535 -0.76382565 -0.08395336 0.68843055 -0.3476111 -0.8841274 0.63382673 -0.21887295 -0.9617497 0.86357903 0.006886217 -0.124638356 -0.032611247 0.78107256 0.25435868 -0.78855747 0.5369145 -0.9412696 0.50042254 0.9273025 0.2694925 0.90696234 0.20967396 -0.14619647 0.9166157 0.70826256 -0.09671979 -0.020274548 -0.9513207 -0.58439404 -0.6119008 -0.30003023 0.59756196 0.31236783 0.6312812 0.13874917 -1.0772475 0.023139037 0.46284294 -0.18002608 0.7026602 -1.0547949 0.31789696 -0.8116085 -0.18228847 0.43572983 0.6857752 0.6764644 0.80119383 0.42873937 -0.21265288 -0.64185226 0.35809845 0.7109497 0.6110078 -0.86755365 -0.11512313 1.0011295 -0.5294547 0.90112585 -0.3064069 0.31678608 -0.35890397 0.45078745 -0.2834019 0.69218355 0.96035737 -0.3513309 -0.5556083 -1.0459187 0.108812355 -0.8605388 -0.727849 0.7649793 0.3599933 -0.14607602 -0.004510529 0.07753038 0.1941005 0.49692297 0.808038 -0.7930021 -0.046784483 -0.7012296 -0.6783305 -0.1636904 0.13622658 -0.14711484 -0.032806665 -0.00733813 -0.041112546 0.10778322 -0.5187107 1.0262167 0.01827596 0.42972904 0.8684827 -0.66915953 -0.09367467 0.5441216 -0.3493643
-0.34573665 -0.6601646 0.64778256 -0.30114898 0.020963728 0.72183275 -0.15019557 -0.8886006 -0.43557578 0.7300081 -0.048231404 -0.87214506 0.32806924 -0.7176757 0.4412723 -0.32639015 -0.5741976 0.23377194 0.47871444 0.15123731 0.5789208 -0.00493452 0.35621974 -0.89170355 -0.3504834 0.37063336 0.3629463 -0.48661977 -0.54934347 -0.68619823 0.23974337 0.2507102 -0.35669175 0.42823935 0.053857803 0.16299048 -0.13572627 0.48046643 -0.87239385 0.98126525 0.5234364 0.17278697 0.09164252 -0.6470188 0.63378644 0.85323715 0.3501991 -0.5308676 -0.56909686 0.36082414 -0.80795574 0.25316253 -0.9467205 -0.4380458 -0.64829594 0.43360683 0.13917339 -0.7389796 0.06416633 -0.57038605 -0.7654238 0.5368672 0.11815457 -0.4221718 -0.007691234 0.7232698 0.52756697 0.232758 -0.076458335 -0.4779233 0.68542486 -0.75475323 -0.188828 0.046338286 0.52650005 0.61996037 -0.7221018 0.55051535 0.09756192 0.25620997 -0.020952199 0.42917013 -0.38025555 -0.6076101 -0.94754374 -0.9719518 0.59546703 0.1971326 0.72934246 -1.0084634 -0.4694964 0.571271 -1.0225613 0.6014456 -0.24903122 1.0034525 0.6221349 -0.45737448 0.4288545 0.252371 -0.49994436 0.67714894 0.48772982 -0.65034425 -0.3449986 0.17394339 0.5595116 -0.70254064 -0.623764 0.33652815 0.5154752 -0.6622833 -0.7966828 -0.08452664 0.38573033 -0.88283384 -0.95719075 0.8927353 0.86017305 -0.49938354 -0.6527033 0.18226145 -0.8034897 0.1978743 -0.025183728 0.43831947 -0.529996 -0.17210865
-0.4041355 0.78556913 -0.8627902 -0.7925713 0.021832993 0.5966339 0.33338344 0.97804236 -0.6495147 -0.96707016 0.2772182 0.39590454 -0.93701905 -0.94193226 -0.9623671 0.47506675 0.24854156 0.29604822 -0.41591418 -0.4287547 -0.42137036 -0.9780014 -0.7586788 0.17754653 0.8019573 -0.09217627 0.11225991 1.3061687 -0.5948829 0.14953089 0.57229614 0.8873499 -0.45260113 -0.41868538 0.11874088 -0.65412897 0.7764136 -0.6898551 0.85449946 0.32488513 -0.50526077 -0.32190722 0.21857765 0.9752404 -0.99898714 1.0458127 0.78724736 0.36015654 -0.5776244 0.31263778 0.5657182 -0.87158424 -0.5338365 -0.37975478 -0.7250798 0.21081135 0.68697023 -1.16061 -0.049495462 0.118082814 -0.25708708 0.27555618 0.19621624 -0.818987 0.053811643 -0.869842 -0.08215942 -0.66659266 0.5411815 0.3001183 -0.3294897 -0.90025437 -0.52357084 0.14305441 -0.10741777 0.8454082 -0.25399888 0.070212685 -0.2577597 0.40466157 -0.18270901 -0.7455045 -0.75850415 0.8691303 -0.39665848 -0.49771297 -0.018255353 -0.06971645 0.017782573 1.1270179 0.74078894 0.1675577 0.44106272 1.129162 -0.11302762 -0.6374068 0.47416976 -0.0019087072 -0.96535677 0.81185216 -0.18285234 -0.4836052 0.28318048 0.60679317 0.21820119 0.6132327 0.39764658 -0.5697716 -0.5512048 -0.31486136 0.7141576 0.09488401 -1.0575898 0.6936391 -0.12606737 0.08212355 0.2441457 -0.51114184 0.0394949 -0.9221328 0.26369575 -0.5194008 0.075989224 0.5836097 0.37013543 -0.10933215 -0.20101807 0.80477333
0.3557988 -0.46543357 0.016900606 0.60696936 -0.518203 -0.20589949 0.92117363 -0.65704644 -0.9122375 -0.08715247 0.8409773 -0.5774637 0.69281024 -0.85877776 0.17761719 0.18314408 0.41280463 -0.42240196 0.38969395 -0.7110377 0.72215813 -0.27906117 0.53941405 -0.93083036 0.2872518 -0.22605899 0.94995505 -0.0035049918 0.31744584 0.04189168 -0.80274403 -0.12001241 0.32353908 -0.9344098 -0.95114034 0.889971 -0.20116225 -0.24911095 -0.78250766 0.54358274 0.9202964 0.8381919 -0.29726905 -0.08489298 -0.68793243 0.3949521 0.73558396 -0.6063887 -0.41866145 -0.7804624 0.43273613 0.47549033 -0.10482643 -0.6276892 -0.34570518 -0.82721066 0.4471907 0.08135137 0.6498048 0.61926544 -0.98825693 -0.5005231 -0.79328376 0.40345636 -0.5702494 -0.6469076 -0.8935858 -0.5914991 0.22469099 -0.22543228 0.612249 -0.5372023 0.44197375 0.91562897 0.2415691 -0.62713784 0.5905592 0.8843657 0.7410316 -0.15767482 -0.34448805 -0.55876064 -1.0227025 -0.92358464 0.46261144 0.34417003 0.5394586 0.6960392 -0.6624596 -0.6957598 -0.80355144 -0.4302342 0.79140264 -0.5319214 0.5568229 0.33171576 -0.5877516 -0.90106434 -0.74084353 -0.37466326 0.8733825 0.08872909 0.95276755 0.97243893 -0.09995638 0.394065 0.30127308 0.82416826 -1.0451003 0.33003613 -0.6612455 -0.86466515 0.30077764 -0.18733972 -1.0291938 -0.6412471 -0.45193717 0.9497569 0.30247542 -0.2321401 0.04694452 0.13235019 -0.41663107 0.15602933 0.77893466 0.5528871 0.56220675 -0.5370387
-0.005849413 0.011609753 -0.3336754 -0.6038416 -0.33626956 0.61965805 0.13279448 -0.61206645 -0.7456911 -0.7320684 -0.19180705 -0.71810347 -0.601589 -0.12950295 -0.7819169 0.37531897 -0.3242834 0.7665797 -0.57183176 0.7907314 -0.26946068 -0.46891782 -0.14324126 0.34633243 -1.0220435 -0.04827765 -0.3884281 0.67644304 0.032365546 0.1917371 0.23906054 0.38091773 -0.044094346 -0.6179951 0.03426096 -0.15230057 -0.2854274 -1.0035509 -0.301575 -0.52084076 -0.4210167 0.2799047 0.70212525 -0.44919893 -0.8420455 -0.35792854 -0.81466645 -0.8590539 -0.49689946 0.8782129 -0.6410319 -0.6573419 0.6362352 -0.008977917 -1.0354759 -0.67690545 0.87610054 -0.106782906 0.7589436 -0.03508517 -0.9540201 -0.04740123 -0.71859926 0.6758324 0.53816116 0.8735361 0.3524795 0.10839383 0.5073106 -0.45646396 -0.48492694 0.33065808 -0.75648326 0.9273978 0.4929221 -0.020749388 -0.27562898 0.53138137 0.6919856 -0.95513713 -0.43470433 0.044607207 -0.599007 -0.749838 0.6128561 -0.7815064 -0.8672494 0.65242654 1.0016059 -0.37108758 0.5091154 0.05422699 0.796712 -0.42500702 -0.8023035 -0.3821551 0.92273 -0.9386575 -0.68632776 0.46178737 0.9368682 0.44756716 0.5317148 -0.80801266 -0.6069737 -0.4549094 0.9800007 0.2754434 -0.28118291 0.90146863 0.24009556 -0.012531866 0.49691087 -0.46927786 -0.7325751 0.65022314 -0.34819058 -0.42507052 -1.1228356 -0.54950434 0.3778856 -0.13219893 0.4365886 -0.8356536 0.016541233 0.11562136 0.7553818 0.28381652
0.79786354 -0.8922491 0.3653003 0.18370214 -0.6201573 -0.49419925 -0.78537476 -0.44880307 0.26626882 -0.65565366 -0.017282875 -0.53876054 -0.97446924 -0.96012914 -0.19541968 0.5636888 -0.9276202 0.77774125 0.98016506 0.5525629 -0.77411234 0.7391709 -0.41098797 0.76994157 0.2118283 0.42527866 0.706611 0.8918804 -0.8728857 -0.27511925 0.023274785 0.86356467 0.6856759 -1.0007391 0.847033 0.31551462 0.7406306 0.7516438 -0.4774068 0.8276547 0.18870537 0.24749318 0.44570976 -0.7924588 -0.97598195 -0.25739563 -0.23423685 0.23333527 0.789035 -0.281268 0.52365816 -0.18894 0.18820561 -0.39225885 -0.29195857 0.40153006 0.7168127 -0.3103965 0.48735484 -0.9517973 -0.027641345 -0.6691156 -0.50020576 -0.0036617587 0.5454194 -0.44722024 0.17743888 0.28848165 -0.5338196 -0.38151583 -0.37027586 0.7263169 0.14769274 -0.98343474 -0.37477285 0.5095163 -0.8361011 0.025928544 0.49826092 0.27281803 0.70669866 0.93890864 -0.2517909 -0.81298846 -0.9906272 0.3324467 -0.16178581 -0.42183968 -0.11866144 -0.9582643 0.10878337 -0.98193663 0.19447343 -0.06163486 0.32645756 0.49059165 -0.65723664 0.61857724 0.1004733 -0.1985662 -0.1064192 -0.91789764 -0.2931366 -0.78967136 -0.4076352 0.87142116 -0.4530966 0.8423665 -0.7619264 -0.6273923 -0.23678966 0.47219828 0.45583963 0.004437238 -0.13133721 -0.18106264 -0.29885292 0.11378123 0.81643957 0.4041179 0.9201386 -0.8891714 -0.6666937 0.7798718 0.553429 -0.5845428 0.47367194 0.49563935
