0.79662913 -0.7204222 -0.6057401 0.11285856 -0.13184042 0.2682306 0.34175658 0.47739112 -0.28489327 0.13527343 -0.6037648 0.292976 -0.54614085 -0.5456331 -0.252714 -0.20556189 0.48101112 0.31587377 -0.41103914 -0.17288946 -0.9325401 -0.58238184 0.3142541 -0.75128245 0.53515774 -0.72299516 0.5626514 -0.32554224 -0.5505645 -0.8705889 0.67709035 -0.8055395 -0.54288995 -0.99930996 0.5496745 0.71370965 0.93970346 -0.5727261 -0.03696112 0.79291016 0.93268347 -0.17873646 -0.47995326 0.602565 -0.32171386 -0.7823766 -0.11159266 -0.29255283 -0.7553694 0.02600693 -1.033609 0.37005413 0.5010587 0.39702043 0.12015267 0.6541417 -0.31971866 0.633316 0.3218406 -0.8999724 -0.2945204 0.25930777 -0.2585503 -0.9415713 -0.28624704 0.35580954 0.6330807 -0.8329654 -0.71164066 -0.97162205 -0.2120563 0.14352791 -0.806596 0.20175563 -0.8853214 0.67840695 -0.88194346 0.5846797 0.108898476 0.9442723 0.14941604 -0.94508755 -0.8957573 -0.6529677 0.010268296 -0.119094096 1.0342118 -0.5551421 -0.29507634 0.41625798 0.032266766 0.5237728 -0.5679196 0.5012232 0.98476803 -0.051690966 0.68210053 0.034429405 -0.69977117 0.04552254 0.76325846 -0.5500417 -1.0158128 0.25790823 -0.99694484 0.9541829 -0.08446792 0.9462702 -0.9732202 -0.79706705 -0.0028722365 -0.06172141 0.7510209 -0.47361854 -1.1147416 0.8050253 -0.792529 0.5520726 -0.074813865 0.14237726 0.19651459 -0.5964626 -0.13614257 -0.023632588 -0.090435505 -0.26018992 -0.0061740666 0.7433506 0.32583487 -0.88616055 0.9065882 0.8706284 0.7335412 -0.34048885 0.06298227 0.5138447 0.14085166 -0.1485372 -0.6839605 -0.7996237 0.95891035 0.92658424 0.80901676 -0.8314694 -0.5929712 0.6602557 0.072001785 0.8591898 -0.41752905 -0.87188596 0.5355612 -0.6071025 -0.25972596 0.5044764 0.66899306 0.7149508 -0.04202577 0.72833 0.3047823 -0.13479073 0.41869077 0.62064683 -0.7246217 0.34465224 0.66742307 0.5376127 -0.83643806 0.33477074 -0.45134538 -0.22236408 -0.948057 0.22907461 0.13976781 0.09718769 0.29714063 -0.9533114 -0.74839884 -0.43747416 0.69792056 -0.8128567 0.9981997 0.6623879 0.5993161 0.24084826 0.80505747 0.3572193 0.44690728 -0.2708264 0.84742105 -0.404286 -0.10258744 -0.44414017 0.6870289 0.5556548 -0.27272567 -0.38461018 0.7371603 -0.15244505 -0.13934557 -0.17326346 -0.28771898 -0.3959619 0.071996994 -0.7640455 -0.5329866 0.2552722 -0.6751657 0.24960826 -1.0412943 0.36999214 0.30168164 -0.11055562 -0.3838038 0.5036888 0.3681005 -0.608991 0.3747861 0.703254 -0.7485154 -0.33079556 0.16893224 0.05284799 -0.8736228 0.041559383 -0.7294291 -0.04590104 0.4332405 -0.8339979 0.50161713 -0.49904314 -0.08125183 0.08576639 -0.7022122 -0.22105053 0.6570164 -0.6595819 0.9728874 -0.39369658 -0.22975467 0.19451666 0.5577831 0.055629496 -0.8030382 -0.3688763 -0.113043435 0.0028584094 -0.9989726 -0.4881849 -0.0113092465 -0.25737718 0.9109472 -0.67570454 0.48917747 -0.63419366 0.8892067 0.52049124
-0.21613333 -0.2680023 0.3608657 0.59841263 -0.46681377 0.7952183 -0.4821394 0.1929083 -0.6431809 -0.6920202 0.079526596 0.27444875 0.26570147 0.052908275 -0.4073642 0.7558354 0.525097 0.08443823 -0.73257303 -0.34485954 -0.12948614 0.92833424 -0.23449217 0.63620466 0.4775409 -0.4229776 -0.84295547 0.90595984 -0.61298454 -0.38908902 -0.930522 0.52579236 0.5519328 -0.9710242 -0.32728446 0.72561985 0.1508408 -0.82520956 -0.015047565 -0.24177642 -0.4254291 -0.4652141 -0.8611951 0.57374066 0.5577958 0.3704004 -0.4058039 0.6996895 0.28439987 0.15732206 -0.99704254 0.6866867 0.7930507 -0.8149602 -0.8878658 -0.43558386 -0.004644119 0.68434286 0.38965783 -0.9181223 -0.072995365 0.2203719 -0.22217123 -0.2759688 0.6802751 0.78909147 0.06502128 -1.0069757 0.7353665 -0.57737064 -0.7579115 -0.47569093 0.53411335 0.7901514 -0.89692545 -0.42316145 -0.18572044 0.964583 0.68043524 -0.29610777 0.27420962 0.6093465 0.92654234 -0.10394053 0.74777746 -0.869106 -0.6738902 -0.28853157 0.97918606 0.34940913 -0.7613209 0.836328 -0.07022879 0.7886118 0.115291506 -0.642412 0.55847913 -0.30452076 -0.70914274 -0.8693446 0.076149486 0.6385719 -0.5312437 1.0209268 1.00105 0.21000688 -0.29672506 -0.20355508 0.7574451 -0.35017997 -0.7855812 0.33787957 -0.0023490977 0.6657332 0.10884751 -0.2518258 -0.88595533 0.14593254 -0.69909066 0.091935575 -0.8824631 0.6431139 0.8876645 0.66346204 0.73596776 -0.030315062 -0.34372473 -0.6671704 0.8005268 0.3867634 0.48564735 0.7160539 0.28102097 -0.58608186 0.5214123 -0.7624882 -0.21156186 -0.34072763 0.2568714 -0.22917882 0.2235564 -0.50416887 0.8017046 0.05945198 -0.3767239 0.35895148 -0.3479902 0.90148383 -0.56368643 -0.47110236 -0.3769013 -0.0063542956 -0.52646875 -0.6619034 -0.6534511 -0.07585702 0.6760326 -0.43792722 0.6107092 1.0004191 -0.9793951 -1.0967444 -0.78357863 0.62087506 -0.50202435 0.16356768 0.37781096 -0.111486174 -0.28281784 -0.06546972 0.67293555 -0.7069959 0.56323147 0.5233389 -0.7868939 -0.6992594 0.5954643 -0.14793837 0.38905153 0.40885213 -0.39537135 -0.9551243 0.4810101 0.7906361 0.84131706 -0.06165509 0.7385952 -0.28632224 1.0471971 -1.0687379 0.079477556 0.37285382 -0.40217382 0.54121804 -0.37927026 1.0692846 0.42768526 0.37315243 -0.79227215 0.50574934 -0.3971169 0.077370465 0.37831655 -0.8613203 -0.53579414 0.26951653 0.3748617 0.34100148 0.34848332 -0.8221124 0.9420863 0.92026913 0.8492328 0.056991145 0.4167489 0.29271632 -0.30548102 -0.06875974 -0.66515756 0.66993576 0.34094507 0.123310715 -0.24167415 -0.64586693 -0.46725443 0.3826296 0.9714917 0.09956178 0.68168205 -0.91858995 0.9826208 -0.5431242 -0.15475208 0.24675746 -0.6448268 0.111470886 -0.79326326 0.20907272 -0.7783161 0.6028462 0.5298941 -0.983118 -0.6115053 -0.23065957 0.36920583 0.7266692 -0.004313435 -0.65063494 0.5677945 0.5282863 -0.49095607 -0.130339 -0.40463972 -0.83063823 -0.0900214 -0.5946631
0.139733 -0.42583543 0.4481685 -0.7844384 -0.63702315 -0.39204854 -0.6910984 0.9412152 0.21029608 -0.6982902 -0.4066069 0.6029947 -0.94638956 -0.6694036 -0.6388378 -0.2713909 -0.024515508 0.09203246 -0.3559721 -0.8198034 0.013032619 0.0071981507 0.7668503 -0.6274206 0.57330537 0.6284231 -0.6799748 -0.6334615 0.47604 -0.71635216 -0.49076954 0.7067083 0.96453553 -0.47810924 -0.14021571 0.2717394 -0.41569293 0.3590335 0.24896824 0.7587303 -0.55844694 0.660308 -0.84864694 1.0373839 0.21876922 -0.37547734 0.12990473 0.44659683 0.029076016 -0.11099951 0.7326288 0.99598914 0.64296 -0.22818236 -0.39783812 -0.9870393 0.04800625 0.7821004 0.1821014 -0.27236533 -0.8028899 -1.0300761 0.27195922 0.32840532 0.8253171 0.9807587 -0.09613619 0.6706482 0.5257924 0.84127164 0.41463718 0.23371536 0.6864659 0.8340111 -0.36896056 -1.0990062 0.23621872 -0.43398234 0.37229234 -0.0010345754 0.45093444 -0.028237425 -0.7726015 0.24979727 0.53232265 0.7555412 -0.34461632 0.022616617 -0.46450424 0.7742079 0.42697978 -0.3715737 -0.40003213 -0.048835985 -0.30323735 0.8649506 0.2864187 0.5493139 -0.28631917 -0.049572524 -0.5529674 -0.34013748 -0.13927835 -0.13582514 -0.5474663 1.0890813 0.12559249 -0.79779595 -0.3159554 0.43815958 0.8201366 -0.87049454 -0.3017496 0.13173862 -0.6597003 -0.52545625 -0.5990566 -0.6634298 -0.882694 -0.02337135 -0.93648356 -0.4166224 0.6749307 -0.8309878 0.92274815 0.28382954 -0.3565602 -0.04143167 -0.17423408 -0.8886323 0.5233998 -0.525097 -0.37691805 0.2932555 0.6713827 -0.18053058 -0.40812078 -0.5859888 -0.21340884 0.34622383 0.37681493 0.036846157 -0.4206483 0.10814043 0.72510684 0.11245895 0.21012944 -0.46587804 1.0543005 -1.0582908 -0.8531344 0.319774 0.003040698 -0.59417444 0.10107605 0.70069504 -0.16469595 0.8050127 0.48031867 -0.09027367 0.3923754 -0.9326131 0.2903776 -0.611324 0.5380907 0.08345139 -0.1361843 1.0242649 -0.2866865 -0.44293514 -0.36860442 -0.1727343 -0.9297214 0.37996116 -0.6255261 0.9707868 0.948475 0.40258655 0.25948343 0.5789099 -0.021110483 0.6386602 -0.7328411 0.2343373 0.58132 0.8462688 -0.96069354 0.61551714 -0.036662742 0.48232955 -0.5825215 -0.2172141 -1.021927 -0.71991026 0.43262264 0.47909775 -0.33811632 0.5297813 -0.9807046 0.35101342 -0.20468247 -0.775617 -0.34497595 0.34009746 0.6881878 -0.1366614 0.7198195 -0.6991785 -0.9106906 -0.09343589 -0.124572866 0.85732836 0.5309269 -0.22000535 0.2567819 -1.0009649 0.1980827 -0.43111435 0.13451545 0.81724876 -0.13825753 0.4080832 0.686039 -0.18954095 -0.98921114 0.029964624 -0.96582055 0.83868384 0.6600629 0.5597594 0.17718522 0.5056403 -0.16467081 0.41160792 0.20892379 -0.91164774 0.51136243 0.57174873 0.38814643 -0.40333912 0.26627508 0.93335956 0.1479953 0.15614739 -0.4142329 -0.73228514 -0.0094610285 0.95371073 -0.375929 0.9278249 0.08792246 0.23095965 0.46411902 -0.559756 0.9142709 0.619928
0.7130238 0.6353769 -0.7772289 0.95503736 -0.35889322 0.69981784 -0.35354748 -0.3512098 -0.07314567 0.66102314 -0.9358139 0.66917694 0.21238476 -0.3290794 -0.45025328 -0.9230754 -0.9454931 0.8815747 -0.7489259 0.2578991 -0.1608321 0.59035873 -0.3424682 -0.16400108 0.2863621 -0.992356 0.20604268 -0.14030007 -0.66362745 0.7530865 -0.12312256 0.42345867 0.8433338 -0.2623184 -0.92585623 -0.6667073 -0.19866508 -0.49026874 -0.76247746 0.3031087 -0.8432908 -0.21890526 0.19761404 -0.2918089 0.50383097 -0.033055235 -0.48333633 0.013103109 0.8401464 -0.9670154 -0.32467967 0.99502295 -0.7990063 0.10556752 -1.0692501 -0.60119003 -0.75497794 -0.75695 0.38333425 -0.30280507 -0.6631046 0.66933864 -0.65840435 0.99975955 0.2554072 -0.7405772 0.19152704 0.2819179 -0.6101061 0.5262333 0.98691535 -0.32087687 -0.28415924 -1.0224121 0.89467406 0.047348153 0.048992887 -0.063053414 0.0064150393 0.9586105 0.27400276 -0.69534355 0.08116745 -0.8951111 -0.33153397 0.8830963 0.86431783 -0.6952447 0.03252007 -0.7046424 0.36330318 0.53058106 -0.6296687 -0.9747221 -0.9338421 0.9364091 -0.15067677 -0.12875904 0.6276936 0.15757997 -0.023098052 -0.716095 0.018031023 0.16005705 0.09867395 -0.85427094 0.56797415 0.2604153 0.3218679 0.40567055 -0.5736692 -0.38732225 -0.57140166 -0.12382481 -0.76964295 -0.19308957 0.48401502 -0.024198085 -0.69402 0.44430014 0.46939895 -1.0661443 0.75533223 0.17079417 -0.1660146 0.16645204 -0.7554304 -0.36475214 -0.2821202 0.23332016 -0.31430522 -0.21373563 -0.46958748 -0.1255411 -0.21444204 0.020303167 0.8782113 0.10439216 0.78522027 -0.4338321 -0.15116692 0.1509468 -0.8715425 0.43572295 0.8017215 -0.76594734 -0.4207038 0.87662965 0.7626367 -0.623939 -0.23602043 -0.35874122 0.7709335 0.33296567 -0.74648744 0.18519764 0.74650455 0.41589823 -0.12574859 0.24638098 0.2595684 0.06498774 -0.5651447 0.025025634 0.75166136 0.53553665 -0.57033 -0.8522394 -0.48303026 -0.65386367 0.0936124 -0.7993335 -0.207569 -0.3463885 0.5304919 -0.9349297 -0.8978552 0.97052956 -0.9784493 -0.27870426 0.83524954 0.34293962 0.13265555 0.28559524 -0.76117605 -0.7015555 0.4252803 0.007778221 0.8157836 -0.44742498 0.8702251 0.7670191 0.46199372 0.22505908 0.7514864 -0.5508949 0.68358845 -0.65103257 0.56064487 0.6154903 0.23369168 -1.0008085 -0.66495943 0.6871704 -0.53127253 0.05510827 0.7714493 -0.4282398 0.46483222 0.7729492 0.10072725 0.825505 -0.2982724 -0.46691772 0.40175247 -0.3366042 0.9333277 0.96528965 0.9648076 -0.6049454 -0.153987 0.8493592 0.9683509 -0.011614449 -0.10327262 0.76183474 -0.121989876 -0.26702228 -0.20901178 0.69615024 0.059386786 -0.8763373 0.23352924 -0.43762764 -0.37333885 0.6994025 -0.5210139 -0.57132125 -0.80250263 0.057988476 -0.6399905 -0.8809308 -1.0380563 0.9195471 -0.38683164 0.52675444 0.20255405 0.4422016 0.47774753 -0.2839963 0.39023623 0.058107067 0.8532159 0.9056988 0.09079682 0.7745027
0.3697676 0.17778417 0.72579354 -0.94961095 -0.49337748 0.2443343 -1.0038522 0.26687452 0.91648966 0.72259134 0.7627198 -0.08433373 0.684176 0.45427176 -0.50718206 0.7442377 -0.59595275 0.49662742 -0.82962567 0.61098164 -0.33694407 -0.23011288 -0.883376 0.5623857 0.330287 -0.31446588 0.7575619 0.7181955 -1.0145497 -0.9388337 0.9063428 0.9218579 0.58969706 0.21844566 -0.54393804 0.7189001 0.19516243 0.38809183 0.6931348 0.77277905 -0.34455666 -0.74590564 0.7357515 0.33161855 -0.29242614 -0.81707394 0.8361881 -0.26773876 -0.7686139 -0.59067076 0.15170415 0.83445626 0.38362122 0.5860407 0.1680023 0.72471833 0.2550898 0.8420843 -0.108038805 -0.19182244 0.27419168 -0.12184293 0.28499684 -0.7442949 -0.754428 -0.20524445 -0.9778301 0.65771717 0.0033352124 -0.7076563 0.28505063 -0.6931445 -0.24884127 -0.28740028 0.29202053 0.6898454 -0.9047466 -0.78235686 0.86386496 0.8374769 -0.15480915 -0.66399217 0.8908609 -0.45078713 0.3444916 -0.3024606 -0.4043547 0.8012843 -0.4602797 0.34269553 -0.23285088 0.7724889 -0.68874156 0.8588159 -0.03628744 0.03129783 0.33972743 -0.94725937 0.808654 -0.018954791 0.5166477 0.74253106 -0.6836455 0.3772004 -0.84544605 0.39511532 -0.49623555 0.88050693 0.7245906 0.9836453 0.5236459 0.8914529 0.08368227 0.74399644 0.5432422 0.42616197 0.47136563 -0.55439687 0.73757017 -0.35624823 0.4640283 0.7048638 0.70399386 -0.122390196 -0.24354401 -0.7958372 0.65358853 0.33501956 -0.22605999 -0.040811274 0.85140306 -0.6959352 0.22847 -0.66531 0.6017747 -0.780591 -0.13701887 -0.41233194 -0.7884084 -0.6740143 -0.2982053 -0.72364706 0.53785044 0.51802343 0.36765513 -0.1132014 0.57810885 -0.5372316 -0.7867243 0.664462 -0.035687864 0.83610505 0.26481965 -0.6264184 -0.5590549 0.37304363 0.7779377 0.25238442 0.2846494 0.31099892 -0.23067573 -0.90206283 0.1891213 -0.16694582 -0.4975846 -0.0077018486 0.3724003 0.6440845 -0.80268174 -0.84903514 -0.05368086 0.050978057 -0.71882 -0.69843096 0.7400891 -0.81866944 0.545161 0.2425572 0.61027396 0.71414876 -0.93841857 0.30055213 -0.8695694 -0.27542308 0.5977136 -0.55787426 -0.8768773 0.5382664 -0.510771 0.6022701 0.29702175 0.07084364 0.389018 0.9817476 -0.61639035 1.035623 -0.6596255 -0.0335289 -0.5937696 0.6523771 0.45327452 0.5238155 0.289674 -0.6192705 -0.0015550815 0.02677537 0.1307675 0.3576478 -0.6497197 -0.62929094 -0.5560359 -0.71468705 0.7205529 0.57873386 0.7832738 -0.09796814 0.8432059 -0.95852655 -0.6076387 -0.34425595 -0.092546366 -0.59648114 0.12857793 -0.09472496 -0.885492 0.86839473 0.38948908 0.8322808 -0.3125841 -0.18775547 -0.41489443 -0.6613141 -0.6097813 -0.17617469 0.07811056 0.14245105 -0.36830422 0.5467095 -0.46492895 -0.37969503 -0.22482151 -0.8199664 0.27891853 -0.4872932 0.7764866 0.12317631 -0.2618605 -0.07595484 0.037915807 0.44915015 -0.34712377 -0.9177274 -0.89118695 -0.24010064 -0.3671801 -0.43567958
-0.88501793 -0.6813739 -0.18506834 0.8044113 0.09687607 0.15925276 0.45980504 -0.7707038 -0.8160729 0.4960763 -0.31105673 0.81517994 0.06949046 0.2678213 0.7817872 -0.43184584 -0.58911395 -0.9546929 0.091370925 -0.06753303 0.06290599 -0.28145865 -0.5764434 -0.7947356 -0.6687609 0.90995294 -0.990685 -0.07736838 -0.4392804 -0.7872372 -0.9125753 0.72079885 -0.070044376 -0.72256273 0.32709196 -0.8249725 0.3795129 -0.7909251 0.55086696 0.37914753 0.29327473 -0.14437237 -0.8391189 0.92565465 -0.39174837 0.63280463 -0.8217603 -0.45488265 -0.7771211 0.36241052 -0.80547535 -0.09836837 -0.30745903 -0.55335474 0.8299524 -0.38488504 0.005619466 0.28406537 -0.52826196 -0.5865078 -0.14695615 0.99221647 -0.11665088 0.109115064 0.3564005 0.66581273 0.15558141 0.5603503 -0.6571531 0.5214854 -0.418447 0.9825761 0.3243535 0.29521528 -0.045771997 0.7274281 -0.34756187 0.9507849 1.0300335 -0.07733877 -0.10940143 -0.81405705 0.4175367 -0.3268909 0.038475346 0.5891459 0.3640495 -0.4613193 -0.56682205 0.2387062 0.93989706 -0.05289724 0.06336966 -0.9163998 -0.640277 -0.9493179 0.7389829 -0.81023115 -0.8092048 -0.7084304 0.09684346 0.07479605 -0.01610882 -0.15129842 0.5481581 0.07503364 -0.20391901 -0.046498787 -0.69928634 0.26451248 -0.2534852 0.84339774 0.41653568 0.7478904 -0.2603877 0.9700243 -0.44897693 0.6520146 -0.35501978 0.026186513 -0.46267837 0.40982872 -0.39031702 -0.7454427 -0.15738924 0.2746268 0.33136335 -0.7951589 0.3471135 -0.9760632 -0.8584551 -0.096543826 -0.5225938 -0.4415648 -0.26936343 -0.20688729 0.087645836 -0.19732386 -0.99711156 0.5232578 -0.8990874 0.8616034 0.56264096 0.04514428 -0.49861085 0.94379246 -0.010423639 0.36989072 0.6132441 -1.0008961 -0.026015015 -0.21441086 0.9018453 0.07493752 -0.9257645 0.3609961 -0.94324166 -0.56597346 0.16817385 -0.24537912 0.21494302 0.1570986 0.08149898 0.23926109 0.44722265 0.23823394 -0.8624333 0.32883805 0.9556733 0.515128 0.98146445 0.5838111 0.9894795 -0.53865194 -0.26665777 0.6932554 0.29307544 -0.34800905 0.16091685 -0.037711326 0.802427 -0.50989693 0.34099337 0.66622305 0.055660922 -0.6338137 0.058732226 -0.33931652 -0.38436684 -0.6734359 -0.07460686 -0.34870768 0.45088926 0.86507374 0.21149018 0.96165824 -0.6866537 -0.06513981 0.16186222 -0.74331164 -0.775931 -0.48105764 0.48414415 0.5446613 -0.3244827 -0.5201946 -0.34510335 -0.861728 0.60968703 0.7880356 -0.34294093 -0.7179263 0.97086126 0.45372224 0.09162453 0.89504343 0.96946466 -0.45392895 -0.474607 -0.31429332 0.97798353 -0.3438781 0.30793315 0.8224247 0.65403056 0.75659734 -0.9550262 0.2360872 0.49280393 1.0054908 -0.60736483 -0.5727681 -0.057088424 0.842428 -0.24995041 -0.16588916 0.8209216 -0.08907956 -0.89514166 0.3464256 -0.5440273 0.862659 0.99142414 -0.97256035 0.32824442 -0.60517836 0.6895582 0.3307608 -0.92495215 -0.83354264 0.14102782 -0.3708672 -0.19902164 0.3590842 0.21306674 0.03592092
-0.27140066 -0.5613281 -0.7874158 -0.10686655 -0.68251795 -0.43113723 -0.89295727 0.37954107 0.16631512 -0.67593116 0.9960101 -0.8756071 -0.5371864 -0.67730665 0.6257966 -0.097495146 -0.6496683 -0.6327396 0.083910495 0.030979197 -0.2931474 -0.6728523 0.73054564 0.61794037 0.5155724 -0.19164798 -0.68549585 -0.61596406 0.2698367 -0.09979811 -0.010284623 -0.49462822 0.34286028 -0.095975615 0.7740323 -0.021097906 0.9635329 0.5799335 0.07407411 -0.5781622 0.69963783 0.9673868 0.26916185 -0.070300564 -0.8452427 -0.94172096 -0.2837323 0.6668355 -0.23931259 -0.6393633 -0.07820237 -0.25404474 0.62108755 -0.7405802 0.85586137 -0.58686095 -0.21204938 0.56372195 0.07288452 -0.46423256 -0.19369379 -0.048997577 0.33146188 -0.20780973 -0.3454398 0.82554513 -0.09998871 0.12141866 -0.2164177 0.6222533 -0.77396435 -0.85806733 0.1080255 0.6695252 0.79532367 -0.24806786 -0.14608996 0.93299156 -0.8978209 -0.2757883 0.18176101 -0.41080105 0.20095225 0.2676122 0.008593453 1.02092 -0.60443926 0.8444026 0.5723375 -0.06187812 -0.67968553 0.14333545 0.22014531 -0.11159675 -0.32579154 -0.56301254 0.17736751 -0.34065968 0.9053514 -0.5380225 -0.47231206 -0.3072517 -0.9834613 0.5650112 -0.8613291 0.9940851 -0.85834724 -0.3350467 -0.6801554 -0.29433486 0.21274616 0.13564627 0.36327317 -0.8798515 -0.50141466 -0.76478714 -0.053212516 0.23879829 -0.63750935 0.7279334 0.94456697 0.63474894 0.053814325 0.16025206 0.17825307 -0.65883034 -0.34603566 0.9337115 -0.24477589 -0.85235965 -0.2446067 0.8794041 0.627648 -0.27926245 -0.7399925 -0.29607588 1.0012318 0.42736194 -0.5749832 0.98226035 0.81030184 -0.95111024 0.42813283 -0.5468874 -0.31037575 -0.19764736 0.69298303 0.27764404 0.3864321 0.3240295 -0.21827453 0.2798247 -0.012710263 0.043620605 0.00894909 -0.4953928 -0.19710933 0.697949 -0.7294371 0.52777326 0.7405638 0.8688041 -0.3422295 -0.13190134 0.29606056 0.21512851 -0.3888779 0.7855663 -0.356759 0.7676014 -0.39748684 0.27421242 -0.56217533 -0.46499565 -0.6608594 0.10598246 0.5732101 -0.25535992 -0.30337176 -0.5260954 0.07028663 -1.029045 0.28460363 -0.2061443 -0.75769866 0.8779691 -0.24715059 -0.018473161 -1.0674672 0.607736 0.4875006 -0.3032686 0.42217457 -0.2881381 0.8184727 -0.099389315 -1.0278401 0.013329598 0.85669464 -0.384684 -0.6082648 -0.027022924 0.5170609 0.021986958 0.87881815 -0.37612435 0.94679487 -0.6499569 -0.365389 0.63255066 -0.5340478 0.9036481 -0.4104955 0.31241825 0.043786015 -0.54453206 -0.4422891 -0.6592979 0.45650902 0.20433444 0.8723895 -0.729402 -0.09452332 1.0399173 -0.94779694 0.3987464 0.2914249 0.38411197 -0.6417737 -0.59510136 -0.7802753 -0.48163432 -0.6597544 -0.9618349 0.70490307 0.07745639 -0.0022910703 0.035896838 -0.8231133 -0.27164266 -0.661694 -0.571029 -0.51291966 0.15469368 -0.028298011 -0.28237632 0.54325646 0.34623048 0.641631 0.8025632 0.2363703 -0.22895849 -0.8249165 -1.0390452 -0.33782324 -0.5821048
-0.66857684 0.59892225 -0.7009584 0.25453934 0.06706745 -0.70867676 -0.50759387 0.51029 0.86678725 -0.8263884 0.46383002 0.75903374 0.9880995 -0.84781766 0.40303782 0.21054706 0.8605626 0.19183485 -0.22179388 -0.20045143 1.0106325 0.07729787 -0.40332857 1.0181484 -0.33425537 0.7850024 0.95985484 0.39789677 -0.25638112 -0.041360594 -0.8299633 0.27373984 -0.017185314 0.086404644 0.7110271 -0.81804395 -0.4039078 0.91307807 0.13425231 -0.23490219 -0.7542628 1.0036191 -0.1878922 -0.41773596 -0.15618715 -0.9360384 -0.39696777 -0.4941517 0.21406248 -0.50132126 -0.0543778 -0.9555546 -0.8968139 0.46887845 -0.6907276 -0.88809395 0.93739444 -0.6186 -0.6561726 -0.799196 -0.8955658 -0.77493566 0.4861635 -0.12207558 -0.25531417 -0.7043235 -0.22814547 -0.9548321 0.9516647 0.7007404 -1.0621511 -0.1699855 -0.41271153 -0.24114811 -0.83403885 0.5874946 -0.32895136 0.99579775 -0.5343559 -0.81342226 -0.78292423 -0.3272803 0.9505768 0.23944756 -0.33744043 0.43567425 0.9251863 -0.5831701 0.03292839 0.86865103 -0.86167234 0.5182977 -0.04706474 0.7951006 -0.4413029 0.6903946 0.033427037 -0.68787307 -0.43643588 0.08469036 0.48055732 -0.25608897 0.8349515 0.45128193 -0.09607103 -0.70662266 -0.7095514 -0.57753867 -0.3725469 0.6730699 0.34448463 -0.30371588 -0.90935266 -0.53125966 -0.5862653 0.792636 -0.68132746 0.21560498 0.3921941 -0.108656384 0.09348464 -0.24675865 -0.87270075 0.92342174 -0.8142321 -0.7377338 -0.20234796 -0.49619153 0.7681677 0.080204956 0.017164044 0.111101195 0.9033746 0.10931277 0.09389439 0.29605412 -0.67377305 -0.35695243 0.9009149 0.78010696 0.37140962 0.60099417 -0.7243173 -0.22210106 -0.9268188 -0.069785215 -0.5467374 0.9811311 0.066478595 -0.9430982 -0.88122404 -0.6807828 -0.7045688 0.57848716 -0.7865821 -0.36931822 0.7215099 -0.48455724 -0.40620753 -0.8202385 -0.2500064 -0.8751042 0.3553465 -0.49954867 -0.16446361 -0.17652847 -0.38353214 0.75204754 0.1186158 0.032491706 0.63323784 -0.31972507 -0.63480777 0.3474758 0.7432571 0.65989655 -0.099660136 -0.45582262 0.74086845 -0.7030305 -0.6138247 -0.06266006 -0.6389504 0.9176747 -0.56079924 0.32451048 0.7036204 -0.2980445 -0.18784986 -0.05853566 -0.53715664 0.46815163 -0.7525794 0.6441518 0.22845261 0.74162537 -0.27243054 0.55685335 -0.7296325 -0.69285804 0.49821368 -0.7658191 0.40515488 -0.07583781 -0.23600835 -0.28165346 -0.50472087 0.6988755 0.5779626 -0.6359577 0.54258615 0.63911146 -0.5990436 -0.6572634 -0.35557476 -0.2833259 -0.72130436 0.21266717 -0.53890723 0.96065396 -0.40604895 -0.84285295 0.15429147 0.31838968 -0.6099784 -0.2674094 -0.06386011 -0.5359884 0.15449198 -0.30805603 0.054168705 -0.08622052 0.4865829 -0.16435975 -0.8468024 -0.39245018 0.18625648 0.47904164 -0.60805446 -0.5364278 0.30334437 0.79893726 0.9110357 0.7327934 0.08138479 0.8175366 -0.13646773 0.41686997 -0.27940923 0.29963586 -0.31716663 -0.560894 -0.74887305 0.43292254 0.7620232 0.020054745
0.61473703 -0.545745 -0.14762405 -0.24946843 0.35922393 0.66951776 -0.8641682 -0.283624 0.23649888 -0.693375 0.013501257 0.11969267 -0.17218237 0.60247123 -0.8782981 0.59720564 0.5449407 0.61486626 -1.0580205 -0.5010943 -0.8247267 -0.27791175 -0.74900204 -0.6601748 -0.83842343 -0.6808118 0.17940855 -0.83455247 0.90551144 -0.8545011 0.537104 -0.25495252 0.5078433 0.71325976 -0.0067414963 0.6025736 -0.4007107 0.8811194 0.19298388 0.44438288 0.86848176 -0.1891328 0.15843709 0.6257927 -0.7979105 0.17845964 0.5342186 -1.0208424 -0.5016898 0.8474839 0.067784876 0.56487775 0.21618375 -0.36285186 0.8540854 -0.8047868 -0.5951499 0.5942999 0.16755821 -0.28177214 -0.505558 -0.5147709 0.22697133 -0.09514458 0.8701967 0.13645038 0.18853895 0.4409831 -0.0730847 -0.81423855 0.9161624 0.14368 -0.7991158 -0.24622785 -0.23990838 0.53430843 -0.18507321 -0.67961687 0.8957812 -0.051494878 0.41856766 0.8755292 0.6606392 -0.59714925 -0.104293756 -0.19345567 0.73749584 -0.34755573 0.9371874 0.848945 -0.17680755 -0.60966754 0.6735303 -0.56238383 -0.097417206 0.29965442 0.5749675 0.12427045 -0.9898523 -0.18176372 1.0499823 0.24940936 0.18943717 -0.42796385 -0.12687148 -0.0013270637 0.31915522 0.8214912 0.6861229 -0.010280299 4.4854608E-4 0.5859979 -0.2749198 -0.81179917 0.12632817 0.591708 0.2558986 0.87048495 0.091135904 0.12207389 0.95369107 -0.8771271 0.7827839 0.7675329 0.84172803 0.9691145 0.3371806 0.9550276 -0.008660891 0.80342776 0.041625585 -0.2305661 -0.058112994 -0.4528639 0.40994853 -0.7100295 -0.6209153 0.445921 0.6992522 -0.3584822 -0.34816095 0.6892996 -0.3191121 -0.33050805 -0.20366487 0.28088924 0.0065886406 -0.5235354 0.39687958 0.21144745 0.53022325 -0.40715322 -0.54816604 0.44348207 -0.22627503 0.83141315 -0.8636933 0.7873728 0.9172544 -0.89407706 0.44662634 -0.3888331 0.86437094 -0.587717 -0.5726948 0.61052436 0.9040088 0.620217 -0.2599938 -0.08772541 0.88315445 0.20098533 -0.4116782 0.04153748 0.7197782 -0.60726506 0.20004083 0.6289512 0.35479206 0.06590819 0.6525702 -0.34864414 -0.5494168 -1.0013301 -0.282063 -1.1399914 -0.14330186 -0.17276786 -0.8666365 -0.5592017 -0.34020758 0.9373626 -0.4760771 0.82299536 0.8003391 0.7566281 -0.9650685 -0.9078933 -0.06379261 -0.95496637 -0.3213185 -0.50468713 -0.031173062 -0.3669077 -0.4690565 -0.5764921 0.8767844 -0.78926134 -0.9193009 -0.703546 0.006256935 0.76721305 -0.39538884 0.21706977 -0.26339108 -0.17957413 -0.56603783 0.2359657 0.97834355 0.69634205 -0.22669305 -0.91770416 0.5368975 0.17968793 0.6932156 -0.30039737 0.26566997 -0.088092364 -0.8070653 -0.05398924 0.13277635 -0.24145277 -0.18727121 0.38981837 0.72241193 0.6522586 0.93047076 0.7573212 -0.21289751 -1.0477333 -0.5667125 0.018479083 -0.79501253 -0.82991934 -0.9885989 -0.17770746 0.73468804 -0.037016753 0.34358191 0.22190335 -0.28776228 0.68040544 0.37919074 -0.08828163 -0.18070686 -0.7763244
-0.71736646 0.81522423 -0.17626388 0.9099592 -0.8470294 -0.13434766 -0.8087985 0.59109277 -0.12057649 -0.46670654 0.7782187 0.78918827 -0.6137969 -0.017733097 -0.023075035 -0.91999334 0.24436183 0.8843711 0.43734232 0.12059906 0.8967259 -0.37281644 0.60841936 0.46311742 -0.99207526 -0.07485418 0.91591096 -0.12961984 -0.48884365 -0.08873119 0.28857836 -1.0019579 -0.770752 0.21083774 -0.23129836 -0.12537742 0.9183308 0.44583625 -0.4189249 0.59178954 -0.18287563 0.9893845 0.324855 -0.7274252 -0.8856139 -0.3562343 0.3278164 0.9001891 0.2052122 -0.9164834 -0.80419576 -0.18875971 0.5591144 0.7773162 0.06264622 0.04578264 -0.47051102 -0.6806118 0.889687 -0.2189076 0.91816753 -0.90872806 0.39133942 0.83080995 -0.22417754 0.7002592 -0.8371279 0.69835126 -0.2473262 0.16767147 0.7668456 0.17334117 -0.080673695 -0.3774952 0.90566045 -0.5408315 0.24372284 0.7502106 -0.031816777 -0.92154264 -0.9631039 -0.80415463 0.6145177 0.75692654 -0.8255622 0.28931254 0.3488313 0.058807943 0.48804528 -0.5288335 -0.43144795 0.41898617 0.5497635 0.5277466 -0.13402611 -0.63087523 -0.6309561 -0.18334213 0.52222115 -0.88969153 0.24419606 0.564459 0.75370175 0.86026937 0.34572574 -0.37936366 -0.18356039 -0.43705666 -0.83765644 -0.3152122 -0.43226284 -0.5419232 -0.04784615 0.28315878 0.08992496 0.91199225 -0.8849602 0.6798416 0.58467263 -0.19639467 0.018399123 -0.4598549 -0.36733878 -0.2991588 -0.25564638 -0.6429823 0.7795184 0.38229293 0.33408135 -0.05440517 0.69411325 -0.8491956 0.017399015 0.06862563 -0.31439257 -0.27841324 1.0034885 -0.45710775 -0.8597484 -0.17926036 -0.46095046 -0.3360895 -0.445364 -0.61148757 0.9669234 -0.4122112 -0.4909309 -0.11639776 0.093248054 0.86755157 -0.9153361 0.9879051 0.96105635 -0.14614515 -0.2991835 -0.9748803 -0.3354393 -0.8017612 -0.037868273 -0.9730012 -0.13329673 -0.14801629 0.7523761 -0.7433954 0.8435717 0.25525758 0.93434244 0.454047 -0.2925654 0.4582495 -0.54661715 0.5102466 -0.42068017 0.8760957 0.4107071 0.35411742 0.3535715 0.85967124 -0.31997696 0.702424 0.5839095 -0.62014526 -0.31480286 0.67910224 -0.3307434 -0.06726741 -0.40385845 0.9056863 0.7576437 0.7755291 -0.6033475 -0.05234172 -0.48449636 0.66108 -0.9744646 -0.46013463 0.64955366 -0.24723549 -0.8558817 -0.6678466 -0.109684736 0.23018542 0.4867255 -0.79292774 0.5193465 0.60207796 -0.84923965 0.39935115 0.40588486 -0.8131363 -0.8709365 -0.3087895 0.7732164 -0.9317226 0.34306642 -0.22359876 0.4666207 0.65376943 -0.34924558 0.8455199 0.5197553 -0.5503968 -0.46755084 -0.03083303 -0.51128626 -0.6755941 -0.063247 -0.7614147 -0.24346386 -0.9666959 0.5421786 -0.34644437 -0.43405458 0.84908384 0.5616898 0.19478983 -0.082402796 0.4600943 0.4738774 0.6573615 0.4315557 -0.010750867 -0.40838638 -0.5123622 0.41038364 0.3763477 -0.36271742 0.14992133 -0.13092342 0.7512695 -0.38747352 0.15612254 -0.37404525 0.63185745 -0.6797398 -0.40343097
0.1447841 0.78203183 -0.049646925 0.004416519 -0.20466632 0.5312895 -0.40874705 0.9028866 -0.35863778 -0.44335306 0.29030663 0.9113633 0.48857793 -0.3587436 -0.03236627 0.43471193 -0.76295143 -0.62739 0.7063272 -0.4929916 -0.68740594 -0.5684048 0.83887297 0.73553306 0.008893896 -0.27075377 0.076354705 0.1622329 -0.17596751 -0.6767622 0.7086115 -0.21814424 0.65671116 0.97634566 0.4396655 -0.38777485 0.17494123 -0.12766318 0.56999165 -0.89300096 -0.41177115 -0.5075407 0.77030605 0.006937966 0.26368424 -0.26442134 -0.7178112 0.6687358 0.9708921 -0.3752593 1.0081146 0.5093264 0.8242422 -0.7192727 0.4777548 0.9613176 -0.9419771 -0.6295792 -0.46490785 -0.55884117 0.75552833 0.08080059 0.2260874 0.4933442 0.6009697 0.9767572 -0.48593694 0.9237415 0.5236658 -0.4054614 -0.7021184 -0.031169824 -0.5747109 0.78237176 0.40776315 -0.20333491 0.26943985 0.22656302 0.92134786 0.90805304 -0.6544637 -0.8113036 -0.2907288 0.4832296 0.17379852 -0.69442564 0.42589644 0.345733 -0.15375903 -0.6206501 0.8833775 -0.67161864 0.14202707 0.73836356 0.17911743 -0.3603682 -0.9082775 0.3780531 -0.54420114 0.52771676 -0.021077683 -0.17758079 -0.6056653 -0.9736662 0.86530083 -0.27074492 0.6856737 -0.06364855 0.22720042 -0.8449775 0.69043803 -0.46538174 0.9078125 -0.19483268 0.5170308 -0.34130627 -0.93460935 0.373885 0.759771 -0.34524897 0.70981115 -0.8386975 -0.08321855 0.15344788 -0.34165567 0.047534637 -0.8473453 0.89866143 -0.31667235 -0.42455974 -0.33285347 -0.41665912 0.95526916 -0.29909256 0.19279844 -0.0042635268 -0.30569372 0.2914635 -0.38822022 1.0111353 -0.6367387 -0.9087359 -0.94847083 0.66673553 0.084077425 0.54476017 -0.9447675 0.5146334 -0.12872003 -0.68657583 -0.08408554 0.8962111 0.6421123 0.8951187 -0.5794942 -0.14587878 -0.06828607 -1.0321131 0.1159541 0.34348187 0.93501335 0.48661327 0.9878751 -0.5811959 -0.8615131 -0.09863696 0.5014974 0.24856307 0.87301075 1.0886878 -0.6609598 0.22098315 -0.28731945 0.44138563 0.4805829 0.22804137 0.79978806 1.0571266 -0.20283498 -0.8378246 0.050837245 -0.9047489 0.87102485 -0.055982612 1.019652 -0.6057375 0.52106863 -0.8864811 0.83030015 -0.860578 -0.28717014 -0.27181944 -0.6026595 -0.49707496 -0.5371915 -0.7496786 0.57504064 0.5313955 -0.042293947 -0.8227076 0.18120082 0.2952813 0.07681601 0.33494863 -0.045802176 -0.28052303 0.4844065 0.33400354 -0.11805289 0.42934722 -0.06984027 -0.71572465 0.05480207 -0.076536015 0.95619863 0.23424065 -0.97914195 -0.92432415 0.5016335 2.5994025E-4 -0.17957658 -0.2817733 0.44919023 0.4661026 -0.63698596 -0.94621694 0.91557366 -0.5009969 -0.9038768 -0.15174384 -0.54543835 0.7242302 0.1555913 -0.021717446 -0.7044155 -0.91723454 -0.660932 0.4271569 0.15292124 -0.8218746 0.07408613 0.08229868 -0.5848683 -0.4100403 0.40728697 -0.8649435 0.7576532 -0.70003915 0.7287922 0.95615196 -0.045136884 -0.80652225 -0.6057339 -0.94577926 -0.22073385 -0.6761008
-0.90139925 0.07879399 -0.355654 0.9258184 -0.87242955 -0.14861669 0.94567925 0.8300971 -0.8238201 0.18108705 -0.31048846 -0.91768557 -0.50425327 -0.7871916 -0.43896925 -0.5833171 0.10606616 -0.20104143 -0.34664822 0.28570065 -0.96814954 0.18801591 0.48713446 -0.65207154 0.35206267 -0.036810152 0.6736749 -0.8813371 0.44678122 -0.7013598 -0.60715586 -0.8027401 -0.333939 0.7212793 -0.8453382 0.4165059 0.628226 0.43893734 0.8474624 0.25361302 0.9277368 -0.081728905 -0.1254388 -0.41684428 0.32019842 -0.058167007 0.72021145 0.042198833 -0.35440934 0.93801415 0.7493904 -0.5279326 -0.5641617 0.79815817 0.3181863 0.6080349 0.5237146 0.13026646 0.40290248 0.42663166 -0.30460396 -0.36540738 -0.39466882 -0.86842555 0.53478795 -0.6210453 0.3259433 0.40546748 0.7826587 -0.15910307 -0.6341853 -0.6412002 -0.9650088 -0.5851991 0.9432301 0.8005682 -0.308531 0.50810915 -0.10335311 -0.951897 -0.7704684 -0.23022045 0.44048917 0.6042529 0.070660524 0.98110634 -0.8989964 0.16769898 0.040134866 0.19413485 -0.8842333 -0.69033086 -0.4375926 -0.40500042 0.39920163 0.026769996 -0.77390206 0.109233856 0.72811276 0.67453414 -0.8760117 0.5637539 0.016259594 -0.2818512 -0.39160776 0.3401256 0.6893241 -0.80372983 0.57646286 0.052184273 -0.009820408 0.53971153 -0.9892169 0.073479295 -0.9368421 0.48415774 0.88298947 0.02862401 -0.1263578 -0.53067994 0.62805015 -0.34759995 0.4047719 -0.3873105 0.60256433 0.7082513 -0.6192686 -0.92158335 -0.80149484 0.47286537 -0.7402221 -0.49162188 -0.2717597 -0.5630021 -0.26190034 -0.13368054 0.41548458 0.24095266 0.83633155 0.82751346 0.73757535 0.02908667 0.093477555 0.053691063 -1.0486566 0.8711684 0.42158324 0.01830004 0.9635618 0.8356463 -0.2868203 0.9024077 -0.11247746 0.24188702 0.08909827 -0.94038194 0.27207765 -0.0409298 -0.63893783 -0.5702413 0.037836555 -0.8169613 0.059796292 -1.0029714 0.9002743 -0.37897292 0.9713543 -0.6364743 0.81647724 0.22673692 -0.14108045 0.46228474 0.14914401 -0.46500465 -0.023689678 -0.50926995 0.37426728 0.7099813 -0.7124043 0.78014565 0.9818205 0.55789083 -0.8712084 0.031538025 -0.13746452 0.25252035 -0.09200569 -0.06063167 -0.63792104 0.45783573 0.40035746 0.39810395 0.06272752 0.83891404 0.68235004 0.047314644 0.8480954 0.16463274 0.82704455 -0.4922818 -0.09003694 -0.22123198 -0.76601076 0.376023 0.4327678 0.12785143 0.2195638 0.1393621 0.7654963 -0.02799481 -0.074443184 -0.86866 -0.8118568 0.09983355 0.0539743 -0.49168468 0.3047915 0.30556256 0.3448314 -0.16578768 0.013986583 -0.32802337 -0.17636083 -0.34823525 -0.8833407 0.3089055 0.5295929 0.5200648 -0.98295933 -0.5639184 -0.31801468 0.95570076 -0.6139104 -0.5627261 -0.8158509 0.45340934 9.7214135E-5 -0.7489639 -0.51319265 0.7238352 -0.4426442 1.0207739 0.1144131 0.27505508 -0.15122001 -0.24039534 -0.39138278 0.8921864 0.94199663 0.00756033 -0.97410095 0.6761773 0.31255072 -0.297719 0.11363378 0.7307162
-0.5927984 -0.36015218 0.20906185 0.56841624 0.2947286 0.77390575 -0.037067357 0.25490668 -0.5918756 -0.7424227 -0.84307724 -0.41049916 1.0674527 0.47581664 -0.928087 -0.03359187 -0.6516106 -0.73061603 1.0193665 -0.43352696 -0.28832945 -0.4477756 0.12760632 1.1184752 0.73574173 -0.3128645 0.117198765 -0.4673092 0.30763003 0.38493624 -0.02970116 0.119288504 0.5642815 0.49173406 -0.14745213 0.27235836 0.97613436 0.30601943 0.42937565 0.9626954 -0.47785375 0.3229296 0.53764504 0.2911396 0.91248715 -0.39237493 0.7919329 0.537612 0.34553286 0.72259563 0.51271653 0.018481849 -0.32218823 0.90957403 -0.1578915 0.73502403 0.081617706 0.3447073 0.846154 0.2756082 -0.35122007 0.8879162 -0.39342275 0.35642698 -0.8095894 -0.1624306 -0.36439088 0.7515351 0.20428266 0.48364905 -0.35117474 -0.1302162 -0.28641248 1.0880007 0.8593811 -0.40157807 -0.63922316 -0.15689026 -0.4046765 0.64635825 0.9221719 -0.17292725 0.027147103 0.5754002 -0.7311124 0.3729793 0.20298682 -0.82866836 0.8375028 -0.39656937 0.17334749 0.24343053 0.38516507 0.4213027 0.31972602 0.1936598 -0.6685654 -0.60053486 0.53594625 0.14945573 -0.8790353 -0.19560382 -0.52532744 -0.57993937 0.6419713 0.3325312 0.9391144 0.3171237 0.79975 0.6341066 -0.6752609 0.73513126 0.46522558 0.81407243 -0.8466274 0.13825913 -0.7576576 -0.865065 0.55548 0.39118177 0.13379696 -0.04364364 -0.5372458 0.9685039 -0.7949597 0.24035153 0.36626792 0.2458366 -0.8959612 0.4289007 -0.9031171 0.124828 -0.7044369 0.26091138 -0.61417735 -0.1646338 0.4940725 -0.78369737 -0.8021978 -0.04346092 0.6557577 0.5715218 0.061855264 -0.72159296 -0.80709785 -0.96762043 0.15634204 -0.6051673 -0.71374977 -0.8147595 0.045085672 0.21558374 -0.20453972 -0.29936284 -0.5891909 0.20345981 0.3001086 -0.9516661 0.026162986 0.65349793 0.39795113 -0.26028562 -0.5797106 0.123949416 -0.10324751 0.58437675 0.5906571 -0.09044237 0.41119102 -0.47680038 0.43768597 -0.69958705 -0.13951465 -0.73826826 -0.4275679 -0.21596327 0.06863753 0.5348056 -0.7668754 -0.29881003 0.5448 -0.22424096 0.6885894 0.698147 -0.67689246 0.1876935 -0.5688208 0.32915682 0.837998 0.8076823 0.14221883 0.5024938 -0.15767728 0.36642227 -0.6535955 0.38076246 0.47587985 0.014475353 -0.91748744 0.78491676 0.7134871 -0.7600532 0.6233375 0.4548912 -0.7493193 0.64820147 -0.84253204 0.7526422 -0.9105619 0.48755223 -0.61527824 -0.12934577 -1.0328239 0.6995616 -0.016266767 0.21651012 -0.27277005 0.018871317 -0.2170253 0.47014064 -0.5810316 -0.97959656 0.69990635 -0.9696462 0.31843323 0.97921824 0.8435681 0.2469867 0.19245857 0.38521385 -0.75883985 0.25690606 -0.30870184 -0.43298432 -0.38582677 0.5455926 -0.65340704 0.76360714 -0.38258076 -0.53725433 0.57913846 -0.43656376 0.60801166 0.09704419 -0.15300547 -0.4067639 -0.5444788 -0.41874635 -0.2922008 -0.3373155 0.04809014 0.08989436 -0.81653464 0.9156285 0.4214474 0.91818076
0.9797336 0.86409163 -0.2308016 0.79462844 -0.31622908 0.2757696 -0.44234607 0.40321547 0.350551 0.8663003 -0.2801817 -0.37275282 0.7169214 0.105778016 0.48067036 0.76362485 -0.8430328 0.12770097 -0.52020246 -0.13150474 0.0056460327 -0.037445843 -0.34362835 0.4139913 0.12337296 -0.22606651 1.0112026 0.36562043 0.628001 -0.31418052 -0.31899044 0.6585347 -0.6711376 -0.49346676 0.60221934 0.26882848 0.1898017 0.7946743 -0.49622193 0.80134493 0.46411756 0.5033322 0.542926 -0.8145195 0.68393034 -0.42648205 -0.57013106 -0.38910982 0.21388075 -0.895985 -0.7312358 -0.571809 -0.5922964 -0.8102385 -0.8448149 0.42514175 0.030483527 0.56508434 0.11614291 0.6319185 0.33742434 -0.54296947 0.1683957 -0.9016083 -0.45932627 0.69700074 0.023610994 -0.23909442 0.02646494 -0.76845115 0.7858499 -1.0529977 0.36544454 0.4361778 0.73806626 0.84002954 0.77971643 0.90982574 -0.58447087 -0.80642545 0.14380156 -0.87598526 0.35063383 0.9079395 0.58422965 0.25672165 -0.6104465 -0.96768993 -0.039251823 -0.7807592 0.60097164 0.8378664 -0.5486075 -0.4947793 0.6388698 0.57637036 0.11700398 -0.19081253 0.528215 0.024866473 -0.30597895 0.44902822 -0.8796045 0.15912919 -0.09088781 0.3233086 -0.92102975 -0.5181923 -0.09478032 -0.46360144 -0.92148405 -0.6521183 0.91298765 -0.7584475 0.48743737 -0.51821387 0.49572614 -0.39187798 -0.7237935 0.4503158 -0.24854003 0.08301347 0.52565825 -0.59895456 0.9548525 -0.95454884 0.75247335 0.13276292 0.9581794 -1.0229154 -1.0710615 0.6043034 -0.120295465 -0.6262504 -0.6370684 -0.8455496 0.30551302 -0.58389777 -0.12312374 -0.9463379 0.8394361 -0.6561346 0.9355776 0.14557363 -0.40297103 0.58266246 -0.6364873 -0.76867515 -0.55337346 -0.23458834 0.105274566 0.15427105 -1.0211015 0.181235 -0.019300079 0.030061912 0.83278054 0.8799932 0.62903327 0.50640285 -0.92791677 0.24869259 0.5538115 0.4406026 0.102202594 -0.45267227 -0.28094354 0.36856472 0.035911445 0.038624253 0.8073656 0.6442753 -0.8372666 0.16544934 -0.78677535 0.15751444 -0.7690236 -0.5290033 -0.60700166 -0.5588147 0.13935767 -0.53426933 0.6177686 -0.7169936 0.115572244 0.40337446 0.85096264 0.95109236 -0.6873518 -0.12086347 -0.33010957 0.6679114 -0.6236858 0.031458717 0.8628951 0.2058803 0.32968178 0.89151615 0.55650675 0.35072142 -0.050189763 0.9480981 -0.40841252 -0.36860847 -0.23617065 -0.18316753 0.36286086 0.38481632 -0.7981634 -0.85704464 -0.38261586 -0.111781344 0.48534158 -0.81727666 0.96401083 -0.68555766 0.5760257 -0.13942762 0.66900057 -0.29764023 0.87720066 0.47975346 -0.28409675 -0.6584776 0.25084347 -0.10280692 0.07738201 0.36006027 -0.37404785 0.08510606 0.3947508 0.6047761 -0.08685235 0.7579229 -0.89683205 0.059219327 -0.44435224 0.0624527 0.80638033 -1.0710627 0.117905036 0.50419515 0.7273362 -0.41813332 0.06005562 -0.44262457 -0.097161524 -1.0537719 -0.22010684 -0.8099365 -0.5323272 -0.62626415 0.73163307 0.7450326 0.44984785 0.8072766
0.9010426 0.4859078 0.17344402 0.43297648 0.17140326 0.93695146 -0.25938556 0.40862575 0.8128712 -0.3326258 -0.91384554 -0.8308222 -0.36084583 -0.18690297 0.36331415 -0.8259158 -0.5730797 -0.04550922 0.015444902 -0.8036359 0.5731253 0.5198351 0.8564801 -0.0072440025 0.72872555 -0.30510128 -0.1522536 0.45561415 0.7875744 0.35836828 0.107733175 0.10147148 -0.55875695 0.08723058 -0.0478108 0.5588383 -0.49005136 0.28259084 -0.15055867 -0.7779836 -0.37223506 0.20843415 -0.20637758 0.46637237 -0.0046851947 0.44544426 0.9239204 -0.8347412 0.33198264 0.20440517 -0.32667756 0.56563956 -0.6212676 -0.93897486 0.12827285 -0.3341884 -0.41973957 -0.33206722 0.52457476 -0.68231165 -0.10729129 0.70570964 -0.43519104 0.35352644 -0.7680065 0.9879748 -0.13815549 0.5106238 -0.57187515 -0.39117914 0.49025938 -0.8768503 -0.5737509 0.44864652 -0.38318598 -0.42178056 -0.5208124 0.91034263 0.9437156 -0.14870386 0.1372732 0.25376767 -0.8878564 -0.16485617 -0.38121215 -0.99108225 0.8142883 0.059628595 0.05091403 -0.047116995 0.31325847 -0.7766206 -0.27078813 -0.69995236 0.8214158 -0.3156234 -0.29840475 -0.84941745 -0.37250537 -0.63176495 0.6328971 0.0957432 0.12259692 0.16218102 -0.5783626 -0.79091346 0.90075785 -0.5513183 0.88262796 -0.86022395 -0.35511824 0.4935862 0.058473065 0.71546435 0.45169216 -0.28147978 0.616126 -0.31259108 -0.14418963 0.8788226 -0.32418478 0.17250621 1.012189 0.7050986 0.33577338 0.9008526 0.6478182 -0.19142413 -0.5664263 0.85100937 0.46913722 -0.4041198 0.7652889 -0.9269218 -0.96703196 0.17099154 -0.76083505 -0.680321 -0.06243823 -0.639569 -0.015303263 0.64689493 -0.81071866 -0.9543722 -0.40978375 -0.8061429 0.94320273 0.28666815 -0.17389834 -0.16085896 -0.50388 -0.12713419 -0.8799433 0.7482977 -0.3015387 0.76718575 0.772624 -0.2855436 0.16700777 -0.8079526 -0.819954 -0.5438176 0.037244447 0.47557822 0.8426686 -0.9722336 0.016628092 0.060749136 0.363537 -0.44067475 -0.34772357 -0.08121315 1.0276774 -0.66231877 -0.98353773 0.68201685 0.544799 0.7813761 0.71299046 0.57185656 0.4300893 0.70760876 0.41564113 0.67208034 0.57069844 -0.74811685 0.17264342 0.40230262 -0.11282175 0.1636422 0.63308936 0.6269331 -0.4756946 -0.35245377 -0.48269105 0.8301308 -0.3564322 -0.6806904 -0.49222043 -0.83439904 0.51833 -0.16108601 0.14053011 0.29370338 -0.09976324 -0.44628957 0.60326356 -0.74054646 0.26732126 -0.44870812 -0.5995334 -0.7194579 -0.8196421 -0.7643794 -0.86756974 0.2745459 -0.44493905 -0.049274564 -0.4790159 -0.27142897 -0.19884999 0.8874558 0.30027992 -0.12589602 0.24366838 0.036235016 -0.6574408 0.8376107 -0.8571342 -0.052505124 -0.020067168 0.80482036 0.6491269 0.0882824 -0.9535125 -0.5163501 -0.41920653 0.48373353 -0.346998 -0.33823046 -0.7789111 0.453863 0.05670926 -0.29487646 -0.95141375 0.7043564 -0.88527983 0.7265741 0.24497181 -0.11300586 -0.86424166 -0.081193484 0.8795 0.47528335 0.7184491 -0.31101245
-0.5879496 0.46503347 -0.42302513 -0.3183149 -0.11975754 0.14689039 -0.7618714 0.10297105 -0.40061066 0.3580844 0.6351293 -0.20640671 0.82298833 -0.09707582 0.010980212 -0.59696895 -0.8396924 -0.9273142 0.0035542292 0.12693238 0.3587445 -0.49606615 0.74944717 -0.1967449 0.015600325 0.0036581038 -0.67226636 0.5609241 -0.40858877 0.5344344 0.98407316 0.4759476 -1.1482561 0.11391769 0.86099684 0.2583083 -0.30709282 0.3723208 -0.041744046 0.41243285 0.10446855 -0.060215145 -0.58308434 -0.4640005 0.0015687972 -0.46691352 -1.0201533 0.66378254 -0.49821657 -0.2702757 0.3580692 -0.9383783 0.6143625 0.8676238 -0.7371398 -0.35256195 0.07000348 0.719769 -0.09897872 0.07619777 0.008467628 -0.1935062 0.998813 0.59498477 -0.26953557 0.8151114 0.65891224 -0.41558704 -0.26085904 0.07369024 -0.030102737 -0.7420937 -0.16587414 0.18971632 0.7335652 0.7806396 -0.90375227 -0.31994802 -0.12278623 -0.16272241 0.69024104 -0.38589743 0.3429088 -0.46580887 -0.98731095 0.6475324 -0.7739228 0.51009786 0.7855519 0.22056404 0.7243528 0.10333936 0.7264106 0.61518145 -0.38676396 -0.57462037 -0.41925117 0.2979022 -0.3512687 0.52563274 -0.82953566 -0.84830165 0.57001907 0.24276958 0.89069754 0.78387666 0.8180324 0.3320215 0.8647626 0.3752792 0.5883651 0.43855432 -0.99296117 -0.9884931 0.49123853 0.48905745 0.57318383 -0.6828829 -0.13226025 0.41519544 0.5539076 -0.17163453 -0.7874336 -0.53551173 -0.4375661 0.9015235 0.92858374 -0.26963955 0.5550528 0.73644423 -0.14842731 0.17109549 -2.4391031E-4 -0.8063366 -0.78273755 -0.39487186 0.15484548 -0.26182052 -0.88299197 -0.7552244 0.65609 -0.17843322 -0.43561494 0.081143275 -0.54215753 -0.9473278 0.85860807 0.86028016 -0.8206526 -0.48669246 0.5164644 -0.19508909 0.14633444 0.47398528 0.8154651 0.008823097 0.34530884 -0.9275464 0.5467879 0.78355634 0.7356502 0.7102867 0.39290622 -0.22985108 -0.122560486 -0.3810885 0.013545271 -0.22946908 0.31551468 0.9094138 0.9653567 0.36723047 0.5693859 0.37732857 0.7724325 -0.51091355 0.63076836 -0.6079559 0.79451483 -0.027901784 -0.32793424 0.036698867 0.93423533 0.4991575 -0.1124785 0.01278818 -0.85061324 -0.40219924 -0.53177124 -0.45523122 0.05839948 0.008116121 0.642567 0.48663107 0.0019710977 0.6019911 0.46265426 -0.080665395 -0.38520244 1.0350833 -0.6521404 -0.8323334 0.07888505 0.6141633 -0.057022355 -0.3561074 0.32362446 0.18219563 -0.2266621 -0.93580484 0.5572149 0.03141221 -0.369205 1.020955 0.86402565 0.15647295 -0.19052622 0.3525438 -0.6773214 -0.4108261 0.98323804 -0.006021423 0.6040058 -0.4209233 -0.11023696 0.5512572 0.2973451 -0.8507468 -0.918426 -0.46437904 0.56879044 0.37881804 0.3315943 -0.117147945 -0.4160567 0.1530105 -0.8955543 0.11795452 -0.23392485 -0.20808366 0.16295825 -0.8626263 -0.67222524 -0.95032185 -0.98932844 -0.9868816 -0.24867252 0.7881809 0.17945221 -0.27462152 -0.6637549 -0.52490515 -0.6028829 -0.3069969 -0.7926439 -0.3539156
0.68109465 0.84415144 -0.34370714 -0.53223205 0.41334566 0.6998585 -0.5574926 0.20538238 0.13309878 0.070179656 -0.49656454 0.27683645 -0.7370721 0.59640676 0.19093972 -0.7594964 0.89130116 -0.73292816 0.4276994 0.031729832 0.49725267 -0.042392466 -0.95287 -0.07447481 0.6975119 0.5690638 0.8832397 -0.9254446 -0.09381987 -0.29562947 0.17544593 0.97286963 1.0003145 0.51433754 0.32296342 0.3049393 0.35754162 -0.98236704 -0.5679702 0.7584877 -0.5117885 0.4522167 -0.40312776 0.79174644 -0.5383488 -0.8011033 -0.1657901 -0.4778415 0.43823302 -0.16835415 -0.11182251 -0.9240853 0.22111152 0.43375063 -1.051987 0.46745706 0.7717088 0.5203991 0.49795318 -0.54404056 -0.55766827 -0.23078851 0.7175584 -0.014254809 0.74805576 -0.30176637 -0.16636027 -0.3831479 0.27038774 0.022880677 -0.38727024 0.7392915 -0.023495551 0.49513173 0.3870254 -0.63963574 -0.1824774 -0.9403837 -0.3939808 0.39100406 -0.19051309 0.79900324 -0.7954522 0.16482848 0.6590724 -0.3889303 -0.7983138 0.105484284 -0.8884811 -0.5120946 0.54451597 -0.5828326 -0.73077685 0.72316176 0.44034004 -0.19794545 -0.6420614 0.15662265 0.61028355 0.54015505 -0.5622549 -0.09167415 -0.692239 0.4079274 0.083163165 0.872718 0.43822828 0.18823801 0.9779532 0.5608553 0.832222 0.6475352 -0.9209913 0.7631167 -0.17184642 -0.74438035 -0.3078595 0.6824931 -0.09099514 -0.014409876 -0.8922691 0.65910685 -0.5881123 -0.9523367 0.054748103 -0.5017843 0.1724082 0.8254396 0.044732515 0.57873535 -0.08090161 0.074336335 -0.54373425 -0.9958891 0.95385826 0.008518302 0.12720297 0.8156834 0.25439975 0.7494496 -0.47475782 0.10460004 0.62856656 -0.11747539 -0.6031739 -0.31537873 0.77543336 0.21977878 -0.27741247 0.7977636 -0.6189868 -0.19019729 0.24311559 0.7895663 0.9167136 0.6012684 0.93536955 -0.57613295 0.7893495 -0.6343881 -0.18216023 0.87682784 0.2077234 0.5763189 -0.60594714 -0.16735074 -0.29710364 0.6123656 -0.95584077 -0.15764429 -0.07786733 0.81225723 0.83149993 0.030185184 -0.5018595 0.25904068 0.5521873 -0.9815164 -0.7947533 -0.47885913 0.02719829 0.1185557 -0.34426272 0.59302694 -0.5502519 0.014710643 -0.5104304 0.11893958 0.11880703 0.5928851 -0.1628702 -0.8941821 0.7365293 0.31722245 -0.01016199 -0.8467866 0.4992289 0.5654011 0.8239171 0.034112938 -0.21501143 -0.80758333 0.215083 0.6601457 0.02429217 1.0391734 -0.0064419787 0.5369077 -0.8906765 -0.049777787 0.9416459 0.6485145 -0.90108055 0.2193829 0.015948232 -0.3786069 0.8186349 -0.9362524 -0.57467455 0.7215727 -0.8923712 0.2459864 0.14621575 -0.60699755 -0.92741483 -0.50246924 0.9579437 0.90003407 -0.059153814 -0.53078574 0.83640754 0.11615578 0.645737 0.668043 -0.46932536 0.6556096 -0.4409476 0.3044402 0.3550005 0.3958401 -0.35651714 -0.5438281 0.50489897 -0.21246348 -0.6856366 0.94945854 -0.7186191 0.8394961 -0.6904875 0.706369 -0.9439638 -0.2707934 0.09821756 0.6312356 -0.13526572 0.27775493
0.6822724 0.65388143 -0.02916187 -0.99435407 -0.16935255 0.47363943 0.37079185 -0.9784815 0.19306582 0.46221146 -0.66385466 0.7077878 -0.470444 0.5116577 -0.8899942 -0.29249227 0.42938223 0.5337533 0.87071604 -0.70659995 0.9273741 -0.01550121 0.46093595 -0.4369668 0.7381542 -1.0085189 -0.47409993 0.040744267 0.97444886 -1.0370872 0.8810067 -0.084985435 0.042336155 -0.49101603 -0.6299625 0.8467029 0.62471366 0.10056996 0.06517252 0.29287457 0.10784316 0.22949167 -0.961818 -0.5087719 0.24364336 -0.51711804 0.03585348 -0.3134491 0.68683904 0.2910894 -0.3544009 0.6070959 -0.16146967 -0.15519856 0.7210976 -0.121932775 -0.47954488 0.18580383 -0.30400342 -0.5070455 -0.32978553 0.08979628 0.7791995 0.46772927 -0.23765709 0.9198318 -0.8376593 0.3648826 -0.23083684 -0.44546953 0.510734 -0.29840034 -0.8124992 0.119948864 0.854829 -0.074610054 -0.9137043 -0.37240577 -0.02100046 -0.8786589 0.40677634 0.8471156 0.3990578 -0.49542114 0.7835442 -0.2567119 0.24659428 0.9237198 0.08960867 -0.4388909 -0.6295534 0.7102603 -0.8832435 -0.22069854 0.697516 0.5188008 -0.7731062 0.9494822 -1.0142334 0.74810314 0.3478631 0.010952488 -0.37798107 -0.5646937 -0.20338379 -0.6448475 0.41693494 -0.25925428 -0.39896154 -0.36023036 0.32573283 -0.42016464 -0.33894175 0.7598102 0.73108476 -0.54198796 0.8917198 -0.96996003 0.36082226 0.82860553 -1.0857116 -0.41158116 0.69002473 0.62577456 -0.17799796 0.76893884 0.18342084 -0.115971744 -0.37147793 -0.44305626 -0.30490962 -0.02447202 0.32806534 -0.89341414 0.21588346 -0.76679873 0.54191786 0.08790356 0.20578064 0.1636587 -0.074993595 -0.5631873 0.45495567 0.31027362 0.69768363 -0.72196424 -0.23125009 -0.6358599 -0.10947703 0.6100978 -0.62544894 -0.6280437 -0.3821816 -0.70282596 0.4518277 0.6400231 0.20037575 0.5966286 -0.46119234 -0.25586677 0.3785453 -0.2835016 -0.54132193 0.22420363 0.78067905 0.069084726 -0.5640542 -0.22506943 0.8950034 0.17474355 -0.048983704 0.07564121 0.22992083 0.15535562 -0.05952215 -0.42281473 0.15931402 0.4761408 -0.91389257 0.61808527 -0.89521927 0.5806766 -0.14501424 0.49451518 0.10867338 -0.56006294 -0.9974206 -0.610424 -0.5091151 0.4855795 0.47637424 0.61858636 -0.15911105 -0.16162504 -0.19354428 0.25900865 0.8670944 0.20720677 -0.61075336 -0.40090546 -0.35813302 -0.075610146 -0.1388573 0.56915885 0.1617871 -0.92537504 0.66027683 -0.16566086 -0.9084801 0.8973049 0.66769296 0.63442045 -0.7622752 0.3398659 0.048477158 0.6692987 0.80511117 -0.694089 -0.6979721 -0.77076685 -0.07118689 0.008214406 0.1945441 -0.13570583 -0.013923552 0.08692104 0.80484843 0.6010394 0.40502915 -0.92340237 -0.44141927 -0.5907463 -0.4622383 0.056893665 0.50106776 0.2824206 0.8410035 -0.6335348 -1.118926 -0.6448898 -0.031572685 0.49212077 -0.34091014 -0.2766067 -0.713108 0.9032607 -0.85907626 -0.7140312 0.39064986 0.4368683 -0.8756904 0.8724201 0.16313832 0.25564244 0.35543218 0.84350973
-0.68662244 0.9497661 -0.9651806 0.6273735 0.26639685 0.78678477 0.36512464 -0.71621263 0.84056467 0.8318379 0.7759245 -0.7760981 0.35977095 0.40722373 -0.2738408 0.32959545 0.12701522 0.793498 0.62633896 -0.5860029 0.20329937 0.45888725 0.6933064 0.40851134 0.35131738 0.6886541 0.19482726 0.5796787 -0.40987352 -0.6877544 -0.6444538 0.6565118 0.79940104 -0.48247495 -0.22336096 0.33850405 -0.30658308 -0.24171014 -0.47427735 0.21907659 -0.22764547 -0.08788921 0.09251104 0.89063454 -0.40739456 0.15606411 -0.5410848 0.5779666 0.54869473 -0.10098549 -0.784833 0.7485084 0.43968973 -0.10178826 0.9239898 5.335792E-4 0.87747276 -0.32832947 -0.86366856 -1.0068103 -0.29890907 0.7332505 -0.3071057 -0.09807068 0.022013487 0.073256165 -0.93336886 0.60367954 0.004419584 0.7407252 -0.91948617 -0.09731798 -0.08829151 0.36683413 -0.93028164 0.7048227 0.8615301 -0.7307588 0.5541102 0.6332591 -0.89070183 -0.9900275 0.7008743 -0.297507 0.10139467 -0.16864817 -0.86922276 -0.18968011 -0.6335414 0.7413116 0.19571692 -0.75948495 -0.61948395 0.7762314 0.15018277 -1.0733534 0.93972164 -0.35192728 -0.9989286 0.45990726 0.76902616 0.47712693 -0.5186836 1.0538863 0.3192124 -0.5717 0.76050913 0.32001543 0.5643499 -0.093281895 0.2847536 -0.43755433 -0.07017457 -0.7644661 -0.82264704 0.7243862 0.64847225 0.13401383 0.13949369 0.20838732 0.12602043 -0.11083037 0.06327071 0.06803715 -0.07831071 0.18216707 -0.27054834 0.05547118 -0.13945258 -0.06462342 0.3510582 0.76817113 -0.49805832 0.12887752 -0.23087113 0.66028774 0.15176708 0.021573555 -0.7876607 0.7391228 0.7536196 0.91054887 -0.5133283 0.5067721 0.3667408 -0.34390986 -0.1151344 0.5648253 0.41348848 0.047882777 -0.5209861 0.8967263 0.9027742 -1.0245248 0.18107358 0.47080082 -0.08414021 -0.40419582 -0.5619496 -0.23209874 0.45783564 0.044429146 -0.36243504 -0.67346823 0.38266805 0.07435361 0.6138638 0.028624522 0.666243 0.93937653 0.81011 -0.10155287 -0.545463 0.15401278 -0.11359889 -0.36318776 0.5804806 0.4601407 0.66247773 -0.03019292 0.6329469 -0.65621984 0.96194345 0.65248996 -0.43066818 0.6130656 -0.48634383 0.52601874 -1.0023435 0.91151756 0.74992 -0.5540244 -0.075230174 0.6861573 0.029583108 0.44272906 -0.09037714 1.0539256 -0.003113627 -0.45672768 0.36222485 -1.0214965 0.81510377 -0.2619383 -0.92815286 -0.78067297 -0.46812218 -0.5839745 -0.8631391 -0.8067493 -0.86926425 -0.61815137 0.0056598466 -0.6455163 -0.094185255 -0.1817169 0.4920007 0.1315517 -0.7952969 -0.14860936 0.6681014 -0.18953009 -0.24157494 0.53613985 0.9282239 -0.39555976 0.32356244 -0.9391155 1.0904529 -0.1950265 -0.18180141 -0.1140576 0.4783129 -0.7216779 -1.0803381 0.9588423 -0.20258477 0.94352496 -0.46955603 -0.5295498 0.930087 0.51832414 0.01284542 0.7594851 0.06616677 0.10471599 0.7391853 0.28035977 0.28320011 -0.66542196 0.90175444 -0.17333639 0.5596771 0.106480956 0.9217772 -0.7954192
0.9428932 0.65780824 0.6843537 -0.86831194 0.14684446 -0.88513976 0.8852676 0.034037802 0.6924968 0.9188982 -0.5478502 -0.88129276 -0.48332486 0.38486832 0.7768238 -0.36142024 0.11278578 0.20144527 0.20761707 0.3364016 0.8724777 0.6367057 0.19553345 0.08270369 5.866939E-4 0.41321844 -0.19884229 0.57622194 0.78267264 0.27932757 -0.47076654 -0.49736318 1.0132552 0.22784661 0.8930378 0.94281393 0.84604853 -0.94644415 -0.55862 0.41904673 0.7679625 -0.6528858 0.49755013 -0.36028183 0.13924776 -0.7577025 -0.7680217 -0.89830285 -0.604994 0.44159454 -0.530745 -0.13707663 0.3257311 -0.22331105 -0.0071727103 -0.7725073 -0.3192928 0.8396496 0.8657648 -0.95564735 0.7489486 -0.7608524 -0.6066916 0.36016375 0.6353556 -1.0803837 -0.47412238 0.48453245 0.930653 -0.8566022 -0.2877193 -0.2301752 1.1342006 0.52519953 -0.53106123 -0.7228037 0.05480777 -0.32983312 -0.40887308 0.00926854 0.43771014 0.1878393 0.50353086 -0.7196107 -0.5419764 0.8110513 -0.5754803 0.2990378 -0.5926029 -0.41221145 0.6268155 0.9928662 0.92782664 0.106598444 0.71226686 0.77834463 -0.070346884 -0.2382196 0.9392048 -0.26166475 -0.47372022 0.40337372 -0.5241747 0.65047383 0.31778973 -0.004255577 0.6508596 0.24329633 -0.17050308 -0.24386296 0.034419205 -0.39755896 -0.069115914 -0.95122135 -0.25472853 0.5990757 -0.20924097 0.30486974 0.36228043 -0.85390687 0.88498545 -0.07096282 -0.7641859 -0.56686467 -0.27438375 0.042462893 0.05914386 -0.40688774 -0.20465717 0.51027405 0.3277365 0.91309386 0.5398885 0.037470166 -0.61917365 -0.94490594 0.3583586 -0.88715625 -0.33671162 0.5683898 -0.69525486 -0.7793881 -1.0012971 -0.9856202 -0.43956715 0.15164532 -0.48133016 0.07498322 -0.45914763 -0.021832854 -0.5941075 0.933743 0.7003791 0.055185676 -0.50598025 -0.6887501 -0.78094953 0.6954206 -0.37284228 0.85364276 -0.23185855 -0.38171637 0.14586757 0.6593881 -0.5132354 -0.4212277 -0.8607937 -0.63072294 0.16630666 -0.7104728 0.4310182 -0.13222185 -0.81805384 -0.8623407 -0.5999507 0.06370862 0.13877971 0.44117677 0.7358336 -0.043512467 -0.103202686 -0.7339323 -0.68723536 0.35517335 0.16473562 0.7458815 -0.33184606 0.5163182 0.3623212 0.7459783 -0.18921849 -0.6469432 -0.63464135 0.67739594 0.9001022 0.21045057 -0.78776264 -0.33519503 -0.9257704 -0.6219956 -0.83302027 -0.06901734 -0.39046162 -0.9265896 0.90597683 -0.5597808 0.44076487 -0.12004725 0.905145 0.32666084 0.68726623 -0.8265062 0.42295834 0.6502631 0.551837 0.73577374 0.18639487 0.054241523 0.9520485 0.6769423 -0.13404605 0.65788245 0.96764505 1.0008556 -0.46444476 0.5079871 0.1881003 0.14838222 0.3320819 0.6715676 0.807066 0.16119896 -0.32227454 0.2489304 -1.0858288 -0.40866533 -0.792109 0.325257 -0.90246284 -0.25755808 -0.7142902 -0.20662588 0.7342849 -0.42704514 0.026796822 -0.29894224 0.7302069 -0.08324026 -0.57683116 0.91911936 -0.71500623 0.20327362 0.4884795 -0.1921368 0.23161459 -0.12109748
-0.80719876 -0.3364972 0.058113173 0.8302925 -0.15908265 0.7904009 0.37985605 -0.84440047 0.84997225 0.4138148 -0.08700844 0.7057081 0.5402025 0.47649503 -0.31959492 0.84323585 -0.6759366 -0.6620507 -0.1857445 0.904205 -0.6428105 -0.49757794 0.20757921 -0.8827363 0.39968285 0.03979668 -0.82140434 -0.25234234 -0.15343857 -0.14628538 0.30950457 0.07631832 -1.0172243 0.696777 0.58053464 0.92691195 -0.9774456 -0.06576602 -0.5683519 0.11727388 -0.81350607 -0.046964567 0.57541806 -1.0189103 0.40772602 0.9003699 0.12351414 0.07057547 -0.0765084 -0.26155958 0.91518843 -0.8760105 0.39130118 0.2566709 -0.61197156 -0.85649276 -0.71966445 0.6776098 0.39445418 0.9049298 1.0771991 0.26027414 -0.608493 0.43769333 -0.8617315 0.5832805 -0.57099783 -0.74399644 -0.17256808 -0.6997841 -0.23647188 -0.67715037 -0.6240925 0.62920034 -0.34128866 -0.041218583 0.7744014 -0.75438935 -0.15703194 -0.091073215 0.18256406 1.0217632 0.69055617 0.82486033 0.283685 0.24770872 0.5895439 0.20390666 0.58943284 -0.646113 0.57057136 0.7250719 -0.76337814 -0.76345825 -0.8014371 -0.2727487 -0.7919754 0.0673654 -0.99837226 -0.9692625 -0.39611384 0.83914965 0.84585977 -0.83619285 -0.113872655 0.15376721 -0.6300109 0.91702455 -0.14591439 0.5089631 -0.32120094 -0.77228165 0.64451563 -0.783231 0.33648768 -0.70888126 0.3753488 0.63513637 -0.5841175 -0.77414244 0.8118671 -0.7000995 -0.79017997 0.76398283 0.53053653 0.4030698 0.810438 -0.63943917 -0.62339264 -0.55349535 0.5864778 0.44784322 0.06372949 0.04017977 0.837423 -0.111603945 -0.6409925 -0.13086805 -0.5644359 0.69188297 -0.56172335 -0.035032302 0.2383582 0.7778557 -0.69765764 0.06491897 0.696293 0.98522455 -0.4578357 0.15007469 -0.33720127 0.96289986 -0.0149249025 0.53478616 -0.86697847 -0.13891737 0.7261569 -0.43826267 0.737278 0.41644904 -0.9468338 0.83265674 -0.42095807 0.46608827 0.6119077 0.59805423 0.03386263 -0.51795197 -0.65504533 -0.28726077 -0.14650418 0.56562257 0.35564935 0.34745255 -0.25339848 -0.9321446 -0.36833775 0.86589473 -0.08297645 0.49305752 -0.52495027 0.1465924 -0.5918275 -0.62669015 -0.28063226 -0.028175518 0.15661976 -0.57749707 -1.034175 0.19773658 -0.93361473 -0.73609734 -0.07694844 0.102863 0.82195204 -0.09120542 0.8406461 1.0580423 -0.15861227 0.7436181 -0.5752359 0.062241387 -0.4040739 -0.42245957 1.0041196 0.29227838 -0.83924234 -0.33350605 -0.05338956 -0.29381326 0.0149479965 -0.65323853 0.5074647 1.0094038 0.5874124 0.92440355 -0.6989648 0.032595668 0.4493244 0.69883174 0.26310006 -0.63469255 -0.4710372 0.5148565 0.7312226 0.09562365 0.36209598 -0.62455624 0.73579806 -0.5159361 0.48395315 -0.056895062 0.88808274 0.6875911 0.3804896 -0.29627636 -0.19811898 -0.118742354 0.7841823 0.7748459 0.03861179 -0.5401221 -0.5405758 0.29480687 -0.020603724 0.20462616 0.13543053 0.38067356 0.0643102 -0.53761756 -0.2680803 0.2948805 -0.35171154 -0.90769565 -0.9792874 -0.29273337
-0.10718613 -1.146862 0.64727867 -0.0026717805 0.2930602 0.17753178 0.76166946 -0.34876698 -0.21209638 0.54852813 -0.53642184 0.9472454 -0.6516697 -0.6258687 0.6382613 -0.91973203 -0.27383026 0.07975952 -0.49929786 -0.46763578 0.8957628 -0.26261193 0.5230093 0.7430187 -0.512199 0.8307494 0.6506117 -0.9677535 0.2864475 -0.9654998 -0.24804851 0.7053978 0.87934715 0.1989794 0.8454307 -0.35402772 -0.6405824 0.80135584 0.077100605 -0.38597193 -0.6644629 -0.5608283 -0.5329741 -0.39999333 -0.8784492 0.31863576 0.24702875 -0.05673295 0.9132148 -1.0103958 0.5385165 -0.2462105 -0.44515884 -0.47112095 0.18532906 0.05389164 -0.48087695 -0.120626196 0.7579298 0.45595947 0.8747576 -0.96677077 -0.0722554 -0.32560554 0.7349023 -0.16651465 0.74383795 0.091439426 0.25818175 0.49713445 -0.10872552 0.99802166 0.2001825 -0.82300776 0.62214476 -0.012242318 -0.555165 -0.8017201 1.0009571 -0.027583601 0.48230025 0.6538232 -0.6030014 -0.13671632 0.7844337 1.0483476 0.41368684 -0.91636235 0.21532913 -0.016626937 -0.9353284 0.9485511 0.5879945 -0.7106585 -0.18521595 -0.7190588 0.56948876 0.38018912 -0.83851457 0.6492616 -0.005921372 0.4477314 0.30141217 0.12710693 -0.57225263 0.6677712 0.18748643 -0.9569319 -0.68038565 -0.6701795 0.121981665 -0.60848343 0.38077316 0.54783946 -0.2792008 -0.33521524 -0.2824442 0.7225129 -0.8549095 -0.036493625 0.8354203 0.15043008 0.31338352 0.6644581 -0.8462265 -0.08080182 -0.5750678 -0.78647083 0.7850644 0.80428654 -0.7636734 0.6352273 0.033974405 -0.41961613 0.31059286 0.9071179 -0.81602985 0.4455063 -0.37333116 0.9164539 0.109337166 0.7925411 0.7402271 0.18762551 0.020176418 -0.44683665 0.085694715 -0.8831524 -0.5458921 -0.09821387 0.5499394 0.009077194 0.47470146 0.13970743 -1.0261116 -0.9181395 -0.46982577 -0.7197876 0.4155624 -0.5432999 -0.9892842 -0.35012248 0.3450326 0.5399296 0.18921056 -0.34255117 0.5936688 -0.6276376 -0.4468123 -0.5872765 0.59895325 0.9273378 0.43791804 0.69249165 0.6763473 -0.6182382 0.29553562 -0.72126293 -0.9941496 0.24618022 -0.29831874 0.94396305 -0.03519223 -0.88810885 -0.1611557 0.118893616 -0.911837 -0.066045865 0.9422624 0.37145236 0.7628402 0.25575203 0.17843667 -0.50627553 0.5713162 -0.72688466 -0.7715086 -0.70560735 -0.11722841 0.8246057 -0.6301293 -0.09127841 -0.31417227 -0.4549631 -0.3740132 0.605669 -0.30418843 1.0077665 0.9007382 -0.8361065 -0.6072667 -0.7168936 -0.7269257 -0.66933036 0.7503808 0.42452744 -0.8185202 0.46559617 -0.7600488 -0.41302866 1.0029802 0.81301516 0.86822265 -0.7316019 1.0036291 0.37371835 0.045381006 0.110479265 -0.61465925 0.42097184 -0.79954046 0.8093158 -0.47338387 0.23210303 -0.6358154 -0.5810119 0.20535928 0.91154 0.6552096 0.035189163 -0.10866031 -0.7508739 -0.72019213 0.7223713 -0.7661916 0.08725894 0.80638075 -0.19376373 -0.7971189 -0.7899056 -0.6986648 0.016037634 0.6764261 0.0140894195 0.88149667 -0.7842555
0.8055283 0.121031016 -0.8543784 0.48991817 0.6364099 0.371195 -0.059300438 -0.7949182 -0.26882213 0.5839219 -0.5485355 0.93676484 -0.59096456 -0.17849545 -0.18944716 0.5674783 0.75132143 0.07778536 -0.57353866 -0.4496086 0.042012516 -0.91677374 0.75770617 -0.069866925 0.5520842 -0.10882023 0.5561312 0.6496184 0.63173836 -0.44558632 -0.13482355 -0.14915319 0.5230022 0.012174568 0.776375 0.1466716 -0.06215231 -0.35289055 0.7180493 -0.80736256 0.5678054 0.73820204 -0.45469472 -0.3591047 0.80076516 -0.6134719 -0.05033398 0.21191847 -0.8524343 -0.13166319 -0.24005242 0.87167597 0.60703826 0.37684336 0.013326343 0.749782 -0.28635436 0.069692746 0.40968007 0.44167623 0.15534578 0.59930897 -0.59800905 0.25485456 -0.5390828 0.364847 -0.43448362 0.79272705 0.39819568 -0.9249031 0.13964528 -0.66920954 0.6684993 -0.022772534 0.3290473 -0.6339459 0.17827967 0.45811576 0.18086185 0.5088029 -0.81594115 0.49136916 -0.69209146 -0.3919868 0.71102 -0.48719043 -0.63848734 -0.44482642 0.9870841 -0.1970463 0.9022028 -0.6922869 0.06499418 -0.9973804 0.5872939 0.52662104 -0.7655979 -0.051111836 0.102650225 -0.63498974 -0.7655247 -0.5743027 -0.89881873 0.5920724 -0.12080174 0.32833457 -0.95962363 -0.70308244 0.20824945 -0.23908043 0.849423 0.5872631 -0.97932667 -0.21557787 1.0057487 0.5468888 0.38178542 -0.29737672 -0.75743276 -0.050669063 -0.19257002 0.3646381 -0.605453 -0.4062319 -0.5089434 -0.5811011 0.073085785 -0.078511916 -0.2503164 -0.9584038 0.15628724 0.08127818 -0.6047083 -0.34608233 -0.7380959 -0.33812773 0.6146257 -0.8951286 -0.9057219 0.669252 0.6204029 0.4352413 0.6356264 -0.584186 -0.53688234 -0.78109306 -0.5876871 -0.82482445 0.61324155 0.53150535 0.21239093 -0.9386432 -1.0091822 -0.06753735 -0.7079352 0.37091765 -0.04604177 -0.084985465 -0.61429393 -0.007840144 0.5183543 0.17631471 -0.7913778 0.40565118 0.06923414 0.64312345 -0.42484865 -0.084450625 -0.27799565 -0.51291573 -0.41742072 0.38528812 1.0271857 -0.5525898 -0.964133 -0.1574391 -0.7310302 -0.32583803 -0.7882789 -0.6756 0.073263526 -0.04884071 0.6477304 0.027569734 -0.18018474 -0.2849559 -0.67668813 -0.40184084 0.8288621 -0.03625108 -0.475896 -0.5894072 0.8856649 -0.6798981 -0.73444027 -0.6358144 -0.9208609 -0.6917331 0.9634606 -0.27877405 0.3694779 0.34755918 -0.78247553 0.003644081 0.47798765 0.0849227 -0.99190456 -0.056294855 0.2834831 -0.29309815 -0.6858939 0.76410747 0.3107459 -0.93197703 0.90847737 0.78726536 -0.61616564 0.36234903 0.7306223 -0.70863014 0.5085809 0.91287667 0.7589627 0.9133807 0.869518 0.7372446 -0.6877057 0.5052055 -0.7479946 0.91948044 0.30926567 -0.120825976 -0.78798103 0.2775107 0.49630317 -0.4598387 -0.92566925 -0.5457702 -0.3114153 0.5025887 0.49340275 0.25373444 -0.21661851 -0.24313322 -0.24794534 -0.32577097 -0.67968 -0.45125213 0.33176446 -0.9426421 -0.5582842 -0.18345287 -0.5249282 -0.52435046 -0.20080881 -0.5112365
0.08573129 0.27526155 -0.19233158 -0.38703585 -0.34956697 0.80785984 0.46388212 -0.75423026 -0.614542 0.13528506 0.68141526 -0.93061686 0.7031595 -0.31481716 -0.25577986 0.2501615 -0.27273855 -0.2994515 0.41998976 0.5395825 0.49786112 0.41429266 0.101464055 -0.6705991 0.9828363 -0.6249023 0.62204176 0.052272607 0.72571874 -0.6439861 -0.6643725 -0.4147696 -0.79421514 -0.108895354 0.46196154 -0.27662677 0.68235266 0.2933562 -0.45533136 0.30251664 -0.9401183 -0.089290924 0.47518024 0.24931599 -0.5556468 -0.5096778 0.60736126 -0.204343 -0.14262977 -0.4271018 0.24386398 -0.63394135 -0.08602698 -0.80883914 0.43824464 0.18034384 0.9129675 0.03393645 -0.17738712 -0.17782465 0.40535104 0.3332812 -0.25327373 0.24621797 0.8080475 -0.17043987 0.1245524 0.37593803 -0.25877362 0.53904545 0.054202203 -0.9583491 0.16998865 0.40341783 -0.6668518 -0.21111362 -0.66285324 0.11063581 0.6210531 -0.84328765 0.46756 0.15967931 0.6679706 -0.662182 0.061436992 -0.717998 0.3408843 -0.6046545 0.3538414 0.21423481 -0.8474364 0.21420945 0.8856206 -0.76731575 0.20033275 0.9146323 -0.076154925 -0.8963118 0.36629382 0.48753592 0.4394183 0.37776724 -0.9568732 -0.76072705 -0.44240102 -0.41406482 -0.3008339 0.5108812 -0.41067114 0.57120794 0.4824735 -0.6515166 -0.4429415 -0.22915925 0.98277986 0.51179194 0.08713565 0.23794174 0.8814719 -0.63711935 -0.21390562 0.3989122 0.031513833 0.41941187 0.020800216 -0.34488174 -0.02438804 -0.0025995928 0.91880393 0.17563146 0.6131338 0.21443188 0.24555837 -0.632763 0.9326378 -0.64374 0.72940534 0.61064804 -0.49060455 -0.4882632 0.23746258 -0.57708377 0.7388086 -0.51641744 -0.20070541 -0.9009458 -0.33602086 -0.25001836 -0.81955755 -0.78223455 0.60233825 0.50001985 0.48695442 0.43492374 -0.48915115 0.09297134 -0.5946987 -0.21690701 -0.9679387 -0.2289781 0.8217467 -0.14770214 0.031011213 0.0098629305 0.3149404 -0.7376286 0.2212514 -0.634808 -0.14206192 -0.5897131 -0.77233857 0.94001603 -0.93952453 -0.6659201 -0.20141669 -0.74073404 -0.14061323 -0.8515066 -0.2619796 -0.6950413 -0.7411227 0.91681796 0.38924837 -0.35397512 0.037979227 0.7409742 0.793132 -0.3679768 -0.57954645 0.16349825 0.08758233 0.6202983 -0.13600723 -0.61087 -0.27158663 -0.28406426 -0.037288956 0.396518 0.8750142 -0.68030894 -0.35862896 -0.4535733 -0.21224193 0.59096175 -0.95349956 0.6500448 -0.21128982 -0.3934865 0.02614773 0.18938006 -0.4282508 0.1395415 -0.73012024 0.26765144 0.53729194 0.36832854 -0.850735 0.6705767 0.35665986 -0.2955827 -0.42321536 -0.73463875 -0.8691521 -0.37646315 -0.12303429 -1.0006186 -0.99002194 0.027856521 0.48565996 0.30805767 -0.45450807 0.41910294 -0.9721218 0.5298078 0.57801884 0.4008108 -0.61900157 0.10887223 -0.55565417 -0.24923001 -1.1567994 0.20631027 0.5233763 0.3844997 -0.7146365 0.3841894 0.7878113 -0.49433678 0.6738185 1.0568823 -0.43362337 0.84207106 -0.9603973 0.48906952 0.15237117 0.44921485
-0.3689425 -0.37302592 -0.8308536 0.87637043 0.05516597 -0.12832883 0.713537 0.22148411 0.195864 0.15441187 -0.012659086 -0.72880954 -0.21430244 0.08109538 0.67749316 0.6962594 0.9505722 0.43480337 0.11669718 -0.6645068 -0.319892 0.99678946 -0.048984755 -0.6079403 0.51810753 0.24550332 0.17538905 0.46148923 0.36236572 0.87403077 1.0373356 0.8719192 0.54573286 0.1437736 0.7789777 0.0626766 -0.24076715 -0.8484377 0.6524637 -0.8899548 -1.0751065 0.826057 -0.84062177 -0.9126528 -0.68617475 0.9587701 -0.30200446 -0.73881304 -0.18627296 0.99132556 0.6155371 0.4836375 0.19698589 -0.29262903 -0.94610536 0.7597489 0.05634632 0.2842689 -0.8934855 -0.6876219 0.584208 0.77604854 -0.6866775 0.89470154 0.32601702 -0.87337434 0.02660599 0.3774481 0.6588491 -0.62213415 -0.8178377 0.7710946 0.4272024 0.46420607 -0.82806027 -0.7621178 -0.2979995 0.37325272 -0.3898692 0.45495793 1.0088719 0.6929171 0.60353184 0.21654329 0.008691645 -0.55831873 -0.6901226 0.9356635 0.7677924 -0.30723852 0.5915454 0.8751698 -0.18216056 0.11041368 0.24308002 -0.42519888 0.31675994 0.1798461 0.32509902 0.03672109 1.0115086 -1.0656713 -0.97312 0.91955847 0.13922259 0.6938717 0.16583323 -0.89865595 0.23798281 0.22639525 0.9549275 0.044900898 -0.036618482 0.36487472 0.97625446 0.70152885 -0.4284162 0.9468356 0.7532285 -0.47114092 -0.64123386 0.1504237 -1.0195438 0.52098656 -0.14320843 -0.7419963 -0.42793494 -0.17858298 0.8176615 0.14140917 -0.24959792 -0.048585303 -0.6211793 0.60174286 -0.11139587 -0.3275187 -0.37940297 0.13557461 -0.87162167 0.011168302 -0.7638638 0.08781725 0.50900745 -0.7949353 0.13949071 -0.40899035 -0.5764683 0.6564361 0.80616426 0.387749 -0.24255414 -0.45920414 0.6811072 -0.91515034 0.3678171 -0.92989236 0.56757903 0.103991434 0.84082913 -0.2150532 -0.018040344 -0.3333132 -0.21245155 -0.49301678 -0.41110763 0.114433564 -0.35162604 0.36519185 0.009844028 0.9010483 -0.97287023 -0.9299659 -0.58219206 -0.21542443 -1.0791628 0.6273065 0.12276816 -0.2888514 -0.49156767 0.46458045 0.5220061 0.88940626 0.4503559 0.20310421 0.9203403 -0.8621665 0.9220368 -0.93691266 -0.18444929 -0.53510225 -0.11289168 0.28235933 0.5773082 0.2815918 -0.7989596 0.4725968 -0.15638068 -0.11763243 -0.68422884 0.59892774 -0.3983628 0.12998551 0.20599051 0.6469382 0.7472631 -0.31120533 -0.7494665 -0.21887147 -0.4835628 -0.31804353 0.54798436 -0.5584658 -0.63114834 -0.30728337 0.1306881 0.69041353 0.8034725 0.20791508 1.0492659 -0.35109624 0.37467715 1.0178778 -0.14133145 -0.13512935 0.86451745 -0.74326766 -0.8936591 0.120741196 -0.8569807 0.66233796 0.11386308 0.7297288 0.7130246 -1.0201819 0.17833059 -0.58340544 0.84635 0.94212544 0.19369231 0.33250976 -0.20879824 -0.0085843 -0.344294 0.36992458 0.56468403 -0.38998222 -0.043266267 -0.8200481 0.4029534 0.833259 -0.28211173 -0.3230022 -0.36941049 0.36804724 0.65213114 0.09417265
0.47915757 -0.16443877 0.38430288 0.62501407 -0.6798018 -0.45448297 0.60984296 0.31368345 -0.23232463 0.64751726 0.09877262 -0.06600699 0.36299068 -0.34816772 -0.43159485 -0.86375904 -0.4924888 0.800852 -0.35985446 0.01151747 -0.59038436 0.9721154 0.42964745 -0.6061609 -0.12164097 0.18726759 0.84417605 -0.49555284 0.5177207 -0.92262375 -0.17155819 0.7968855 -0.4352929 0.5994739 -0.028255846 0.5011189 -0.66452616 -0.90511423 0.5295814 0.68746793 -0.7787284 -0.10787808 -0.93799573 -0.28921804 -0.9266725 0.6962211 -0.827817 1.0203239 0.034071106 -0.08565039 0.13867854 -0.86531544 0.16660975 0.32874689 0.18449767 0.43573382 0.5005707 -0.9515511 -0.9448088 0.8208195 -0.74959934 -0.7088991 0.056118883 0.3428383 -0.1269688 -0.35369557 0.59064424 -0.8398568 0.7582809 0.18828851 -0.5161909 -0.8128525 -0.17770855 0.20072082 -0.3421672 0.78398174 -0.62682545 0.84145445 0.864815 -0.34067222 -0.17550893 0.16517292 -0.7250574 0.36876917 0.99940485 -0.47199783 0.043119363 -0.65090305 0.18205516 0.956759 -0.7265718 -0.7236272 -0.61960876 0.6599556 -0.5425656 0.47691894 -0.99658555 0.72788936 0.8494806 -0.35816067 -0.53994256 0.8355263 -0.7516009 0.7957852 0.7612674 0.035801824 0.39734292 -0.49212602 0.8564167 0.40112388 -0.023100436 0.10074842 -0.32358813 -0.89412886 0.48019877 -0.73721385 -0.33649987 0.90574545 -0.20936953 -0.9891621 -0.35128185 0.52737653 0.6768235 -0.51103455 0.90342426 -0.6056588 0.578077 -0.68335044 0.3378898 -0.62887037 0.94803286 -0.17067277 -0.6379939 0.8954919 0.83041626 -0.1316369 0.3913826 0.15207541 0.8408598 -0.25257325 0.7729661 -0.09168814 -0.42127442 -0.44556168 -0.9426441 0.13205034 0.9523355 -0.8755152 -0.13721429 -0.77899504 -0.8996542 0.64962107 -0.59213585 -0.2392795 -0.8014095 -0.977076 -0.5620457 -0.8701072 -0.48160315 -0.7958102 0.8598575 -0.33905405 -0.6273506 -0.19069624 -0.7899277 -0.5113966 -0.03763806 -0.43983567 -0.43619266 -0.657537 -0.5728501 0.37045917 0.43208912 0.3072649 0.092657514 -0.94881 0.38677776 0.20683034 -0.60247475 -0.07067577 0.7610457 0.7503266 -0.2459348 -0.98269975 -0.6970396 0.75080246 0.011808574 0.42325008 -0.79327834 0.7239407 0.8157483 -0.9377785 -0.75632465 0.7345973 0.6292219 0.22195831 0.35191873 -0.47647732 0.6719106 -0.47086915 0.5577141 -0.4746841 -0.8245749 0.1263866 0.7172346 -0.9326707 0.6541736 -0.23907311 -0.11921636 0.8531339 -0.9752659 -1.0095658 -0.18026832 -0.11093973 0.1366063 -0.21067859 0.39272696 0.021053966 0.09331152 0.4555456 0.43504956 -0.693665 -0.8469028 0.5403564 0.3740904 -0.1934814 -0.6053944 0.47501013 0.30101517 0.8986297 -0.15157056 -0.36840934 -0.5713522 0.76682043 -0.81109613 -0.33976275 -0.47568402 -0.63496685 -0.46997446 -0.5905577 0.94674957 -0.030438473 -0.5053638 0.53333646 -0.6365555 0.23684464 -0.87896204 0.198075 0.81059647 0.7737845 -0.3426105 0.1785875 -0.30118194 0.75953215 0.54553586 0.9218855
-0.31171054 0.18484001 -0.9111706 -0.5985182 -0.8329043 0.90170765 0.06498259 -0.4033421 0.9647361 0.06778998 0.20843433 -0.2083717 -0.57868195 -0.30471578 -0.7002092 0.81965166 -0.6385324 0.7596345 -0.42596322 -0.007411599 -0.44541618 -0.69612885 0.6326477 -1.0612929 0.0070432737 0.91553086 0.4676136 0.7480002 -0.6778651 -0.45625407 0.032827698 -0.042306554 0.09423443 -0.87253755 0.68641865 0.865607 -0.18767652 -0.6039452 -0.05776716 -0.95809335 -0.1745457 -0.6005562 -0.082082674 -0.5450647 -0.661794 0.69065714 0.027854646 0.1301854 -0.20264706 0.23952769 -0.53543377 0.3250505 0.67785853 0.35768676 0.3392477 0.43109456 0.45238382 -0.93864375 -0.7834056 -0.45294878 -0.87243783 0.047837973 -0.69888306 0.062829204 0.49473545 -0.6866658 0.7777567 0.71036524 -0.7369816 0.90826625 -0.17271091 0.5473626 0.12606287 -1.004559 0.06798348 0.52465767 0.40679145 0.83979696 0.3743015 1.2396322 0.18458615 0.19555068 0.46202567 -0.014923219 0.72213805 -0.084486336 0.22430818 0.85763776 0.28876415 -0.91651475 -0.70851934 -0.7110269 0.45131937 0.4060956 -0.72342646 -0.90955484 1.0187315 -4.4820653E-4 -0.90129155 0.7598241 0.012762923 0.46371543 -0.26698568 0.56336516 -0.41401303 0.5023364 -0.036473278 0.074875616 0.7338936 0.08201622 0.2018421 -0.30747402 -0.0087893875 -0.051233858 0.19365478 -0.375283 0.29036698 -0.8608981 1.0130353 -0.2851141 -0.79109246 0.1634878 0.11693155 -0.82293206 0.54855376 0.6404137 -0.9432905 0.53981674 0.0797817 -0.36794582 -0.38073933 -0.70726645 -0.4882759 0.3697461 -0.7977493 0.05774216 -0.88495535 -0.7064113 0.6120429 0.6231598 0.8506521 -0.9577363 0.6694104 0.5735084 0.5219648 -0.20698139 -0.09348248 -0.84311247 1.0129381 -0.91728246 0.59275305 -0.25123236 -0.5273516 0.39681497 0.93312776 0.58076924 0.57718563 -0.034942575 0.85070306 -0.6245616 0.64269686 -0.5233023 -0.96902716 -0.6962604 -0.25441703 -0.9167699 0.35452121 -0.28481713 -0.012291762 0.27602077 -0.34484702 0.86459166 0.20089307 -0.69472426 -0.755061 -0.14950757 0.18808651 0.955072 0.9855341 -0.7386653 0.17975253 0.91915846 -0.43459618 0.9584373 -0.5282427 -0.089521505 -0.12757868 -0.22035775 0.2949497 0.35383165 -0.21952915 0.004674949 0.7728713 -0.09873606 0.52507895 0.85250914 -0.32583284 -0.951989 0.20685779 0.44781312 0.19754955 -0.7510456 -0.89000046 0.89847696 0.71206516 0.88720447 -1.124945 1.1984566 0.60199296 -0.05268078 0.7452489 -0.98290807 -0.8449839 0.88907623 0.7987599 -0.11482862 -0.78454554 -0.4800884 0.5024442 -0.098226495 0.6849989 -0.89797735 -0.4443355 -0.6161964 -0.2328634 0.110168405 -0.56987697 0.06630949 -0.29283622 0.24059755 -0.71232474 -0.85078436 0.67260945 -0.3572341 -0.7895519 -0.1482143 -0.50566095 -0.026887221 0.08193538 -0.5084857 0.21829523 0.090795875 -0.580794 0.2310016 0.8217857 0.40957287 -0.38917106 -0.87417334 -1.1048839 -0.40346506 0.03590717 0.22981331 0.74860424 -0.69690955 0.7968666 -0.8264617
0.14589638 -0.8041139 0.27606338 0.5999654 -0.6181115 -0.88827634 0.57538927 0.9473356 -0.8685373 0.82309383 -0.111265145 0.4905611 -0.29743254 0.74155813 -0.9612606 -0.9698507 0.36904648 -0.95895886 -0.6238993 0.3357906 0.15243314 0.68130296 -0.33032352 -0.3310753 -0.6381116 -0.07195039 0.16710211 -0.08038828 -0.14073199 0.40290365 0.21266025 0.5706755 0.24431959 0.5825488 0.5234698 -0.26190847 0.24953638 1.0756844 -0.01373089 -0.92044973 0.73032355 0.8256976 -0.91533035 0.7215308 0.23519021 -0.9069267 0.02753244 -0.7459625 0.29355896 -0.30382013 0.033142272 -0.7707853 0.23069039 -0.0025769062 0.80896175 -0.022831902 0.34392107 -0.76424384 0.15600777 -0.60522 0.93352515 -0.12879997 -0.6152468 -0.074065514 0.9634307 0.5635749 -0.9501229 -0.7091671 -0.5501015 -0.5565899 0.9430048 -0.8792309 0.14063387 0.78576475 0.2831072 -0.44865328 0.6820363 0.4887565 0.9883821 0.16534707 0.6876622 0.7278453 -0.713088 0.096017435 0.078303345 0.39483893 0.14464028 -0.10077675 0.87656164 0.1937958 -0.8132894 0.9677988 0.5861033 0.26433447 0.19438332 0.20456776 0.5969197 -0.24060202 0.16064468 0.82118785 -0.9918174 0.041456945 0.86474085 -0.27006978 -0.60396355 0.03939092 -0.88522774 0.11428784 -0.51972663 0.92319083 -0.9154055 -0.7600927 0.18918431 0.5116756 -0.32291466 -0.9222035 -0.7560645 -0.7570027 -0.6297391 0.4807908 1.0342865 -0.92368627 -0.44020304 -0.4373068 -0.60225713 -0.5628371 -0.22095114 -0.50387174 -0.8578815 0.4840328 0.36831468 -0.58822346 -0.62083244 0.31266928 0.7783227 -0.35724175 -0.98763543 -0.9420061 -0.68567765 0.40166733 -0.59209687 0.30621487 1.0033659 -0.8638291 -0.83532435 0.712928 -0.17300598 -1.0681447 0.559742 0.03712756 -0.5723747 0.24747202 -0.2495102 0.99207217 -0.7261093 0.33522478 -0.7128572 -0.2609113 -0.6129079 -0.18712659 -0.9849656 -0.9191261 0.18932472 -0.98608834 -0.055226516 -0.5686075 -0.6213098 0.7856708 0.8177436 -1.0129088 0.36932948 -0.72120047 -0.7899496 0.68735975 0.7319149 -0.8156235 -0.7234439 -0.061339386 0.39665893 -0.26124796 0.65032685 -0.5709502 0.93172365 -0.08870553 -0.4413844 -0.5560268 -0.57468975 -0.19725896 -0.56750345 -0.17886199 0.60372657 -0.32909408 0.36480612 0.9897378 -0.86564964 -0.6299712 0.6740376 -0.13245818 0.31317857 0.7179633 0.84296864 -0.46042392 0.49376455 0.5355725 -0.099420786 -0.14461069 0.04366002 0.37836495 -1.0095962 -0.44564822 -0.368568 -0.24912083 0.24913546 -0.06357166 0.48907697 0.0053171287 -0.8616841 0.08144572 0.2817504 0.25030118 -0.7426734 -0.5109818 0.7719367 -0.9792566 -0.2632134 0.74403477 -0.50395566 -0.060940564 0.23951806 0.41240636 0.2995733 -0.6913624 -0.26725477 0.447501 -0.08285348 0.7021855 -0.2961453 -0.20686933 0.544403 -0.39838305 0.47179282 0.69514537 -0.75654984 -0.39650658 -0.40109307 0.58314925 0.7712114 0.91087157 -0.679167 -0.6923912 -0.06908758 0.5424373 -0.8112085 -0.21621844 0.086372755 0.79737484
0.42864135 -0.9801787 -0.84305716 0.4105063 0.48667857 -0.18930012 -0.59037256 0.05517597 0.06093961 -0.895604 -0.860609 -0.53060645 -0.7911308 -0.273193 -0.97916365 -0.8601324 0.06409065 -0.21332999 0.9434427 -0.9254051 -0.88238204 0.6474756 -0.4375491 0.76061904 0.72856444 -0.5703204 -0.27752733 -0.89217764 0.77206445 -0.30085647 -0.7727498 0.6270643 -0.014934593 0.84336954 -0.5723315 0.4361709 -0.57665896 -0.5840815 0.73453254 -0.56229085 -0.7991991 -1.0178372 -0.056308683 0.8798128 0.12538625 0.7685734 0.24056298 0.8487885 -0.21046014 -0.30785012 0.95248586 -0.40450522 -0.15780583 0.1606249 -0.9718739 0.8793461 0.2049819 -0.73411894 -0.17094965 0.8597327 0.5504951 -0.2836314 0.33422944 0.49448973 -0.31702542 -0.049861316 0.8164242 0.18908064 -0.9310656 -0.0753844 -0.43566406 -0.22843985 0.32692033 1.0110995 0.10900128 -0.045905948 -0.7199873 -0.49797368 -0.3830731 0.7683582 0.83105934 -0.7816825 0.28797904 -1.0106884 -0.31627813 0.3067258 -0.9902593 -0.13616729 -0.9923635 0.9783128 -0.7602062 0.28051743 0.18130562 -0.29977056 0.071621634 -0.40697807 0.26536122 0.54923594 0.28984958 0.37294453 -0.34694424 0.59140927 0.10599348 0.18634097 0.2917928 0.65051365 0.9496552 -0.082276195 0.1695791 0.55712545 -0.7247853 -0.35883868 -0.094397254 0.13676772 0.27826774 -0.6212907 -0.78883123 0.8989562 -0.44092685 0.12089842 -0.8242763 0.38237226 0.92596483 -0.4239726 -0.8345567 0.23300192 -0.608701 -0.95261854 -0.7958501 -0.5033481 -0.5606659 0.64120704 -0.68000126 -0.86364883 0.98179 0.5193979 0.12925346 0.36571145 0.4881728 0.68460786 0.121285416 0.00951643 -0.8266648 0.995908 0.5639283 -0.22412924 -0.50856405 0.7550455 0.40780163 0.5645562 -0.371094 0.77735275 0.27537054 -0.30815646 -0.16061977 -0.08688973 -0.42792672 0.44516772 -0.25373378 0.41387847 -0.39223886 -0.22733717 0.06400732 0.1029849 0.39398152 -0.95496684 -0.6089482 -0.049986593 0.84035945 0.40789774 0.9035848 0.3608217 -0.59908205 0.7856721 1.099253 -0.10077949 0.65406686 0.0720728 0.8839447 -0.11469644 0.35979572 0.09878179 -0.9840337 -0.7822412 0.68915296 0.48931846 -0.09759483 -0.29332674 0.44092008 -0.35507464 0.9628961 0.93503296 0.5082212 0.07862002 0.6118411 -0.8842293 0.6017289 -0.8371565 0.61346555 0.7143123 -0.39899796 -0.44958955 0.29677746 0.59129524 0.9756249 0.93583626 -0.5669953 0.20307721 -0.49862042 0.047754705 0.2855648 0.873094 0.006210972 -0.41283402 -0.42164516 -0.51449627 0.5850861 -0.92931575 0.5739504 0.99945945 0.40472186 0.62781143 -0.7393635 -0.84212124 0.51959956 -0.081662156 -0.34182966 -0.92205226 -0.5813607 -0.31937528 0.29533765 1.0035344 -0.68667984 0.9929224 -0.55450517 0.47795203 -0.36176687 -0.51577705 0.9318493 0.16195093 0.4654507 -0.6091242 0.2390976 -1.0584221 -0.82749945 0.572639 -0.47649455 0.93476 -0.34425864 -0.21163778 -0.34466413 0.435625 -0.95753354 -0.8289448 0.8453182 -0.26070598
0.88339865 -0.6505827 0.31252012 0.28705713 0.37816262 -0.6654509 0.9208431 0.73893183 0.6904561 0.30049253 0.7554224 0.34612736 -0.3578867 -0.3264977 0.66112614 0.850778 0.2663101 0.6522866 0.9283474 -0.96470314 0.18221007 0.575849 -0.071538106 -0.46964434 -0.24190257 -0.682412 -0.37324145 -0.5987783 -0.7406215 -0.67773795 0.19852293 -0.66832554 -0.9701033 0.7498644 0.056036185 1.1194054 0.11623973 0.63219726 0.6025015 0.21058407 0.062425382 -0.28515068 0.13513541 -0.82250154 0.15709165 -0.17243233 -0.27220783 -0.35555407 0.21263348 0.523672 0.797241 0.07250539 -0.60454303 0.012722761 -0.6738887 0.787941 -0.49163494 -0.08334727 -1.0131437 0.6355254 -0.13755612 -0.19269611 -0.017421056 -0.31043243 0.5894994 -0.66942596 0.35656014 -0.27473068 -0.95412225 0.7436602 -0.80152553 0.7662435 -0.39729613 -0.47688287 0.1480219 -0.09402745 -0.05625158 -0.44322222 -0.1570249 0.3153556 0.76138854 0.39272884 -0.549172 -0.9113477 0.8936007 -0.15352271 -0.16083594 -1.0445056 -0.7444478 0.82905066 0.41377667 0.16562876 -0.7190702 0.7193387 -0.22691286 -0.0981221 -0.6729546 -0.69350433 0.81470585 -0.47595644 -0.7013088 -0.4552683 -0.7028 0.17989834 0.51658577 0.2561044 0.37046358 0.3655361 -0.8705248 0.9550542 -0.5044812 0.66743094 -0.27136713 0.8459016 -0.43579793 0.23604125 0.30355865 -0.78315145 -0.019271797 -0.5444469 0.37184623 0.63742095 -0.17198098 0.5922598 -0.24717933 0.58054996 -0.30044597 -0.97206587 -0.23152526 0.24101843 -0.63135713 -0.10284548 0.6180072 0.32519096 -0.96830356 -0.30134824 0.20956749 0.7141059 -0.07435308 -0.2601484 -0.12773186 -0.1921592 -0.9570819 -0.1791646 0.092090696 0.56390446 0.6732052 0.19328056 -0.20398115 -0.04866693 -0.74333 0.035198875 -0.48357886 0.13800171 -0.14712891 0.93136686 -0.3814889 0.8775748 0.7560816 -0.2554186 -0.13670127 0.40194276 0.5117721 -0.6029899 1.0195593 -0.8139805 -0.7060907 -0.82435006 0.53785706 0.9756181 0.5237734 0.45532888 0.14275709 -0.04260424 -1.0035477 0.8192709 0.8317933 0.8655926 0.6130532 -0.9734952 0.7146044 -0.5396172 -0.88047105 0.38851726 0.6759543 0.88029456 -0.57474107 0.768543 -0.3384286 0.3105331 0.060608152 0.040809028 0.3479877 0.26743472 0.31917405 -0.06795306 0.25942668 0.6801522 0.8523909 0.15519737 0.820768 0.697311 0.46422377 -0.57951665 -0.21670783 -0.7198594 -0.5531485 0.53006166 0.6469438 -0.768955 -0.56414604 -0.9552872 0.28694463 0.90122795 0.110188305 -0.6364707 0.26173 0.8072527 -0.14833842 -0.8071212 0.42071882 0.29528138 -0.63144034 -0.6144687 -0.3149175 0.51541996 0.28529695 0.35081562 -0.38674247 0.5592876 -0.006889631 -0.8011642 0.66470605 -0.15985584 0.2073267 0.49842456 0.53605205 0.5416082 0.66024446 -0.58552146 -0.4370356 -0.58338493 0.637846 -0.18546793 -0.8079287 -0.56510323 0.37261283 0.73311985 0.41436943 0.4907963 0.047037974 -0.463455 0.7403644 -0.13399397 0.763853 0.70165676
-0.4010633 0.55493325 0.70248854 -0.28632605 -0.37687954 -0.6430175 0.674294 0.39234474 -0.14317825 -0.58080596 -0.18847318 -0.8548062 0.18964407 -0.120731205 -0.39890784 -0.47893453 0.7552654 0.79153544 -0.028734086 -0.8740376 -0.2551904 -0.74977773 -0.70722634 -0.4609091 -0.39183053 -0.6773653 -0.32356587 -0.9434344 -0.22903778 0.27974176 -0.7305229 -0.5355078 0.5060455 -0.86439496 -0.6079041 -0.8984975 -0.10117591 0.5640033 -0.4614782 0.11439641 -0.9368636 0.18605943 0.65082616 -0.33974043 -0.75720274 -0.96861166 0.009880191 0.58896005 -1.024131 -0.4597157 -0.44480312 -0.9751135 -0.062789656 0.24898678 -1.0328382 0.82802296 0.9497011 -0.40222612 -0.13915685 -0.9406149 -0.02585333 -0.14241603 0.2602711 -0.1794558 -0.064963184 -0.013679136 0.5931805 -0.080337144 0.81407213 -0.18192698 0.22841324 -0.3784495 -0.8288618 -0.5396885 -0.434218 -0.25685087 -0.47591028 0.591338 0.94686973 0.7070358 -0.5523553 -0.27661645 -0.99607027 -0.7791455 0.45063683 -0.46300426 -0.5315018 0.9062663 -0.7024578 0.42208928 0.96953183 -0.83743745 0.6945477 -0.5889859 -0.2675754 0.80535984 -0.82606804 -0.2950682 0.61827654 0.45080703 -0.15589216 -0.5463603 -0.7212926 0.79846174 -0.8887692 0.63500404 0.8258198 -0.12085853 0.0531576 -0.2510342 0.3991135 0.17845553 -0.41477796 -0.45344386 -0.5391973 -0.76250607 -0.71965927 -0.164473 0.5557293 -0.06366308 0.62516004 -1.0768372 -0.6644666 -0.19393939 0.12118986 0.21911462 -0.9714873 0.7947462 -0.7625039 -0.47401917 -0.8805935 0.6088308 0.5979166 -0.1364919 -0.35810617 0.6918242 0.27777314 0.9599569 -0.505831 0.44947338 0.7885503 0.21239188 0.051175315 -0.53003854 -0.8857506 -0.70539355 0.42047203 -0.15886211 0.029961726 -0.4576583 -0.7172168 0.5361721 -0.02091258 0.7150636 0.38326207 0.21369983 0.56429464 -1.0009276 0.26667693 -0.34946787 0.3067399 -0.2987566 -0.7001727 -0.9342082 0.5365563 0.13382134 0.8484488 -0.057877827 0.65095514 -0.00391424 -0.030537507 0.8684472 0.012348793 0.003168496 0.011588079 0.8798996 -0.24947141 -0.6732816 0.9562561 -1.006665 0.3840396 0.7174772 0.49564907 -0.7906035 0.83461225 0.29791728 0.018173827 0.12310578 0.7298139 0.37981355 -0.7012302 -0.14490451 -0.036956485 0.083344154 -1.0435121 -0.88431036 -0.990615 0.024631374 0.8327608 -0.2468199 0.49787804 -0.60536504 0.93503803 -0.028068753 -0.5244934 0.08188002 -1.0965022 -0.05339125 -0.004171632 -0.9472438 -0.13160895 0.6165108 -0.37923384 -0.6648239 0.46924362 0.8878646 0.8540788 -0.5762491 -0.5000808 -0.38446137 0.21055004 0.6725052 -0.8978099 0.005990126 0.23140652 0.20944072 0.78664184 0.2851483 -0.5474234 -0.8219226 0.2213923 -0.023998864 -0.4064142 -0.42209318 -0.96853834 -0.08032538 0.89248955 0.12555736 -0.9041879 -0.12034445 -0.6712386 -0.6129149 0.70098025 0.5509284 -0.31928343 -0.85038596 0.17363992 0.44704723 0.87350094 -0.06410125 -0.72692937 0.43382567 -0.008033779 0.19342622 0.62582636 0.067128055
0.39617163 0.8726538 -1.002064 0.22993767 0.67289907 0.6153635 0.17121865 -0.57444245 -0.8804171 -0.16571574 -0.10527768 0.722521 -0.33193356 -0.29931796 -0.46903038 -0.5517293 -0.6500936 -0.3135758 -0.71369886 0.34114584 0.9055784 1.0333517 -0.8862143 -0.32117254 -0.6422461 0.29982838 0.22249717 -0.80662423 -0.79497385 0.27725226 0.5105396 0.18791652 -0.6801883 -0.846618 0.825284 0.81820494 -0.96406233 0.8290509 -0.09811797 0.05948936 0.24409832 -0.6084302 -1.0316918 -0.08663405 0.9610875 -0.1773911 0.6279901 -0.04283557 0.99596053 0.99198663 -0.9851498 -0.7087588 -0.30049637 0.07977903 0.17192319 0.47507176 0.6799365 -0.59266746 -0.33192623 0.7097628 0.40010384 0.23115967 0.26404142 -0.33936572 0.27719754 -0.9055046 -0.041038666 0.8901075 0.5045596 -0.046960365 0.61188334 0.913026 0.7736247 0.74947006 -0.72766227 -0.13274601 -0.0045501725 -0.21044639 0.0019707966 0.26160398 0.4036986 0.26657754 0.31181508 0.6808295 0.953636 -0.30685166 -0.984691 -0.59835297 -0.8593404 -0.8033864 0.7670689 -0.4281185 0.8838594 -0.17741562 0.4442241 0.15748388 0.75654685 0.20371157 -0.62438315 0.8811466 0.7129801 -0.63368034 -0.40502897 0.28944558 -0.7681879 -0.94266117 0.059596214 -0.45782825 -0.41651303 0.14023198 -0.19895759 0.9507402 -0.5941202 1.036232 0.17515655 0.0025229878 -0.6354351 -1.0000297 0.9068341 -0.43291536 0.08315636 0.69267446 0.007321473 0.51531184 -0.9515637 0.059957895 0.19748941 0.8408771 -0.2285075 0.42114648 -0.83359563 -0.80200225 0.05887503 -1.1047355 0.011952603 -0.94837373 0.58160436 -0.3576082 -0.18566516 0.64498633 -0.45338964 -0.7097221 -0.27014518 -0.84902763 -0.3763916 0.8225313 0.7778209 -0.84565973 -0.0049574887 -0.89876395 0.56879723 -0.41166747 -0.7577924 -0.32940662 0.74036425 0.5289887 -1.0054054E-4 -0.48386127 0.22386912 0.16540688 -0.493399 -0.5703611 1.0221871 -0.043805957 0.11277478 0.1524268 0.8297174 0.2473162 -0.992388 -0.4276413 -0.41113335 0.8154329 0.37153387 0.5473114 -0.9555328 0.5894461 0.15399602 -0.8953657 -0.7187057 0.70295596 -0.25181708 0.1861029 0.5062099 0.7805213 -0.8995215 0.39819175 -0.96042323 0.09333731 -0.6380559 0.7320393 -0.013043359 0.19477162 -0.6670827 -0.9269308 0.4044921 -0.8107285 -0.5909356 -0.058140133 -0.069061615 0.9186493 0.039033163 0.5550304 0.7647631 0.012764119 -0.40970832 0.008832962 -0.5342073 -0.33559927 -0.711484 0.2604821 -0.5217459 -0.9291352 -0.8423791 0.34554425 -0.8186526 -0.20149519 -0.854501 0.49397576 -0.957387 0.553325 -0.22648308 0.25765434 -0.33620578 0.0304257 0.060299624 0.9108685 -0.54256237 0.9140553 0.6921824 -0.49876767 -0.59008527 0.99066 -0.9093403 0.4109483 -0.23948187 -0.77272356 0.7328219 -0.35811305 -0.36102337 0.3880665 -0.05531749 -0.5613422 0.29666498 -0.015943304 0.578588 0.050914783 -0.31357774 -0.27317402 -0.9730513 -0.6193574 0.9308161 -0.43548185 -0.10360302 -1.0572469 0.39607078 -0.45425373
-0.1278627 -0.48276407 0.35139334 0.07992233 0.07156383 -0.0011267584 -1.0055693 0.21716386 0.0010370263 -1.00028 -0.5206694 0.33098105 -0.26251101 -0.47580153 0.6488311 -0.80022365 0.10299983 -0.89402354 0.52319664 0.29853198 0.9302164 0.6447889 -0.55028766 -0.15782143 -0.7066066 0.54166764 -0.41592476 0.52224714 0.20131104 -0.8573026 0.40102258 0.80015224 -0.5983077 -0.673869 -0.79448223 0.5304067 0.42040366 -0.32856396 -0.9051466 -0.4323861 -0.9687759 -0.17606732 -0.8136636 0.0028133276 0.62377757 -0.22754262 -0.4755481 0.70302707 -0.103884235 -0.14298894 0.8048773 0.035137117 -0.5955812 -0.012489841 0.8441518 -0.32817337 -0.1323353 0.7609205 0.5231516 0.60857385 -0.3329664 0.46547353 0.18439272 0.07209666 0.010321021 -0.5343776 0.38151798 0.5966802 0.46298623 -0.37298185 -0.91081023 0.5070264 -0.06297011 0.22868733 -0.63630825 -0.98125565 -0.9250664 -0.7814775 -0.78942347 0.34632736 0.17336042 0.80079556 0.5392968 -0.6660641 0.60912675 0.6352292 0.70289457 -0.60752946 -0.9004208 -0.15051892 0.5479406 0.72104025 0.56235033 -0.21819891 -0.09471374 0.23302037 0.92692685 -0.15336886 -0.032890532 -0.58218664 0.3866252 -0.8540485 -0.3500127 0.98334765 0.7902617 1.0049417 0.82297266 -0.8621808 -0.8778468 0.14262803 0.5917879 -0.8711356 0.06510953 -0.95123935 -1.0305262 0.75963247 -0.9231087 -0.6473502 -0.17874172 -0.625704 -0.43137857 0.32870266 -0.20848854 -0.44493553 -0.51478624 0.7159379 0.114926815 -0.011670934 0.74300593 0.55020404 -0.75909996 0.5368132 -0.6576842 -0.018534822 0.32409284 -0.5609926 -0.51659423 -0.32868743 0.7060188 0.03568527 0.28797725 -0.53907245 -0.013735597 -0.45267698 -0.78740877 -0.6254557 -0.034482528 -0.046079546 0.9199616 -0.9698448 -0.7726401 0.4771834 -0.04502965 0.27852088 0.85801244 0.72495013 -0.21962848 -0.24105489 0.31133923 -0.5013156 0.46148065 -0.50515616 0.025921443 -0.07046878 0.17545027 -0.35790426 0.51569873 0.52880454 0.79616565 0.7181866 -0.13509502 -0.6869724 -0.2656331 -0.33169323 -0.76078427 -0.2871355 -0.38775492 -0.27293357 0.9797512 0.74451756 -0.51458746 0.43684098 0.25989696 0.7911949 0.76262856 -0.91073406 0.9244597 -0.65667087 0.79012895 -0.280314 -0.32711637 0.95691967 0.6435937 -0.27861506 0.12585206 0.41079932 -0.0771149 0.7658347 -0.18173173 -0.7405866 -0.20369044 0.45629352 -0.4413895 -0.15061627 -0.7563464 -0.75702405 -0.5708106 -0.12450829 -0.10606179 0.4592957 -0.14669971 -0.10613824 -0.672556 0.5116956 1.0672034 0.51311344 -0.90388733 -0.36623776 0.583452 0.5485129 0.21172144 0.9471178 -0.83913976 -0.76493126 0.8812029 -0.6865722 -0.5090101 -0.68270767 -0.46856108 0.40226892 -0.49209777 0.7002838 0.7121672 0.17412464 0.4928875 0.08556978 -0.6361184 -0.57612693 0.76420933 -0.69257975 -0.37360516 0.65951914 0.8538355 -0.47422227 -0.1352104 0.15320379 -0.5053275 0.6953837 -0.34777468 0.17006369 0.72654665 0.7534899 -0.26029518 -0.020104075 0.67960465 -0.06865162
-0.45401055 -0.23723897 -0.4697306 -0.7731783 -1.0026882 -0.11565133 -0.857691 -0.46188754 0.53257895 -0.0733133 -0.64653707 0.75383633 -0.62557745 -0.6835927 -0.053025916 -0.80168766 -0.8398473 0.69074476 -0.40796822 0.92929393 0.30335444 -0.0141877355 0.78392345 -0.79927105 -0.548763 -0.56666327 -0.48624992 -0.50189686 -0.654404 -0.8593232 0.7197721 -0.8716501 -0.54164195 -0.64719045 -0.8453139 0.2673208 0.43731943 -0.40505996 -0.2208939 -0.15155846 0.46170524 -0.43633714 -0.7879727 0.22789654 0.5842416 0.83330405 -0.14719877 -0.5714637 0.61815107 -0.2011297 0.38987812 0.85570467 -0.99191207 0.9342365 -0.7702159 -0.010119654 0.8998977 0.026070938 0.17900258 -0.08546804 -0.86136836 0.21911474 0.4947791 -0.1758235 -0.29843146 -0.06895354 0.5226173 0.9817336 -0.38698432 0.4115929 0.87735236 0.60442084 0.45352802 -0.443665 0.5618337 -0.61430866 0.7830438 -0.2375655 0.76212496 -0.8451341 0.4536844 -0.60494655 -0.92758 -0.29143226 -0.866173 -0.9428049 0.026128972 -0.88831896 -0.2893859 -0.030189756 -0.18868975 0.18163787 0.95765764 -0.69184065 -0.77926797 0.1751206 0.17318527 -0.25722498 0.87010837 -0.62186664 0.4972024 -0.7683511 -0.28422865 -0.28065008 -0.67085415 -0.86455166 -0.6788991 0.023439812 0.62894684 -0.17049904 0.9026964 -0.5071618 0.34956446 -0.70269865 0.8647142 0.5742057 0.59949386 0.46125203 0.30552885 -0.55352694 0.53136086 0.8531667 0.8222391 0.85303074 -0.82654303 -0.6357805 0.8947177 -0.058019675 0.6312725 -0.44691944 0.7876916 0.22772 -0.36826724 -0.31924284 -0.5018526 0.27708238 -0.9762157 0.58993715 0.1461536 -0.050697647 -0.060407206 0.82694775 0.77757233 -0.83669305 -1.1421765 0.74221945 0.98656666 -0.29166272 0.36394235 -0.21569599 0.1483532 -0.110657685 -0.46523407 0.56608176 -0.45228228 0.8933757 0.91125065 -0.50495714 0.5538974 0.53862923 -0.06901595 -0.13857767 0.68512297 0.34400535 0.1990528 -0.48851094 1.0347217 0.25413767 -0.41688213 -0.8298436 -0.53178406 -0.2184979 -0.4053835 -0.27358186 0.8109493 -0.52547854 0.7086936 -0.71840155 -0.7077533 0.15119748 0.58406013 -0.20749615 -0.10206798 0.059540935 0.78656536 -0.20503312 -0.85455954 -0.17113991 0.11581957 0.5718369 -0.19632874 0.88070416 -0.9146476 -0.45900568 0.5861408 -0.004987551 -0.565612 0.7494805 -0.4296062 -0.7926485 0.09230457 -0.32210937 -0.033484686 -0.23993409 0.72094 0.6662184 0.31414115 0.95046896 0.468088 -0.65048677 0.039869383 0.06422434 -0.5902904 -0.1805569 0.0023579008 0.0060415417 -0.8423041 0.5249014 0.0017379193 0.73469985 0.94462925 0.36755604 -0.78184295 -0.71558315 0.006020217 0.24254145 0.8769138 0.33256984 0.6054975 -0.54940724 0.19630106 0.455569 0.48144674 -0.8871501 1.0565567 -0.32335758 0.3583139 0.37054992 0.13936676 0.44945186 0.6001195 -0.93297344 0.006866942 0.25358018 0.60432374 -0.26658535 0.9585619 0.62268627 0.057127714 0.07125221 -0.19451068 0.9795263 0.021618523 0.98919016 -0.581019 0.5173544
0.34664598 -0.86277485 0.48003367 -0.25294733 0.68291163 0.9739078 0.85709506 0.7407872 0.882967 0.73684937 -1.0606613 -0.03403222 -0.8179743 -0.7663416 0.74316424 -1.0020735 -0.5334819 0.26295778 0.41326126 -0.66245747 -0.49694908 -0.4637193 -0.8973549 -0.035380784 0.38236862 0.7636505 -0.352563 -0.57566035 -0.29304633 0.76079845 0.07068884 0.19047788 0.19182463 0.0190127 -0.36583728 -0.16338652 0.22426057 0.23198079 -0.9683133 -0.12585792 0.03776254 0.1550543 0.37401444 -0.46869716 0.7930834 0.97400045 -0.60199225 -0.8741923 -0.45703942 -0.7415135 -0.72749144 0.36121067 0.21070306 0.29475784 0.92986745 -0.91015196 0.90907776 0.22437304 0.6319578 0.03169885 0.74135804 0.21296276 -0.72129315 -0.4468629 -0.42542985 -0.38443446 -0.6024116 -0.23810954 0.99405384 -0.82155067 -0.24089637 -0.007956402 -0.75842744 -0.27425832 -0.5939714 0.30074963 -0.31192592 0.45444825 -0.041033953 -0.9451012 0.65126485 -0.28277525 -0.9715212 0.42101663 -0.3826767 0.6109863 -0.74878424 -0.9407978 -0.56988835 -0.14122361 0.92063206 0.114846446 -0.73185015 -0.5979416 -0.49127197 -1.1665684 0.24801533 -0.5546453 0.3914296 -0.329987 -0.41171724 0.97208065 0.24272734 0.37330216 -0.251427 0.019593691 0.40212372 -0.2109814 0.11478938 -0.5912337 0.8739385 0.30612797 -0.29667473 0.062060844 0.9892579 0.1791142 -0.1262176 -0.409444 -1.0028411 0.9241582 -0.6558062 -0.42177975 -0.72577006 -0.8961198 0.15099338 -0.011948465 0.1303648 0.34941956 -0.4984312 -0.2812132 0.23814704 0.229722 0.32052416 0.4882928 -0.4068785 -0.10390128 -1.0925317 0.1944347 -0.5576884 0.39865553 -0.94137186 0.9473051 0.63601303 0.15594576 0.4020528 0.24083938 0.24972734 -0.12787154 0.014260803 -0.40075815 -0.667708 0.88842887 0.5531131 0.2874807 -0.37379655 0.38275945 -0.9040898 -0.741723 0.8716581 -0.5575024 0.70487624 0.72752357 1.0095344 -0.7170987 -0.053215887 -0.53222835 0.44033176 -0.3719819 -0.5371008 0.7719796 -0.6770179 0.4171714 0.46877193 0.5775418 -0.62174153 0.5772533 1.1089966 0.20388897 -0.5635947 0.11192618 0.10181708 -0.6313302 -0.7183236 0.70633656 0.2670087 -0.43091193 -0.8499059 -0.068383984 0.70629084 1.0502281 -0.36667013 0.49330866 -0.91358346 -0.7027626 -0.5819974 1.0918593 -0.8220331 0.0961234 -0.22557744 0.29258692 -0.034383815 -0.43108413 0.9168389 -0.52130187 -0.8036189 0.40888798 -0.62518775 1.0857544 0.58655405 -0.07815026 0.37771592 -0.47609207 0.18911102 -0.6125425 -0.37176958 0.850425 1.0230415 0.41249838 0.050544888 -0.7058861 0.96730405 0.2791628 -0.55847937 0.5473405 -0.995248 -0.3980208 -0.1054399 0.7538637 -0.64911395 0.59325093 0.5471046 -0.8802066 -0.18559195 0.9114522 -0.3255273 0.49367887 0.0030823147 -0.58291113 -1.0038985 0.643028 -0.3641644 -0.8426161 0.47879243 -0.7613548 0.0488644 0.65411896 -0.060659684 -0.04857038 1.0324941 0.7621197 0.86187136 0.9048135 -0.4824248 0.9137544 -0.21978498 -0.7566684
