0.4660827 0.059449002 0.89584506 -0.8755344 0.19881701 -0.16059707 0.22800632 -0.7137197 -0.37629035 -0.87742674
-0.85558236 0.66763043 -0.79143655 -0.73800325 -0.17531829 -0.44296277 -0.02754441 -0.7106703 0.08230719 -0.51607573
0.36920652 0.0674374 0.9251498 -0.91682476 -0.548554 -0.4453101 -0.5170311 -0.8084567 0.8782738 0.8943408
0.4556029 0.281194 0.88842183 0.684174 -0.83523685 0.12816945 -0.120751545 0.037145603 -0.83236885 -0.50111973
1.0650909 0.96372706 0.3828785 0.3826454 -1.5727977 0.58729595 0.2111795 -0.84557825 -0.15322068 -1.4520849
-0.803189 0.42871982 0.18707389 0.011411947 -0.43408722 -0.18876384 0.54542994 -0.8900622 -0.5278564 1.3718512
0.5567742 0.7881115 -0.39416772 0.9289185 -0.121171124 0.4613998 0.81722635 0.16383398 -0.95381695 -0.49571168
-0.30166602 -0.29419342 0.5496909 0.32710308 0.607085 -0.37174848 0.29135755 -1.3132493 -0.12041886 -0.26638696
0.73573405 -0.4841376 0.42242748 -0.5770853 0.49281105 0.37022153 -0.94314563 -0.016820272 -1.2689747 0.27810988
-0.34026682 -0.6491626 0.3523428 -0.063781746 0.10340245 -0.66679406 -0.8191849 0.4945224 -0.016049791 -0.9492821
-0.17259485 -0.14949878 0.36720893 0.016811766 -0.21763913 -0.39422265 0.22104801 -0.43993223 0.113597944 0.45112568
-0.13408004 0.38081956 -0.6079661 -0.61791086 0.21230467 0.66015494 0.056989428 -0.69354165 -0.07113033 -0.31443477
-0.82712805 -0.25101537 -0.11306938 0.12682512 -0.94924897 0.5823861 -0.77469987 0.74507934 -0.040838376 -0.55414563
-0.98470104 1.0324079 0.005938159 0.5713625 -0.6927764 -0.7327633 0.42448854 -1.2169764 -0.23103233 0.7432856
-0.33109123 -0.055606984 -0.56579065 -0.37476707 -0.561611 -0.81836694 0.29840204 0.23999879 -0.69883823 -0.4299371
-0.8190582 -0.17136782 0.23061688 0.38771558 -0.44828594 0.4683543 -0.20151584 -0.80106586 -1.0245228 0.63847363
-0.4953143 1.1091682 -1.3825365 -0.108404204 0.60906714 0.9200617 -0.921468 -1.2160317 1.1660455 -0.34089452
-0.32087255 -0.2753236 0.06696664 -0.74298483 0.004508301 0.6497361 0.34114468 -0.67261106 1.0039386 -0.10891162
0.06901024 0.36198154 -1.0952963 0.72227114 0.43245083 -0.7743212 0.5184079 -0.13025878 -0.9858422 -0.47146994
0.40090042 -0.37573278 -0.9428624 -0.5490021 -0.5145716 0.0014276438 0.13235766 -1.0921465 -0.37117454 0.7642151
0.107291736 0.34153232 0.3604997 -0.20578875 -0.83839315 -0.037640106 0.7550737 -1.0694009 0.3100926 0.53789395
0.5150542 -0.6740035 -1.30748 1.29534 -1.13524 -0.042362038 0.44411692 0.11089835 0.053017687 -0.4210379
-0.7987685 -0.29903585 0.82772624 -0.722389 -1.0771437 -0.59285545 -0.6438868 -0.060967606 1.1327866 0.33734453
1.2921896 -0.87127686 0.63362455 -1.803906 -0.81092316 -1.3837266 -0.370921 1.4458126 -0.73404694 -0.99238074
-0.5917279 -0.6622827 -0.14115646 -0.6066655 0.5989658 0.7894732 -0.029720953 -0.7207056 -0.06784478 0.26994106
0.35972401 -0.05228442 0.09708322 0.69440055 -0.15837958 0.35749328 -1.6531641 -0.502738 -0.4988848 0.58283603
-0.29143214 -0.035848767 0.7093588 -0.97356063 0.8740543 -0.22157204 -0.5604294 0.89540946 -1.2785242 -0.06070717
1.0244753 -0.7775069 0.8922601 0.8874808 0.47132826 -1.1275774 -1.0705255 -1.1910878 0.9655071 -0.23884493
-0.87246555 0.6674378 0.0053225667 0.44543418 0.50938606 -0.8430657 -0.8175121 -0.8442063 -0.5560502 0.1314627
0.48517853 0.30141103 0.9002572 -0.6153068 0.62892556 0.60711503 -0.8870608 -0.9144829 -0.11486353 -0.37277082
1.7007893 0.043275762 -0.9970087 -0.31806424 -0.4102148 -1.3327523 -0.91688323 0.7836005 -0.97596616 0.27497157
-0.59663594 -0.46386245 0.67912185 1.0510763 -0.928442 -0.9200533 0.5493822 0.483779 0.95442796 -1.1567235
-0.7792714 0.18108748 0.6089921 -0.45767838 0.25232488 -0.5757982 0.28031456 -0.82897675 -0.88395685 -0.6430363
-0.17980173 0.28573978 0.7735101 -0.5450692 -0.25277984 0.16891883 0.110484205 -0.9933421 -0.11964781 0.4093683
0.04451309 0.580589 -0.20357428 -0.79761356 -0.47265202 0.13551047 -1.082637 -0.23279549 0.8345186 0.6547424
-0.22125767 -0.13695948 -0.37871507 -0.91061175 0.49528876 0.205769 -0.807518 -1.3970165 0.8307302 1.3199008
-0.6175569 -0.8546923 0.615941 1.0928696 -1.2116982 -0.6187102 -0.7208853 -0.87999856 -0.5905798 -0.4770587
-0.14398888 -0.15179352 0.6670246 -0.2576691 0.2481535 -0.7760922 -0.38457206 -0.03279961 0.47115067 0.8111153
-0.6548102 0.19430706 -0.82338595 0.58097106 0.6560965 -0.35319725 -0.8064469 0.09920614 -0.04546602 -0.45108843
0.64718354 0.16642526 -0.36161417 -0.5038126 -0.30709666 0.9027058 0.34133482 0.06684969 0.81782895 0.28077886
0.61135733 -0.7993494 0.6605607 -0.72693664 -0.7613734 0.41790378 0.22821125 0.8993316 0.19723153 -0.7921573
-0.23684174 0.46751907 0.6962659 0.33223507 0.87237304 -0.42557827 -0.53448063 0.262006 0.017136788 0.7128381
-0.8729108 -0.21534258 0.53755945 0.74491775 -0.55813336 0.46336478 0.17725424 0.5955583 -0.024748988 -0.18208754
-0.24778253 0.826302 1.2507595 -0.3146074 0.0099047925 -1.8951097 -0.8310129 -0.7323442 1.9131095 1.6901364
-0.7234578 0.60884064 -0.25089115 0.41314375 -0.20993708 0.28004208 -0.048089866 -0.13653043 0.66421807 0.64095265
1.0064243 1.3069109 1.3645957 1.1582112 -1.327168 1.026588 -0.050532576 0.13469212 0.75552934 -0.7954882
-1.2047778 -0.2100812 -0.84894305 -0.5024975 0.06102444 -0.8330325 -0.90351564 0.28250992 -0.2692284 -0.59391046
0.19136348 0.2570859 -0.593268 0.3757223 -0.6966928 -1.0791637 -0.78369987 -0.23567498 -0.9327112 -0.4390406
-0.84376633 -0.6715102 -0.19779196 0.2510648 0.30696708 0.63889223 0.7731007 0.6848911 0.068512656 0.93994457
-0.5139681 -0.15716103 -0.8970187 0.44752944 -0.62692714 0.06336503 0.37338787 0.42533588 0.78214043 -0.7003238
-0.77034736 -0.8680701 -0.5579765 -0.20432952 -1.1070459 -1.0446763 -0.24775326 -0.1667738 0.513517 0.63399994
-1.1175245 -0.08821788 -0.5834523 -0.5466907 0.76265806 -0.97403324 -1.0289731 -0.70657057 -0.5997353 -0.08110437
-1.0549041 0.11744139 -0.60386175 0.32632074 0.85901076 -1.2244071 1.0208341 0.64646786 0.6038167 -0.6641901
-0.4194503 0.8578128 -0.25806868 -0.72735965 -0.88866097 0.33789992 0.0105791595 -0.26014012 0.2623471 0.06673378
-0.2339096 -1.2467399 -1.2690428 0.8396082 -0.20606165 0.26727536 0.40808535 0.35831827 0.52395695 0.7983016
-0.1239738 0.72195977 -0.16329123 -0.14060166 -1.5341377 0.50440544 -0.041437943 1.1373794 -0.6745606 1.130803
-0.39419252 0.42987776 -0.17228983 -0.56608653 -0.45961246 -0.4084483 -0.42892322 0.6629448 0.6165356 -0.589049
0.12815225 0.58136195 -1.233207 -0.010460139 0.2115408 -0.43063006 1.0867184 -0.42880404 -1.3016174 -0.85513574
-0.2105942 1.0153494 -1.2636758 -0.6500021 0.2490046 -0.3770031 1.1047173 -0.1463481 -1.0158992 0.5404929
-0.3227368 0.4299182 0.30853927 -0.26947504 -0.5147344 -0.21407408 -0.93233836 2.5622145E-4 -0.4193659 0.5631773
0.9439383 0.7562141 0.8111677 -0.03843926 0.4279558 -0.728729 0.7713132 -0.71268743 0.331819 -0.07826141
-1.2262632 -0.5508093 -0.68834263 -1.237807 0.6399733 -0.2644453 -0.92931396 -0.99743086 -0.10430948 -0.9181767
-0.1928998 0.14088663 -1.4035379 0.89768565 0.49863636 1.5412387 -0.22662923 0.25703457 -1.6511942 -0.0058690454
0.7623481 0.6395877 -0.10361147 0.4333713 -0.72452694 -0.44199926 -0.53600156 0.34562102 -0.6673662 0.31883612
-0.36899114 0.98292285 0.022122411 -0.84369403 0.95914084 -1.0839832 0.6265345 -0.67860514 0.7932256 -0.6149258
-0.8326833 0.4611008 -0.9010231 -0.2914829 0.8562534 0.47202203 -0.41831148 -0.73871386 0.12054725 -0.21404178
0.19968976 0.8048702 -0.9764318 -0.17746367 -0.5445069 -0.5120454 -0.52624345 0.7610497 -0.7493536 0.21545795
-1.2176981 1.0641592 -0.5433049 0.3767671 0.44339326 0.17710926 -1.0400655 0.9328602 0.16182412 -0.06778455
-0.45065513 0.63387656 -0.24336576 -0.5648799 0.16613705 -0.9191559 0.5175512 0.7858756 -0.34048477 0.40989053
0.28494883 -0.65650016 -0.7901721 -0.81286687 0.8725843 0.63772213 -0.3367569 -0.023838684 0.36357167 -0.39218533
0.36883765 -0.41362143 0.28517792 0.4645628 -0.2541662 0.60558915 -0.480458 -0.3463659 -1.0899736 -0.32672974
-0.37651893 0.71891826 -0.7300894 -1.1544788 -0.7500122 0.4078068 0.2171795 0.480312 1.2610654 -0.63218653
-0.75021505 -0.8099267 -0.58230424 -1.1914464 -0.04373259 -0.06895599 -0.4295689 0.73423576 -0.31059623 0.20821704
0.97643214 -0.63757205 -0.33145484 0.0577385 -0.003705893 -0.89272064 0.31542283 0.90928084 0.27092144 -0.5104661
-0.8809087 0.014572441 0.8978023 1.8513967 0.46777436 -0.7389728 -1.2431746 -0.6717969 -1.4992031 -0.13220054
1.623401 -0.24953985 -0.8352522 -1.2928773 -0.254307 -0.3274303 -1.3583349 -0.5900604 0.66982234 0.7499549
-0.84188807 -0.5748303 0.1692694 -0.5334656 -0.04478142 0.2755541 0.47861388 0.16143593 -0.1610902 -0.8798329
-0.49803925 -1.1423386 -0.049791466 0.11441245 -0.9300958 -0.4240314 -0.6759681 0.7780583 -0.6309595 1.2522973
-0.8271006 -0.3414995 -0.80053926 -0.4345099 -0.5936603 0.7137991 0.8660807 -0.13435782 0.5975995 0.3116032
-0.27980128 -0.6277508 0.9665039 0.65399367 -0.42069295 0.9752642 -0.18324207 -0.08556739 -0.75155526 0.37454784
-1.2667884 0.6263534 0.3633406 -0.91917014 0.89064217 -0.9971318 -0.28745666 1.1625059 -0.09848215 -1.3136884
0.4216444 -0.9180668 0.08580954 -0.4435437 -0.21466793 1.2592386 -0.052118845 -0.7416279 0.32908434 -0.10014998
1.1267986 0.73601747 0.82789135 -1.424017 -0.18303698 0.5052447 -0.059473827 -0.5542813 0.44057304 -0.28681618
0.09500793 -0.24038304 -0.44765547 -0.46261927 -0.19919357 0.7201263 0.17532748 0.78787774 -0.7589536 -0.7791677
-1.6239718 -0.9182346 0.64700943 -0.47956243 0.74923706 1.4003848 0.8754302 0.20284927 0.39755052 -0.39047128
-0.27518433 -0.6902871 0.11417378 -0.6148872 -0.09669687 -0.5452376 0.37121654 0.63336563 0.73422825 -0.5903082
-0.022758493 0.56418484 0.19218433 0.21587089 -1.0271951 0.8595917 0.23246898 0.6603037 -0.6970842 -0.38810408
0.05819868 0.62189955 -0.02149066 -0.4298707 1.3308643 -0.45904225 -1.1418841 0.13565202 -0.22358038 0.26487958
-1.0102361 0.5479955 0.57276887 -0.28012517 -0.49560332 0.04276867 0.080174044 0.6882633 -0.19776846 -0.84633315
-0.78680086 0.7582732 0.55314255 0.8956205 -1.2090786 -1.2670071 -0.9791889 -0.5560309 0.48604056 0.5161184
-0.7436173 0.2019703 -0.49811733 0.020553574 0.7238201 0.040617384 0.48518968 -2.5322745E-4 -1.1407406 0.3834578
1.5053018 -1.1446786 -0.3208677 -0.58269465 0.30429816 -1.2243513 -0.32135603 0.7587753 -0.37189785 0.0145918345
0.56174636 0.1420833 -0.36977634 0.3209895 -1.3813822 1.25967 -0.04177018 -0.59862226 0.66821694 -1.4857019
1.1610731 -1.0721827 -0.7930568 0.20078446 0.6422794 0.27561995 -1.5691966 0.26509312 -0.11432259 1.5059288
-0.28003109 -0.2852939 0.41218024 0.2005376 -0.23909102 -1.2620327 -0.50859106 0.5216828 1.4732337 0.13022317
1.1914229 -1.1990863 -0.553451 -0.27646556 0.5073943 0.53728884 0.15926842 -1.3111647 -0.3902421 1.1093223
1.0593804 -0.6917766 2.1829998 -1.4235784 0.24106835 -2.0877101 1.5629059 -1.1853966 -1.290979 0.49848545
0.26608977 -1.0696946 0.9012538 -0.6843049 -0.01859771 0.29053062 1.3302474 -1.0476903 0.9539135 -0.92087
0.04542851 -0.11456863 0.6853778 0.15658866 0.072572716 -0.46632826 -0.23863117 -0.8919954 -0.112855904 0.39909154
-0.36274627 -0.8671483 0.7357821 -0.9675278 -0.41083193 -0.67463046 -0.27146152 0.42289665 0.35952222 -0.1243395
0.56742674 0.34837776 -0.8625971 -0.25928643 -1.3907381 -0.960869 1.1029292 0.18050452 -0.07236961 1.3159692
-0.66856176 -0.74718606 0.83245337 -1.1936271 -0.39298362 -0.26231286 0.3047098 -0.72072685 0.5083317 -0.10605603
-0.2999596 -0.77617776 -1.0762358 -0.14078678 0.903803 -0.7733922 1.4850136 0.12637623 -0.735369 -1.6894053
-0.020590838 -0.5062829 0.7857842 -0.4002752 -0.6444099 -0.30443537 0.47247583 -0.5796848 0.6853386 -1.0103643
-0.8086553 -0.35352048 -0.57086563 -0.0022782432 -0.6957743 -0.19099537 -0.7466495 -0.43627787 0.26536435 -0.27674755
-0.019445328 -1.062309 -0.24873139 -1.1677657 -0.87863535 -0.79667753 0.32340744 0.035760462 0.28591865 -1.1411602
0.9659025 -0.57023966 -0.7168265 0.20375663 0.891453 -0.7230015 0.34598944 -0.54816085 -0.078370936 0.009955777
-0.22669117 -0.5464082 0.99239475 -1.118129 -0.6036531 -0.52287304 -0.21975665 0.6986396 -1.3811632 0.17382956
-0.13914047 0.46083942 -0.20552678 -0.6935091 -0.91323185 0.41226354 -0.26158515 0.8213249 -0.36768237 -1.119152
-0.07096026 -0.9040612 -0.28247344 0.738704 -0.86623245 0.11408561 0.33867133 -0.64404964 -0.63749206 0.81873435
0.19549133 -1.0779666 0.16949919 0.46865445 0.29078564 -0.87127995 -0.82461715 -0.33745322 1.1056131 0.33420673
-0.21280174 -0.63036335 -0.5515814 -1.0214677 1.2644619 0.3119981 -1.1573955 1.1461475 0.55862933 -0.7227404
-0.5875869 -0.4859015 -0.90241444 -0.9050667 -0.7364294 0.17096627 1.1966403 0.89660746 -0.46355587 0.63146096
-1.0387894 0.8079189 -0.83331275 0.3717652 -0.66395193 0.97441417 -0.16714555 -0.33696714 -0.9362526 -0.8337731
0.7454449 0.764165 0.27648327 -0.20006189 -1.1758922 0.5221862 0.5259005 -0.15897608 0.8112863 -0.9608472
1.1001502 -0.6872584 -1.1288911 0.72469723 -0.31417564 -1.1163585 -0.32242298 0.25984123 0.6463955 -1.0230887
-0.012139822 -1.2890282 0.6238885 0.15059426 -1.1919537 0.5371749 0.5610597 -1.0817778 -0.92419773 -1.0266519
0.42217174 1.0775642 -0.42003867 0.74557626 -0.62240934 -0.81869936 0.6851516 -0.8472794 -1.2824506 -0.25906602
-1.1054919 -0.73574823 -0.91129065 -0.5086758 -0.43328813 1.1465001 -0.22516292 0.01874215 0.38992694 0.7480536
-0.55157876 0.70478535 0.20464863 -0.6778584 0.6800684 0.5390325 0.41380662 0.46426362 0.68468523 0.35010985
-0.012421755 -1.5288029 0.75621563 0.92992485 -0.9440609 -0.3067792 0.31169194 0.28290242 0.6037795 -0.17338182
0.14021342 0.5549578 0.6524679 -0.9376118 -0.51456285 -0.20083925 0.2766792 -0.7938252 0.35612458 0.5213981
-0.9258732 0.12914486 0.8664017 -0.10482222 0.65456873 0.9635467 -0.8895691 0.88795865 0.16736105 0.328484
0.7200998 -0.7170095 -0.4112243 -0.2925402 0.798378 0.5968167 -0.44445997 0.6006399 0.7683918 -0.37677464
0.5055301 -1.5136039 -0.14363104 1.1010122 0.06985612 0.533551 -0.65422994 0.54213965 0.2930123 -0.6862651
-0.8471275 0.50773704 0.58141464 1.1042862 -0.89061064 -0.8245869 -0.94952273 0.9559995 -0.756068 0.9339779
0.3427039 -0.03661434 -0.64020604 0.37122157 1.1114753 -0.9198947 0.99793637 -0.9296171 1.3250955 1.2490712
7.1604556E-4 -0.3942543 0.49231815 0.6427693 -0.13167869 -0.008074072 0.113504075 0.05733879 -0.62632596 -0.6041312
